2 64
1426227 0.0066924905 -0.008611634 -0.00790436 -0.0062596356 0.0040400894 -0.00010798419 0.0025346198 -0.0046360134 0.009404575 0.008511752 -0.007771387 -0.002193242 -0.006193007 -0.0065006386 0.0045517404 -0.008599801 -0.004031151 -0.008511252 -0.003171106 0.002557203 -0.0035306707 0.0033777603 -0.0061044805 0.008052824 -0.0024649783 -0.00532526 -0.002453914 -0.0057722176 0.007564392 0.0024414265 -0.0035485553 0.0031631775 -0.0039251093 0.009397043 0.0064071324 0.0024501765 0.009277418 0.00067081704 -0.0055792686 -0.00420192 -0.0009562835 0.0013986386 -0.0026381067 0.003048287 0.006217515 -0.002157982 -0.008826537 0.008080451 0.0037058883 -0.008795687 -0.0071596024 0.007924037 -6.9759204e-05 0.0006388704 0.003842124 0.005918804 0.0011339517 -0.0036192578 -0.0045771473 0.008487253 -0.0047932924 -0.003249179 0.00039009497 0.008583377
1522252 -0.0003133682 0.0024212096 -0.009221364 -0.004938976 0.006489031 0.0035907384 0.00392088 -0.008416344 0.0026616484 0.0070556793 0.0033272905 -0.007019904 -0.0060281833 0.0076429853 0.0067266296 0.0037574384 -0.008183943 -0.008489886 0.0074429433 0.0070190793 0.004974039 -0.0052106236 0.0013856422 0.001002171 -0.008293714 -0.00038805854 0.0024310283 -0.0039871214 0.0029497282 0.0016328595 -0.0025003096 0.0034044036 0.0031199658 0.0028346865 0.0031093115 -0.00027683526 0.005425864 0.0066726245 -0.009112283 -0.007069292 0.0075923856 0.009415291 0.004333111 0.003021089 -0.00421175 0.0022940785 0.00022558356 0.006635166 -0.0017074704 0.0036226283 0.0025599715 -0.003944991 -0.0076609217 -0.0050326902 0.0025439595 0.0093186 -0.0001859854 0.0017503217 -0.00018353557 -0.0027294094 -0.0060037784 0.008582211 -0.0076626064 -0.00396137
