171 64
1536424 0.24432819 0.004664943 0.38990563 0.49385834 -0.1277823 1.0131242 -0.24337962 0.30473983 -0.34261298 -0.2963464 0.25553364 0.20394804 -0.40258783 -0.27104935 -0.0040144 -0.501938 -0.035178043 -0.64574933 -0.43273383 -0.077463314 -0.69920456 -0.78657264 -0.1737457 -0.32424724 0.041639768 -0.18699372 0.20463888 0.3086565 0.7156531 0.1261817 -0.04110125 -0.6460669 -0.4084947 0.09245458 0.12659857 0.052537963 -0.144959 0.36018094 0.09875041 0.46822014 -0.46211928 0.29978818 -0.2280676 0.062224306 -0.7258844 0.3478971 0.4219089 0.59877366 -0.12655018 -0.2673848 -0.054200903 0.15466702 0.06561853 -0.017859582 -0.29707882 0.56051546 0.023289148 0.2863362 0.5821834 -0.09965812 0.25995028 -0.0396528 -0.2248398 0.2029179
1692202 0.561868 -0.87579894 -0.024467891 0.5340148 -0.6668186 0.9168886 -0.6107889 0.48242047 0.58036643 -0.29635862 -0.046333123 -0.11788658 0.23079784 0.90623105 -0.7239545 0.29642436 0.06471459 -1.0162382 -1.1335338 -0.49618337 -0.3586094 -0.10134035 0.22162512 -0.7865605 0.16290948 -0.91899467 -0.5218287 -0.12865283 0.5627649 0.41307005 -0.88522786 -0.6086457 -0.75794613 0.43748322 0.12501475 -0.43504784 -0.32651573 -0.13075373 0.5642019 -0.0955545 0.7270166 0.657687 0.05224077 0.26663163 0.07170846 -0.25341937 -0.692059 -0.32109404 0.5128722 -0.5545468 -0.5962994 0.9151295 -0.0680813 -0.24921854 -0.6014849 -0.48129383 0.6855129 0.1086024 0.6941787 -0.5685774 -0.50671184 0.01723936 -0.23912336 -0.70163256
99819 -0.1371488 -0.17855638 0.4633797 0.36494556 -0.047956537 1.0695761 -0.15569718 0.31770685 -0.22718033 -0.2079457 0.54420424 -0.028608734 -0.21195365 -0.091429636 -0.20366342 -0.17501424 -0.1751394 -0.2637157 -0.34902033 0.010432822 -0.7847545 -0.68099433 0.048843086 -0.15449724 -0.120258704 -0.11281536 0.45004553 0.2989391 0.9855563 -0.08337171 -0.3036514 -0.561126 -0.29955146 0.4016698 -0.038757794 -0.28984064 -0.0156132 0.42103434 -0.12623419 0.46044636 -0.24392997 0.5823183 -0.34272677 -0.14471765 -0.7687834 0.31999907 0.13161746 0.41434094 0.045502968 -0.616559 0.038241193 0.3202117 0.2000281 -0.24627216 -0.06332591 0.56469893 0.09878036 0.19080846 0.67327064 -0.10452543 0.091116056 0.06997414 -0.0008111435 0.06012696
624312 0.13484561 -0.21257786 0.4368412 0.46367598 0.13001949 0.9457748 -0.16080533 0.10492767 -0.545639 -0.2763109 0.4250248 0.3665126 -0.17320646 -0.178096 -0.23139615 -0.44234163 -0.005616861 -0.5623099 -0.45853412 0.050775368 -0.7724996 -0.7464538 -0.14475837 0.030347236 -0.2606618 -0.12225281 0.21701016 0.04524733 0.8866557 0.08236219 -0.088944755 -0.5019037 -0.2049699 0.19337311 -0.1349692 -0.14996137 -0.026942814 0.23422185 -0.03130621 0.41270572 -0.23246512 0.34777337 -0.391679 0.051308926 -0.9173162 0.28049245 0.27246064 0.38139772 -0.13697697 -0.35661694 0.07621767 0.14967103 0.19091113 -0.015584703 -0.11567236 0.41428778 0.10279406 0.12352904 0.5578924 -0.067975305 -0.18493041 -0.102237165 -0.3929896 0.0027505944
1154985 0.43774042 -0.85073847 0.33949438 -0.10833606 -0.5564267 -0.43311042 -0.20519443 0.55289876 0.14494306 -0.9272842 0.23106635 0.038374733 0.32433447 0.95642835 0.017380036 -0.124283165 0.28193605 0.14554413 -0.4403313 0.06847546 0.34655806 -0.71011007 0.031333897 -0.035509273 0.7811203 0.6101164 -0.7977669 0.6100901 0.41508827 0.44684747 -0.7429575 -0.2680769 -0.9131787 -0.10861098 -0.4793901 -0.38033408 0.010351843 0.34633416 -0.44253054 0.2585384 0.34348786 0.4484341 -0.8225938 0.47956455 0.2538891 -0.14745134 0.2967662 0.6875585 -0.19829704 0.01204487 0.44230026 0.090757035 0.4963175 -0.57100713 -0.25736395 0.74522656 0.3087251 -0.3926258 -0.02001265 -0.6488372 0.42032284 -1.1923696 0.19881052 -0.6176039
751942 0.5982443 -0.8775931 -0.024372436 0.108444415 -0.705463 0.424581 0.13177978 0.48350614 -0.56612724 -1.0572681 0.26182845 0.6639084 0.5055393 0.35850412 0.7080838 0.026168447 0.81237084 -1.4208485 -0.3748724 -0.402816 -0.21426682 -0.32496446 -0.13417998 0.099758506 0.63674885 -0.21600084 -0.39760512 0.20839901 0.6348956 0.6692292 -0.50828856 -0.6673489 -0.5241636 0.72327965 0.5209342 -0.93050987 0.3016903 -0.26181337 0.85907155 0.24105936 1.1886287 1.6782827 -0.2277478 -0.09691233 0.1362314 0.4183351 0.8148109 0.0121313725 0.6562107 -0.1867422 -0.66114587 -0.13312063 -0.19155799 -0.29653284 -0.11421959 -0.8495321 -0.51076925 0.6730753 0.12341517 -0.77695024 -0.27514258 -0.8403797 -0.70094544 0.31666318
1333312 0.510966 -0.92912984 0.43201327 -0.20058547 -0.3824333 -0.18114688 -0.2945027 0.18995492 0.10268859 -0.80178845 -0.046912365 0.1534317 0.4581217 0.72904545 -0.06729132 -0.08676304 0.45683292 -0.083812304 -0.5409454 0.017506419 0.3189811 -0.6443451 0.03924328 -0.16748619 0.41771892 0.69667464 -0.70888746 0.6800439 0.3706899 0.5059941 -1.0604146 -0.41196853 -1.0838892 -0.03635595 -0.40053082 -0.31070018 -0.11800476 0.45465195 -0.5992306 0.33017033 0.31650513 0.23055556 -0.9043649 0.03875792 0.30874923 -0.13434894 0.14816006 0.69702286 -0.14480607 0.14114289 0.23464853 -0.09782179 0.42839363 -0.5521853 0.30355388 0.6011123 0.49799794 -0.25161663 0.014257082 -0.5367828 -0.018576475 -1.0337377 0.15357125 -0.61878157
255359 0.28750867 -0.219841 0.32960442 0.46329924 -0.2832115 0.9734138 -0.35114852 0.12273469 -0.38201746 -0.38450006 0.2564982 0.39074716 -0.34960437 -0.16492471 -0.23349628 -0.35829285 0.44138524 -0.3588551 -0.34859994 -0.046368252 -0.5517245 -0.835044 -0.36366805 -0.18548782 0.07183057 -0.6923382 0.613901 0.30771518 0.67563707 0.53483707 -0.21660765 -0.81751305 -0.4002718 0.1927216 -0.09014436 0.07430052 0.10505817 0.68542635 -0.27755547 0.70347357 -0.35776013 -0.03869515 -0.40592182 -0.21670842 -0.49620974 0.31383452 0.15716483 0.48658153 -0.11643711 -0.06771691 0.045387983 0.2747146 -0.16194607 0.060996056 -0.19909257 0.1872978 -0.042824656 0.20759858 0.44880876 0.5327416 0.038050532 -0.41808182 -0.45580533 -0.04059662
1551612 0.17378925 -0.4355167 0.27081347 0.23429275 -0.16788308 0.9393626 -0.25980592 0.3879221 -0.3859455 -0.29349887 -0.11154118 0.24128902 -0.030913495 -0.3861202 -0.4073488 -0.72800934 0.14977379 -0.5097607 -0.53070027 -0.033068214 -0.4651679 -0.6545906 0.1189535 -0.3670929 -0.4488687 -0.328641 0.50025046 0.064944156 0.89024323 0.28971353 -0.26920712 -0.6193072 -0.33789524 0.24067499 -0.111998685 0.13702282 0.39418414 0.7680559 -0.14898415 0.5099556 -0.56391764 0.2253709 -0.485356 -0.13530293 -0.6815512 0.52244085 0.3111884 0.26659098 0.11053927 -0.54124236 -0.15861145 0.37591136 0.2067864 -0.16514227 -0.0033032128 0.31013066 -0.1841993 0.41204658 0.61359054 0.14391689 0.10589087 0.11358097 -0.6756783 0.053443566
1361617 -0.02746871 -0.3664741 0.4587803 0.6403295 0.0007554884 1.082424 -0.20362279 0.35087737 -0.12947111 -0.26554996 0.44794858 -0.05353731 -0.32319418 -0.07305829 -0.16109204 -0.106526025 -0.12003968 -0.25508896 -0.26820362 0.08301586 -0.67115194 -0.7890578 -0.06331953 -0.33885896 0.15217216 -0.10727127 0.3664814 0.4811866 0.8815117 -0.1720808 -0.2049513 -0.39083633 -0.25650698 0.33403257 -0.08093685 -0.15725842 -0.013603119 0.50296605 -0.022714999 0.36673638 -0.104463086 0.5530894 -0.40931106 0.04714154 -0.8476197 0.30986375 0.10886966 0.39605188 0.106461346 -0.39505655 0.15237278 0.35512158 0.21505177 -0.19726849 -0.112071574 0.6708348 -0.03069319 0.23221618 0.7030428 -0.2503774 0.32074064 -0.16510448 -0.025987996 0.16427746
465574 -0.6490705 -0.78736055 0.008543303 0.16406764 -0.8164085 0.7094421 -0.7317295 0.511434 -0.49646875 -0.3467868 -0.33479565 0.07559343 0.21377137 1.4662554 -0.89098847 -1.5250504 0.45324448 -0.4539385 -1.3983222 0.29001057 -0.81545055 -0.85873014 -0.2856772 -0.3448147 -0.29634044 -0.3712526 -0.5824889 -0.013920279 -0.05553473 0.060765795 -1.4967278 0.285902 -1.4414033 -0.2376424 -0.07490911 -0.49287984 0.045667678 0.9914147 -0.12774336 1.0595926 -0.2981677 0.93404865 -0.75231135 -0.122581065 0.14899705 1.2258475 -0.51402956 0.18391685 -1.2266088 0.94275415 -0.3862411 0.017137676 -0.81585306 -0.946337 0.5573593 0.6509686 0.9074205 -0.4476573 0.3133768 0.018255299 -0.46993986 0.24156862 0.11686204 0.48437113
995104 -0.7092255 -1.5945959 0.23544921 0.59400594 0.6615005 0.7066399 -0.33838674 0.5211185 0.45180574 -1.1114091 0.13976674 -0.27517438 0.55927056 0.55702454 -0.3145912 -0.72134423 -0.20257968 -0.24797651 -1.1722423 -0.53598386 -0.35145268 -1.6376417 -0.1617649 -1.6962093 -0.52011013 -0.27611676 -0.5357762 0.20027782 0.52390814 -0.32041672 -1.5322458 0.26266673 -1.6508566 0.45478556 -0.588597 -0.88375604 0.17808992 0.10395726 0.24786265 0.81761676 0.88845134 1.224878 -1.0498192 0.38455287 0.87139046 0.5638496 0.54613924 0.2975234 -1.106342 0.21581906 0.16988304 0.4393989 0.3104159 -0.15432933 -0.44149292 0.5542716 -0.13674459 0.5008021 0.14994706 -0.050442774 -0.07207307 -0.049058158 0.8710085 -0.2434036
1568297 -1.4454582 -0.27356505 -0.1642574 -0.3383417 -0.009216413 0.6138178 0.15884724 0.18484287 -1.3479316 -1.2167767 0.3680919 0.006996898 0.46401125 0.888054 0.25962663 -0.9440332 -0.16253681 -0.3206761 -0.054684788 0.36595026 -0.6062386 -2.089021 0.24612656 -0.40101242 0.44896126 0.11446034 0.0040358403 0.0150928125 0.54944813 -1.2659142 -0.94253486 0.1081678 -0.54417384 0.56575406 -0.36467475 -0.968062 0.6311968 -0.27220133 0.5479361 1.1048012 0.32147452 0.7833465 -1.3559712 0.20356399 0.6676396 0.8223988 0.15888627 0.43052423 -1.2098004 0.7330245 -0.40120256 -0.31208995 -0.490504 -0.49058697 0.9798194 0.5352219 -0.37060595 0.38804302 0.36672398 -0.5996005 0.27884382 0.4903377 1.0621462 0.35564578
1071703 -0.9293216 -1.8420275 -0.21275789 0.83098483 0.22829787 0.45002064 -0.5277391 -0.052307397 -0.6115837 -1.2478964 -0.3797066 0.7185645 0.93077576 0.4724677 0.39730343 -0.868978 0.27550703 -0.7314902 -0.5862122 -0.15592171 -0.47623944 -1.4487358 0.32709453 -0.38643587 -0.30760595 0.20429045 0.048835497 -0.16067736 -0.2193496 -0.074020684 -0.53204983 0.3777351 -1.3546735 -0.101806045 0.41982704 -0.3541761 0.39983013 1.1592238 -0.52168804 1.524954 0.101025075 1.3065716 -0.43274727 0.49092454 0.6780691 0.90660006 0.6393404 -0.27361238 -0.5753806 0.42638877 -0.42875084 -0.7445541 -0.3831452 -0.15107904 0.61633563 -0.311441 -0.1342257 0.122394875 0.9379626 -0.10000856 0.3801184 -0.6262366 -0.17577085 0.5996723
1227794 -1.22726 -0.5427793 0.02042913 -0.24523607 -0.8822917 0.078091025 -0.30402932 0.4023512 -1.511566 -0.69982594 -0.050203286 0.69877446 1.3773957 1.404022 0.07178259 -0.35591975 1.2076231 -0.37505335 -0.29649568 0.17617868 -0.1703095 -1.1688353 0.20517859 0.7062565 -0.09539974 0.6081857 -0.73700863 -0.5217503 -0.7921587 -0.42446142 -1.5130923 0.57151186 -0.99009067 0.09747571 0.30384064 -0.9752061 0.12711416 0.00686693 0.30197567 0.722833 0.046328012 1.3516076 -0.5741545 -0.15541804 1.0668828 0.8107047 0.26480237 0.5443612 -0.5398675 1.45754 -0.59814 -0.3216281 -1.0958047 -0.052017476 0.47519314 0.031091286 -0.07209417 -0.031257845 0.29677343 -0.6286575 -0.35466647 -0.28763947 0.63587487 0.85322267
1673424 0.5124478 -1.0333096 0.49143377 -0.16138893 -0.2714917 -0.03574058 -0.38190368 0.073826745 -0.047905885 -0.66932994 0.033962574 0.32185388 0.34930348 0.5728333 -0.18651722 -0.14358689 0.6740242 -0.1499888 -0.663832 -0.017710391 0.38662893 -0.8342612 0.015160764 -0.13460135 -0.00023011059 0.6399813 -0.7728568 0.6205499 0.19348031 0.4457747 -1.0500965 -0.42563498 -1.0845654 -0.18957075 -0.53698975 -0.23447505 -0.33265403 0.66801757 -0.32715926 0.4537814 0.12531966 0.14913471 -1.1303077 0.033734757 0.3081813 -0.35967135 0.13651256 0.90242875 -0.25853902 0.17712805 0.29644352 -0.12016391 0.4688239 -0.45158705 0.4839174 0.6679515 0.60916734 0.005022057 -0.028257953 -0.41562513 0.014672354 -0.7970339 0.19515152 -0.9729803
1659566 -0.19960542 -0.338793 0.5274022 0.52859384 0.10842834 1.2243856 -0.08682598 0.42289475 -0.24493344 -0.30902722 0.53093 -0.032299116 -0.23691267 -0.053560242 -0.14575715 -0.09633054 -0.1155546 -0.17918241 -0.17811595 0.10539381 -0.7540516 -0.8233499 0.20365398 -0.2393034 -0.1316995 -0.0012704026 0.36719155 0.22989732 1.0965309 -0.08121002 -0.2697649 -0.41298622 -0.11778867 0.4505181 -0.24103568 -0.2590673 0.01419216 0.4482197 -0.01778322 0.28489226 -0.14740755 0.68099326 -0.3924273 -0.058941666 -0.8287503 0.34146464 0.14275731 0.4968454 0.11834556 -0.5083449 0.1502768 0.48528033 0.1921252 -0.20089841 -0.009718972 0.6248496 0.027571876 0.20897032 0.6876375 -0.19251238 0.18959826 -0.10878434 0.019794665 0.09440215
780836 0.6393459 -0.7661521 0.24810834 -0.3004658 -0.9028536 -0.2779213 -0.33563748 0.21981013 0.19635957 -0.94395727 0.16364342 0.11492702 0.527336 0.9601368 -0.026675928 -0.23914841 0.536718 0.15725112 -0.36132702 0.13165243 0.45324686 -0.6188139 -0.46014157 0.17286155 0.7015754 0.7758935 -0.34664667 0.72693723 0.48101506 0.5801585 -0.7821759 -0.52157724 -0.99807143 -0.09171611 -0.41770008 -0.41981357 0.044672526 0.5640129 -0.72921205 0.586353 0.24080113 0.3335853 -0.84808445 0.14831665 0.51920146 -0.07827335 0.4943052 0.7312196 -0.19236186 0.11165172 0.27990428 0.058495104 0.24157955 -0.55665076 0.14698933 0.6097648 0.21101855 -0.3275427 -0.030964449 -0.30767357 0.37663147 -0.92022884 0.2714604 -0.5141281
1324842 -0.43429852 -0.8976076 -0.97972095 0.31390268 -0.80238545 0.65624785 -0.048294872 0.4804551 0.09723167 -0.32989436 -0.48189977 -0.49415115 0.38173187 0.6646502 -0.09581655 -1.3224273 -0.28628662 -0.52046853 -0.44868976 -0.44946066 -1.0412813 -1.1976008 -0.36083886 -0.53640145 0.020189034 -0.2462291 -0.41829926 -0.3388684 1.277006 0.5745933 -0.8906042 0.3021165 -1.2274222 -0.41007903 0.050065815 -0.618136 0.38948473 0.30747727 0.84031373 0.81277716 0.19868603 1.7536224 0.2795142 0.42551166 1.1318511 1.1272556 1.216443 -0.16556528 0.08416818 0.035158638 -0.21818928 0.48285103 -0.5917195 -0.24764132 -0.36374763 -0.2606564 -0.32801837 -0.120213784 -0.16345362 -0.26307246 0.47604758 -0.12239642 0.34974104 0.1481876
408361 -0.32602128 -1.6954254 0.20510463 -0.4600199 0.027787477 0.4488371 -0.34878933 0.3279687 -1.14823 -1.0520967 0.82662743 0.38076982 0.5505117 0.5714651 0.6418183 -1.0646583 0.6380614 0.101410665 -0.00478279 0.21685298 -0.65644604 -1.5476334 -0.11289582 0.42739245 0.23893619 -0.23141937 -0.6138614 0.26414663 0.562711 0.8524566 -0.8810318 0.5453751 -0.2970124 0.17745927 -0.33898413 -0.8225566 0.31635225 0.33797234 1.4733346 0.16784543 0.94060063 1.1834683 -0.9702269 0.19940522 0.44365537 0.41055045 0.5143034 0.41982302 -0.84298056 -0.35815516 0.66747487 0.00786949 0.49804628 -0.16094191 -0.13357875 0.001123806 -0.45208254 0.3213621 0.096409276 -0.46235865 -0.18695709 -0.80664355 0.21284693 -0.35552675
594866 -0.27287903 -1.6817981 0.15568839 -0.4631336 -0.041385114 0.556718 -0.38481927 0.28429365 -1.118305 -0.9915982 0.76344556 0.34731096 0.4960237 0.65496784 0.58328176 -1.0992053 0.65659916 0.090162866 -0.043151997 0.25559014 -0.730017 -1.5088886 -0.1579291 0.43913573 0.23527074 -0.35017657 -0.5701762 0.22342345 0.68598014 0.9171464 -0.9330058 0.5214241 -0.26518917 0.18144463 -0.40885648 -0.79280216 0.31034946 0.36766544 1.5558319 0.16331637 0.9761284 1.1325388 -0.96883816 0.21886328 0.42858765 0.42856893 0.40567362 0.35556766 -0.75064456 -0.36846894 0.65505075 0.041448366 0.45996863 -0.16357274 -0.07622306 -0.099107526 -0.3806636 0.25816813 0.04600604 -0.43294942 -0.2566558 -0.76209056 0.15791333 -0.40069836
1474337 -0.3461686 -0.9127153 -1.0332758 0.23614897 -0.84971225 0.6915784 -0.05337166 0.47189337 0.09993317 -0.3338951 -0.50258225 -0.51731306 0.33422023 0.6288012 -0.07143384 -1.371275 -0.3275351 -0.631932 -0.4643456 -0.4407406 -1.0803562 -1.1844696 -0.30734184 -0.53927433 0.032783207 -0.21116771 -0.44671205 -0.3120475 1.3506645 0.6293081 -0.84181917 0.24607565 -1.2560833 -0.44307646 0.06792397 -0.5893023 0.34721008 0.32998696 0.920769 0.76263964 0.19611984 1.7626934 0.34349772 0.405013 1.120401 1.0927948 1.1869744 -0.19636482 0.13648537 -0.051079843 -0.26275846 0.49695748 -0.5471592 -0.2893835 -0.25550115 -0.2949252 -0.26202014 -0.041922998 -0.08171417 -0.3449613 0.4730785 -0.039403394 0.32252026 0.08137179
712309 0.49099833 -0.8379698 -0.08731657 -0.05365736 -0.8832408 0.65064967 0.14879592 0.51594406 -0.73754954 -1.1126266 0.042677578 0.6447929 0.562583 0.5321514 0.6526256 -0.1375614 0.96386755 -1.3631407 -0.31810987 -0.27052695 -0.31236196 -0.3341791 -0.19273661 0.2724565 0.1386255 -0.3382065 -0.31892088 0.16815414 0.44012207 0.8221726 -0.5404778 -0.7198693 -0.3744292 0.643612 0.34846342 -0.79786587 0.4054535 -0.0301438 0.84298867 0.3009767 0.82315546 1.6013538 -0.09582156 -0.19454487 0.20546019 0.48791388 0.83920467 -0.12965895 0.7256251 0.16959351 -0.7041419 -0.11458556 -0.33754754 -0.2184009 0.02475037 -1.0402642 -0.5915767 0.61024076 0.0057371454 -0.66803634 -0.4371597 -0.49469116 -0.65467733 0.19494729
554335 -0.08564822 -0.018314725 0.20864391 0.6180024 -0.26402476 1.0513711 -0.2016926 0.12166815 -0.2302239 -0.2149669 0.7215267 0.22919443 -0.27720934 -0.08793636 -0.45854196 -0.27592552 0.12818402 -0.37364116 -0.7359765 0.15772122 -0.95496416 -0.8296063 0.031072164 -0.081513695 -0.13181967 -0.34362647 0.15831786 0.17924121 0.5702612 -0.17476952 0.12003754 -0.45599514 -0.183764 0.333647 0.06747491 -0.03143912 -0.13804522 0.1455858 0.09817532 0.59799343 -0.34532562 0.5598958 -0.45469606 0.25471333 -0.85764027 0.3207297 0.21216556 0.45195496 -0.1484417 -0.48232362 0.19658743 0.45652464 0.16054942 -0.26928002 -0.3688026 0.37315086 0.32180515 0.15439573 0.67256516 -0.17370325 0.2628378 0.034836516 -0.078365386 0.012526662
1541978 -0.25572067 -0.39648682 0.49756795 0.6602146 0.03950529 1.1214231 -0.228541 0.34749317 -0.07547596 -0.33045793 0.58025813 -0.12090644 -0.2465421 -0.060830135 -0.21729562 -0.00062193366 -0.20579928 0.043038335 -0.13461147 0.15660976 -0.75820017 -0.9168281 0.003961801 -0.43505737 0.11412042 -0.053259145 0.3730225 0.40039402 1.1182787 -0.11742252 -0.11474362 -0.42294487 -0.2674713 0.36185643 -0.24864542 -0.2874183 -0.1295619 0.52836317 -0.053493127 0.4237272 -0.10276755 0.68490905 -0.2774188 0.056405857 -0.8184447 0.3003474 0.12046517 0.4504607 0.11852143 -0.38924173 0.19276261 0.5564243 0.033450805 -0.22697678 -0.13434194 0.7206426 0.053337272 0.20038435 0.7590494 -0.18327487 0.37998897 -0.20767763 0.057400428 0.16864857
801414 -0.5215324 -0.80853736 -0.5601058 0.52286464 -0.5103111 1.4301356 -0.09985251 0.6748286 -0.937705 -0.4068822 -0.036248893 0.11474481 0.29233497 0.4588067 0.6613857 -0.13987483 -0.72236776 -0.3126441 0.41921917 0.14146681 -0.93006194 -1.5017556 0.4727425 0.13728328 0.5391198 -1.0866308 0.55759966 -0.34633622 1.9070392 0.36580878 -0.83945805 0.06767851 0.18017814 0.3014301 -0.14388369 -0.58096296 0.6813482 0.39453623 1.3375604 0.4250176 0.49503842 1.1288205 0.60836697 0.31430045 0.23362394 0.41444927 0.3123843 -0.07515466 0.81789947 -0.35614872 -0.17828031 0.06779733 -0.15685704 0.7144154 -0.008489478 -1.0738878 -1.1646425 0.30553284 0.9000344 -0.4748877 0.8372785 -0.107848234 -0.27061918 0.47525364
1476361 -0.10600083 -0.44885612 0.5006739 0.48857582 0.12079799 0.93425155 -0.19502613 0.46872163 -0.39830574 -0.4524008 0.4348903 0.19707438 -0.13778594 -0.25563356 -0.24114749 -0.24559036 0.15976974 -0.14279419 -0.29418394 -0.07494608 -0.6408749 -0.8418117 0.22988084 -0.25422812 -0.25391284 -0.19882233 0.5086662 -0.013951953 0.7274624 -0.14644107 -0.20286871 -0.5758342 -0.035824846 0.684259 -0.16423203 -0.061365478 0.27989542 0.38011056 -0.13985024 0.30426013 -0.19099534 0.394006 -0.6626878 0.0047756596 -0.6892228 0.3342608 0.13656323 0.4352583 -0.03177128 -0.4779444 0.2645495 0.6175431 0.1095505 -0.091602966 -0.3634887 0.49741876 -0.2235515 0.28466916 0.5557728 0.020612096 0.04070387 -0.23159051 -0.32459897 -0.0041062515
380617 -0.5390439 -0.8456445 -0.52886164 0.50472665 -0.46545866 1.373101 -0.08180474 0.7895168 -0.8056073 -0.4065882 0.0896313 -0.039608736 0.22280863 0.38070312 0.7616016 -0.06490781 -0.9785162 -0.3616006 0.4109348 -0.010315608 -0.80618495 -1.6151634 0.4782036 0.02047181 0.64868915 -0.93095756 0.4314627 -0.22357659 1.8891029 0.27846587 -0.8692992 0.12419402 0.056254767 0.18024306 -0.14758396 -0.64987177 0.5490201 0.34325618 1.4453416 0.37066954 0.4928796 1.2866648 0.61400115 0.30418962 0.30593354 0.30110946 0.36409268 0.02585229 0.7722263 -0.49976593 -0.14485894 0.09568439 0.037235238 0.7065055 -0.021909615 -0.85587907 -1.1999159 0.42901427 0.92317337 -0.67544174 1.0442301 -0.1050729 -0.06927759 0.4283896
727194 0.22420505 -0.35385102 0.3695278 0.3824072 -0.18311127 0.59827375 -0.35257897 0.10383368 -0.6972108 -0.3500644 0.3025348 0.49194023 -0.15899944 -0.15068789 -0.33325973 -0.57451326 0.46862617 -0.19312797 -0.5527951 0.08217068 -0.8235807 -0.603328 0.086313084 0.12312104 -0.06999285 -0.42334574 0.50753605 0.033326287 0.86842054 0.30723763 -0.29927033 -0.6504678 -0.034851946 0.361653 -0.17195225 -0.015003254 0.39823282 0.538692 -0.17945753 0.62184954 -0.1626605 0.074446864 -0.6453917 0.06756148 -0.79394484 0.43784228 0.12911092 0.36722204 -0.12276278 -0.2841935 0.31927216 0.14169116 0.0077047576 -0.32341823 -0.19319321 0.20737623 -0.09712538 0.03952868 0.36394358 0.17557137 -0.14647436 -0.3998458 -0.71243 -0.051382534
1191433 0.20210494 -0.24359873 0.52179956 0.42464566 -0.0270811 1.2190963 -0.18242535 0.26773766 -0.56313217 -0.37606308 0.08786569 0.34466255 -0.17004311 -0.22889377 -0.24363695 -0.33422956 0.47038367 -0.41363 -0.250481 0.17466384 -0.6442169 -0.78438365 0.0658475 -0.03967674 -0.2891926 -0.46351707 0.31522027 0.20239188 0.7570532 0.15825565 -0.498492 -0.57194644 -0.012825045 0.54441816 -0.10026809 0.11240811 0.26345715 0.49807608 -0.12864056 0.35191846 -0.34409177 0.0017782262 -0.5615989 -0.1745799 -0.7107664 0.34018505 0.20203587 0.51502055 -0.021806171 -0.14266217 0.22139987 0.1305101 0.27839974 0.023852097 0.05819715 0.07928832 -0.060847938 0.21780276 0.35096818 0.20480408 -0.0961786 -0.20467648 -0.30518153 -0.070212714
1630443 0.13354617 0.13850683 0.3605602 0.6005269 0.18355003 0.42645946 -0.39344895 0.2241346 -0.7408684 -0.22764795 0.66180086 -0.06234744 -0.25471938 -0.17153022 -0.1871059 -0.38663083 -0.25574324 -0.4889045 -0.46654254 -0.17832285 -0.8093849 -0.8346355 0.070977315 -0.4602815 -0.112878785 -0.03411753 0.3662271 0.20812641 0.8520847 0.10695576 -0.10063705 -0.79529446 -0.6169872 0.45677668 -0.076096356 -0.09635599 -0.24458691 0.28900865 -0.187814 0.3471675 -0.32383406 0.33901975 -0.23835948 -0.16477226 -0.6381137 0.14597355 0.32045677 0.15007839 -0.1364898 -0.39116716 0.19992612 0.07561095 -0.0987728 -0.112906955 -0.034187645 0.26687843 0.11462933 0.31949574 0.80295455 -0.21603075 -0.15335414 -0.22346321 -0.0098790135 0.16367209
386338 -0.28356826 -0.9270135 0.8441411 0.019292366 -0.47512746 0.73263067 -1.3258731 0.42713705 -0.3829291 -0.74845827 0.60034686 -0.1778994 -0.06501775 1.2440834 -0.7461593 0.07699483 0.21962859 0.59540194 -1.0830666 0.24304473 0.076212145 -0.6962846 -0.17644735 0.18981087 -0.38270375 -0.4888672 0.15715452 0.06672923 0.72037065 0.51836324 -0.988077 -0.5798692 -0.45959553 -0.8726982 -1.2599525 -0.1999246 -0.13106026 1.555265 0.0033267818 1.0048915 -1.1866273 -0.36434704 -0.28979328 0.24940847 -0.28458923 -0.6323577 -0.53718597 0.95747495 -0.30529675 -0.3935472 -0.13953193 0.8564234 0.09756285 -0.26783508 0.13751149 1.0514339 0.5306562 -0.32171664 0.9037959 0.15442352 1.0356635 0.39552858 0.4960744 -1.1827774
858750 -0.70023215 -0.029577 0.6235153 0.31808877 -0.873061 0.7749567 -0.11001056 0.5338387 0.2823 -0.7853675 0.4281149 0.42308608 0.51602435 2.1039207 -0.23939905 0.7634835 -0.06839173 0.07858682 -0.6298677 1.1080986 -0.26986748 -0.38102832 1.3228552 0.12899679 0.32352927 0.40741166 0.0096585285 -0.7090177 0.9745472 0.48886305 -0.9625974 -0.5172315 -0.32871327 -0.14809208 -0.60217136 -0.116336145 0.08525982 -0.09444023 0.2854868 -0.29988798 0.7967834 0.41443917 0.61228657 0.48234585 -0.8657397 -0.49437708 0.094626226 -0.41021198 1.9483844 -0.4437232 -0.22019494 0.064321786 -0.25871587 0.27988368 0.90505016 -0.11414564 1.0817146 -0.5337472 1.3394039 -1.0883898 0.21652798 0.060354993 -0.20625493 -0.13787337
583266 -0.56712794 -0.0020280073 0.6814834 0.28717986 -0.86626893 0.751932 -0.16590604 0.5685051 0.2932707 -0.8745726 0.4229465 0.47175714 0.49513468 2.0932732 -0.22422493 0.75202215 -0.06499056 0.060591068 -0.6374502 1.0816547 -0.18691131 -0.32718268 1.3067826 0.17894289 0.34603804 0.4146564 0.013722859 -0.6462958 0.97400206 0.5001173 -0.9297988 -0.5613491 -0.2425901 -0.08077642 -0.53900087 -0.12549342 0.06955029 -0.09273847 0.19319196 -0.37758458 0.72791475 0.41663647 0.63244843 0.44528142 -0.9187821 -0.5062252 0.15551831 -0.40741444 1.9571005 -0.46654522 -0.22977851 0.060563967 -0.2823855 0.27786264 0.9486762 -0.031179769 1.1182686 -0.5118836 1.3517377 -1.1203454 0.20215264 0.057165395 -0.23181635 -0.18691033
1708765 -0.17197864 0.43551287 0.013296882 -0.15111876 -1.7903785 0.5534844 0.3022173 0.3045733 -0.27907392 0.053297713 0.71588784 0.7949764 0.6833439 0.946656 -0.2992214 1.8371651 0.46976456 -0.29724213 -0.47165698 0.78032964 0.030552892 -0.21837099 0.81021893 0.58031595 0.47867265 -0.06230512 0.15934993 -0.7338519 0.39519662 0.3433879 -0.69724345 -1.975258 -0.46395844 0.039295238 -0.5105525 -0.35771635 0.0044333865 -0.39564115 -0.1291298 0.17556179 -0.07746809 -0.33619103 0.6187128 0.16102874 -0.43559414 -1.0727389 -0.4414842 0.21947472 2.1602995 -0.5724857 -0.8725348 0.61157525 -0.41925797 0.87209475 -0.5173431 -0.79454225 0.17057645 -0.2046982 1.0893608 -0.78959525 0.39393413 -0.24565426 -0.48840326 -0.07630843
1636884 -0.16549844 0.46679214 0.05808349 -0.12543122 -1.7616775 0.5296354 0.26474684 0.3515851 -0.36627123 0.113166235 0.7581217 0.8086368 0.6764265 0.89313745 -0.34231502 1.8346423 0.44531414 -0.26402473 -0.44626677 0.73985505 0.045935307 -0.2846325 0.831204 0.6011927 0.45642725 -0.114669286 0.15508725 -0.7465443 0.34155557 0.30476514 -0.66694146 -1.9503784 -0.41956487 0.018368417 -0.48268014 -0.32149145 -0.033000626 -0.42240903 -0.06805889 0.18703796 -0.16694175 -0.40560612 0.62376094 0.14381395 -0.41168296 -1.1244413 -0.46832293 0.2746171 2.1170535 -0.5395457 -0.84203315 0.62679553 -0.39397502 0.8895165 -0.5549865 -0.7918574 0.12860996 -0.12934534 1.0702357 -0.7559025 0.40629238 -0.2258911 -0.4661313 -0.079346634
447951 -0.21583404 0.5132466 -0.49885565 0.32694072 -1.4719942 0.14353335 -0.25270256 0.35599947 -1.1871802 -1.0376374 -0.4067965 0.8313312 0.43871713 0.9131058 -0.05833385 0.7241192 -0.5721002 0.40342972 -0.5954389 -0.1808463 0.091720186 -1.8506259 0.7857725 0.9094764 0.5867862 0.27923256 0.042666312 0.16748902 0.2148522 -0.671913 -0.90782195 -1.1871549 -0.40437022 -0.016705282 -0.389313 0.12273426 -0.38415378 1.0856375 -1.4470565 0.9304212 -1.0427115 -0.37558138 -0.41897768 0.21032923 0.48087496 -0.5144118 -0.9997918 0.99409777 -0.029398696 0.6236859 0.065798245 0.20545928 -0.9298141 0.044003837 0.4934148 -0.49358067 0.09323982 -0.42809457 0.20299424 -0.41897708 0.8368723 -0.914452 -0.32739165 0.18216668
1093859 -0.1290506 0.5563124 -0.4596181 0.32166147 -1.4692665 0.09777353 -0.30306733 0.35058558 -1.2284805 -1.0199172 -0.38637105 0.87623453 0.38748953 0.8984825 -0.085114025 0.7236915 -0.47520357 0.44536623 -0.6289072 -0.12834184 0.20308916 -1.841637 0.75962764 0.88728493 0.5401964 0.32052252 0.10126439 0.18203025 0.13457611 -0.6982749 -0.8780508 -1.2564713 -0.39298996 0.025191288 -0.43014124 0.13352841 -0.3845319 1.0836383 -1.5498872 0.958456 -1.0931238 -0.43880013 -0.5049681 0.13611783 0.39946115 -0.6173527 -0.96629256 1.0102638 0.04992299 0.5725702 0.041456193 0.25133437 -0.938514 0.030362269 0.49266347 -0.4010602 0.10559866 -0.42602372 0.26026884 -0.38391155 0.84490365 -0.88438433 -0.36057523 0.21248147
1033282 -0.19836453 0.6578932 -0.01789458 0.55620503 -1.5962175 0.6077565 -0.30963612 0.24272309 -1.0600532 -0.4550146 -0.31645775 0.7915247 0.7232492 0.4634309 -0.37172523 0.91023546 -0.36950162 -0.63696223 0.41678616 0.6268611 0.26948124 -1.3422135 1.1906563 0.7311486 1.1996765 0.023013942 0.73277915 -0.88077396 0.9890739 -0.85354316 -0.9214406 -0.5442592 0.39749274 -0.021803875 -0.3647684 -0.2473591 -0.21594068 0.049719326 -1.093332 0.025644567 -1.0877281 0.08258821 0.36463818 0.28786388 -0.124921285 -0.66619605 -0.25292504 -0.16936041 0.92322046 0.5131232 -0.47453445 -0.3963065 -0.7412692 0.836016 0.5930407 -0.22168683 -0.33107018 0.08522493 1.6918818 -1.0433624 0.8431084 -0.29682896 -0.7525658 0.8664772
1198663 -0.29850098 0.6895204 -0.024852391 0.5642872 -1.6190939 0.62476164 -0.27820885 0.186819 -1.0288033 -0.38743743 -0.32322696 0.716271 0.7749269 0.4741403 -0.43370822 0.9857324 -0.42972782 -0.566387 0.4698788 0.65375453 0.19804479 -1.3510752 1.2085619 0.7026101 1.2554134 0.027405104 0.70968664 -0.9395027 1.0042293 -0.9366842 -0.98340464 -0.46003744 0.36334056 -0.09376963 -0.40444547 -0.24565646 -0.19165286 0.005231379 -1.0239582 -0.0049065053 -1.0454732 0.12547964 0.43291482 0.2909386 -0.09347639 -0.62235695 -0.26313245 -0.20197129 0.9750152 0.5876362 -0.36832723 -0.4352249 -0.7481675 0.8578626 0.59298843 -0.27128965 -0.3402408 0.08266143 1.6987257 -1.1129675 0.80653447 -0.3377892 -0.65234566 0.8729635
1630382 -0.23417982 0.3974025 0.9809146 -0.004469371 -0.7572502 0.3910195 0.056264877 0.56114465 -0.042108946 0.41318297 0.80218315 0.48511147 1.1835626 0.75019395 -1.5419644 -0.030953422 -0.9501732 0.40722623 0.40133053 0.27181107 -0.4955538 -1.0241482 0.15121536 0.67950135 0.42634764 0.14262998 -1.1480751 -0.71579695 0.587247 -0.026027001 -1.6356006 -0.6956116 0.1503165 -0.48571372 -0.32972872 -0.68194306 0.12108202 -0.1643837 0.047724128 -0.0804201 -0.63570553 -0.19938156 1.067773 -0.26496777 0.34539554 -0.05482158 0.5343131 0.94324386 0.16235322 0.552961 0.16012649 0.45130226 -0.37940532 0.38290086 -1.2017211 0.6904419 -0.5853606 0.070322946 0.7736463 -0.9357953 0.15326564 0.28520912 0.65565866 -0.75342387
670393 -0.29141462 0.36381754 0.94369256 0.024874587 -0.78125453 0.4154405 0.10375532 0.5569879 -0.01154974 0.41552398 0.8040687 0.45548823 1.2133821 0.8201952 -1.5296255 -0.06678894 -1.0006142 0.4138354 0.4515212 0.3073809 -0.5699879 -1.0425514 0.1604564 0.664855 0.4417333 0.17299505 -1.1391536 -0.7391838 0.64635223 -0.046845786 -1.7219473 -0.65657514 0.123231135 -0.54772884 -0.3322856 -0.7166588 0.13193303 -0.15965979 0.12525783 -0.07672145 -0.545369 -0.07282105 1.0968225 -0.22990368 0.3693898 -0.04016199 0.51420075 0.8887874 0.23112276 0.54899794 0.18333326 0.3785456 -0.43700415 0.38223487 -1.2132564 0.65920365 -0.5773447 0.027293002 0.7746061 -0.9607886 0.14570358 0.22698388 0.677486 -0.75639945
324512 0.40331933 0.38819146 -0.0018614387 0.20571783 -1.2462512 0.0098373955 -0.25976652 0.61590916 -0.24932417 -0.1357131 -0.08445134 0.20334765 1.3905832 1.7600019 -1.4938937 0.84045726 0.0048067216 0.6740611 -0.38233832 0.6580423 0.41013235 -1.0626403 0.5082684 -0.028463114 0.6728185 0.080621324 -0.8190623 -0.71828127 1.1416191 0.08628812 -1.7004375 -0.44514278 -0.5427358 -0.077179864 -0.07357959 -0.70821416 -0.0851884 -0.06388624 -1.2348144 0.4325255 0.5314655 -0.46127206 0.13165799 0.23138085 0.4711147 -0.6850177 -0.869523 0.4117511 1.0823997 0.8637536 -0.13045724 0.9337228 -0.82472634 -0.34988752 -0.5264956 -0.37334332 0.5211849 -0.88220584 0.23217964 -0.5037849 -0.3748953 -0.48266527 -0.18948376 0.05001689
286995 0.32926896 0.3381664 -0.002184998 0.19480523 -1.2186767 -0.004160498 -0.25444436 0.62632954 -0.22468616 -0.14650877 -0.100145414 0.20946182 1.442051 1.8233519 -1.5146905 0.78584975 -0.029948309 0.6803636 -0.3793881 0.70407724 0.36559606 -1.0886394 0.5307635 -0.054579053 0.67193204 0.11265633 -0.84610146 -0.78493893 1.182047 0.105558984 -1.7453967 -0.3644396 -0.58184993 -0.08356834 -0.09625987 -0.75873804 -0.053040598 -0.075909965 -1.2094277 0.40370804 0.5898798 -0.40834776 0.14402227 0.27232113 0.49790147 -0.64833707 -0.8595984 0.35607088 1.0329698 0.9062558 -0.1408578 0.9219068 -0.8211261 -0.34519604 -0.48057383 -0.33489275 0.5399139 -0.89437944 0.2741932 -0.5411237 -0.38315755 -0.42631748 -0.15067954 0.07822213
1027647 1.0608859 0.93785447 0.1555682 0.14552104 -1.3556205 0.1881921 -0.9912728 0.89071274 -1.3547143 -0.36654854 0.17814456 1.1767441 0.5295943 0.68861794 -0.2086149 0.78869766 -0.3198739 -0.21840665 -0.13487929 0.0697908 0.80579156 -0.814331 0.49745196 1.1094401 0.6218057 -0.042687535 -0.8601409 -0.045548223 0.29531756 0.005111146 -0.16522025 -1.5110965 0.86271846 0.578067 0.39043924 -0.29593748 -0.23894443 0.15909731 -0.34117898 -0.5286535 -0.8387348 -0.14338209 0.67798346 -0.2625036 -0.27473348 -1.0509418 -0.28290057 0.9942156 0.9747145 0.2900209 0.06639599 1.0145141 -0.9217086 0.93655294 -0.6557803 -0.15185091 -0.027577449 -0.04646719 1.120975 -1.2405078 0.14228521 -0.7632684 -0.33946532 -0.69021946
812653 1.0424412 0.908502 0.13300584 0.15160894 -1.3696747 0.19524154 -1.0015296 0.8992971 -1.4005214 -0.40488663 0.16065006 1.2358714 0.5403775 0.6799527 -0.18698448 0.7926501 -0.29341358 -0.26109228 -0.14937761 0.09220879 0.80808043 -0.8413901 0.5157879 1.1277074 0.60079324 -0.016196528 -0.8341834 -0.067425795 0.26491773 0.006907709 -0.14855023 -1.52124 0.85890234 0.60297024 0.39487877 -0.29865697 -0.20927976 0.16169013 -0.3317483 -0.5239666 -0.86143565 -0.118159235 0.668622 -0.23272508 -0.2652438 -1.0654882 -0.29197797 1.0085846 0.95784485 0.29318267 0.01800237 0.9923591 -0.925397 0.983484 -0.6108495 -0.15949214 -0.047124505 -0.024832148 1.1705829 -1.2521333 0.18478626 -0.75802684 -0.37704453 -0.6936481
268257 0.68296397 -0.2700962 -0.29010996 -0.33713326 -1.4478759 -0.092260286 0.19479258 0.6679962 -0.3682821 -0.32064062 1.0659757 0.88398725 0.76239806 0.19392918 0.27380395 0.2793926 0.91043997 -1.1416917 0.018086959 -0.48186237 0.44243637 -1.5181344 -0.18469132 0.64403915 0.22576429 0.7537716 -0.1710061 0.36973462 -0.4355534 0.6148168 -0.20781 -1.485426 -0.8105211 -0.07514514 0.42524552 -0.13540776 -0.38956285 -0.65878725 0.6157298 -0.13575742 -0.53494996 0.65805715 -0.32328126 -0.26834393 0.49465215 -0.9198122 1.3515033 1.1905653 0.94468683 -0.47722143 -0.75131494 -0.17723884 0.28913623 0.40981248 -0.34759834 -0.103302844 -0.6698662 1.688936 0.5048685 -1.3090569 0.7879596 -0.13712057 -0.02542672 -0.82710284
1412374 0.69965386 -0.24786492 -0.26830745 -0.33135834 -1.4486051 -0.0838198 0.18320684 0.6966537 -0.3715998 -0.29858196 1.0830883 0.8374719 0.77939373 0.22960506 0.23334691 0.29059386 0.8706559 -1.0913093 0.019851351 -0.46375203 0.43534306 -1.5511476 -0.13548948 0.6092683 0.25315803 0.7361292 -0.1971927 0.34352002 -0.35284072 0.6170154 -0.23914075 -1.4908177 -0.80289567 -0.105255626 0.41762617 -0.1390615 -0.39644387 -0.6631051 0.65741485 -0.15474127 -0.5265122 0.66669613 -0.29310519 -0.22576243 0.4837205 -0.93492365 1.3383083 1.206897 1.0123978 -0.49545032 -0.7272606 -0.15611787 0.2988269 0.41677392 -0.3801709 -0.12771654 -0.655116 1.6483358 0.49122256 -1.3451984 0.7904153 -0.15147914 -0.02548118 -0.85669243
496427 -1.083851 -0.058650162 0.62214917 -0.10054892 -1.0782071 0.29699934 -0.5344206 0.5197463 -0.50578636 0.2641749 1.4170326 -0.89826226 0.4339671 0.55772316 -1.04403 1.4062355 0.3305584 0.5459889 -0.39170226 -0.11890098 -0.22040641 -1.3521204 1.1969187 -0.6925362 0.30527925 -0.34934038 0.11900291 -1.0534598 0.92790055 -0.03588556 -1.3636642 -0.46073943 -0.9549672 -0.35955617 -0.7388097 -0.49075377 -0.651425 -0.52985716 0.9670467 0.47777474 -0.60375226 -0.52333367 0.0680291 0.24533127 0.2008273 -0.5317963 0.31853107 0.7421004 0.603837 -0.22288524 -0.22048779 1.059713 -0.15646097 0.5346951 -0.5166581 0.69607055 -0.08857831 0.7002806 0.12012013 -1.0083545 0.41667047 0.5021757 0.9303938 -0.57623583
125721 -0.97492874 0.0010083412 0.59839183 -0.09450034 -1.1457901 0.26830912 -0.5710989 0.5046298 -0.5203506 0.33489817 1.4579886 -0.90867484 0.37796995 0.4932996 -1.0762299 1.431417 0.32323572 0.5754258 -0.4338663 -0.22106694 -0.14082669 -1.390514 1.1553246 -0.65281725 0.31672046 -0.38466522 0.14393213 -1.0150396 0.911991 -0.11945625 -1.318523 -0.60259956 -0.9328293 -0.34482554 -0.8005072 -0.49287587 -0.7172523 -0.47369808 0.8569432 0.5333041 -0.7263618 -0.6141747 0.021659106 0.17930374 0.21287723 -0.5663055 0.29766634 0.79368895 0.59008896 -0.27138266 -0.1626041 1.1395053 -0.19713897 0.5225675 -0.6100078 0.7656435 -0.16677777 0.7400809 0.0802899 -1.0061209 0.4574618 0.4856199 0.94478047 -0.61164725
223827 -0.2670725 0.016495323 0.29723698 -0.034414716 -0.57738775 0.14572032 -0.59059685 1.4235415 -1.709685 -0.8431083 0.55937386 0.4941847 0.46030772 1.6569818 0.0002834651 0.638183 -0.04925345 0.6862101 -0.4511237 0.3721203 -0.35419804 -1.0439256 0.99991256 1.17545 -0.18048246 -0.34723195 -0.7112948 -1.0053991 0.18616492 0.06647063 -0.45774087 -0.39722997 0.53092206 0.0905896 -0.020928878 -0.46074134 0.53199065 -0.33860615 1.1880903 0.087296486 -0.45268294 0.61072385 0.40506178 0.10247813 -0.47067872 -1.2903497 -0.6901256 0.45562434 1.0429155 0.06645738 -0.05328678 1.2589821 -0.5594203 0.2758824 -0.37519175 -0.21770991 -0.40616515 -0.11940049 0.82815725 -0.48944226 0.39808306 0.36428043 0.6552424 -0.53366506
900206 -0.27982882 -0.0064519183 0.26646432 0.023674674 -0.55606127 0.18221 -0.61764956 1.3831767 -1.7083182 -0.80167115 0.4562065 0.48725155 0.49236292 1.6726567 0.0069986354 0.55573183 -0.0914987 0.7131899 -0.3579807 0.42512533 -0.3820168 -1.0575161 0.9960641 1.1046523 -0.1292154 -0.40601367 -0.7091816 -0.9910412 0.23030417 0.065106586 -0.5117722 -0.31840023 0.52758384 0.06419822 -0.013255533 -0.4360048 0.5437003 -0.3114464 1.212799 0.10817684 -0.399976 0.5757108 0.4423764 0.15628591 -0.41412017 -1.197962 -0.71897656 0.42466938 1.0515903 0.12151763 -0.019452784 1.201349 -0.63059896 0.31634226 -0.38945636 -0.2757694 -0.39737067 -0.15578462 0.8243006 -0.43744132 0.35425755 0.31736195 0.63834035 -0.48140857
838154 -1.7412075 0.07376405 -0.8672787 0.9688982 -0.20388497 0.70244676 -0.27949256 -0.13569883 -0.68235797 -0.27025807 -0.33656818 0.31726483 0.62385297 0.58810866 -0.1836722 0.003751472 -0.22676486 -0.33708012 0.1962308 0.89876676 -0.53616863 -2.227135 0.82391894 -0.3333997 0.3772966 0.4318731 0.3502668 -0.054719806 0.8845064 -0.79999566 -0.3041626 -0.20731148 -0.73254335 -0.50040555 -0.6896297 0.48402864 -0.07358979 0.5262257 0.7820577 0.07534848 0.12577456 0.59838057 0.18478559 1.2888957 0.2997785 0.07586798 0.56617075 0.2687134 0.38948923 0.82308537 -0.12205741 -0.13996562 -0.32734334 0.69538426 1.3780049 -0.12623844 -0.2655081 -0.13194096 1.83079 -1.3432595 1.2312993 0.078031175 -0.2975287 -0.076096304
1646196 -1.6386185 -0.12643151 -0.74343324 1.0669491 -0.15788832 0.86400044 -0.19241042 -0.16881183 -0.5041949 -0.4345051 -0.29045334 0.09593933 0.42168853 0.56827325 -0.35038397 -0.06441344 -0.12995166 -0.2914081 0.0092819445 0.92220086 -0.6338881 -2.141082 0.8679148 -0.5323526 0.33215 0.30118212 0.374738 0.016218042 1.0289531 -0.76248205 -0.36225423 -0.30784753 -0.77589095 -0.5175808 -0.8560389 0.5824717 -0.01738609 0.6460224 1.0624126 0.08019986 0.21407686 0.5733096 0.14354883 1.330774 0.15999827 0.062580116 0.62446916 0.0871998 0.46960968 0.60033333 -0.118479624 -0.078861654 -0.09101784 0.6648428 1.3597548 -0.16559823 -0.06367756 -0.14125045 1.8736347 -1.3188983 1.2118458 0.11112071 -0.39814478 -0.26246616
825945 -1.7826979 -0.40772033 0.27112728 0.0761301 -0.53192306 0.7396554 -0.21158665 0.78937477 -0.85678273 -0.59744513 -0.10687443 1.129179 0.81478995 0.9862526 0.113927394 -0.51543903 -0.5803195 -0.5630812 0.46888033 1.3279622 -0.37975615 -1.560733 1.4914193 0.60593396 0.26988852 0.23392195 0.123280875 -1.4013016 0.46544755 0.18017325 -1.0887518 0.15716028 0.02657937 -0.19116808 -0.50490403 -0.51897115 0.5530931 -0.44612196 0.5740491 0.25168258 -0.3061131 0.30853498 0.4742545 0.8989797 0.08131398 -0.026851455 0.39403996 -0.25775552 0.18039516 0.34745204 -0.93480814 -0.50243354 -0.50778127 1.5288103 1.0598531 0.13974606 -0.20562808 0.30236706 1.465819 -0.44743237 0.4721971 0.62323016 -0.47419605 0.9283873
382089 -1.7915804 -0.43076164 0.27086884 0.04409381 -0.60676336 0.7071224 -0.23189606 0.82947224 -0.89214754 -0.57992077 -0.043008655 1.1628841 0.88615716 0.97259873 0.110060565 -0.5043109 -0.5868155 -0.5799942 0.5459797 1.3020971 -0.35866794 -1.6401328 1.5001205 0.6383496 0.28054684 0.27827886 0.0597999 -1.4342716 0.43870997 0.17710282 -1.1430233 0.14947191 0.043915022 -0.23142837 -0.47905552 -0.56270826 0.5098671 -0.50989527 0.62040335 0.21177115 -0.3632298 0.38555503 0.50553715 0.868102 0.1563775 -0.06237293 0.45872617 -0.2368756 0.18227638 0.35038564 -0.9395713 -0.5164648 -0.51776016 1.5623742 1.0108947 0.12656017 -0.30675116 0.39514792 1.4477377 -0.52430415 0.4824236 0.6169738 -0.37702796 0.9256552
761523 -0.39805305 -0.88337576 -0.09842429 0.6737827 -1.4995435 0.32710138 -0.9386718 0.010633729 -0.74930185 0.029182198 0.6171014 1.149193 0.15438457 0.31311148 -0.5141977 0.36316583 0.13138127 -0.7060842 -0.56968206 -0.41715434 0.18968947 -2.047572 0.43729666 0.5184839 0.28094214 0.53968006 -0.95252305 -0.17204668 -0.42312363 0.15675156 0.1828479 0.12578827 0.10861643 -0.3608021 -0.96891356 0.19277655 -0.42298234 0.025822572 0.9437247 -0.080381624 -0.3621256 0.6653532 -0.19129239 0.3348642 0.010682969 -0.56454 0.62386215 -0.2971307 0.104405254 -0.05749647 0.2520123 0.474462 0.5115722 0.09456253 0.39153934 -0.089956984 -0.23675905 1.6974915 1.6078401 -1.4120122 0.69762343 0.34540525 0.58374816 -0.7015498
979033 -0.34636036 -0.8484802 -0.064462416 0.65419793 -1.449279 0.3417589 -0.977733 0.001944184 -0.73970824 -0.037494194 0.62477446 1.1831539 0.089341186 0.2662423 -0.48706508 0.41700092 0.18176006 -0.7803335 -0.6403653 -0.44830167 0.18606183 -1.9182752 0.43507075 0.52708584 0.31017599 0.5230586 -0.9563779 -0.13045245 -0.42191702 0.15792458 0.27840835 0.047470976 0.15245599 -0.2674425 -0.96713185 0.18141995 -0.43172804 0.032909624 0.9282378 -0.14978305 -0.34611782 0.6790534 -0.19672161 0.3182226 -0.05996246 -0.55906314 0.65658194 -0.3347377 0.09227653 -0.105358295 0.24172099 0.5094271 0.54207873 0.0677962 0.44203955 -0.0638294 -0.1921184 1.6739824 1.6498083 -1.4374404 0.65699756 0.31182548 0.5441288 -0.7260651
523158 1.2442917 0.16409592 0.16152385 -0.29888916 -1.581877 -0.04897511 -0.2482428 0.4217572 -0.13455844 -0.88668257 0.12374668 1.7284659 1.4585944 0.2535451 -0.36891702 -0.093490906 0.010022849 -1.3186513 -0.8498104 0.16445138 0.97635764 -0.5865374 -0.25044388 0.33998612 0.794692 0.065311335 -0.55100054 0.10788023 0.013042664 0.4028969 -0.45017824 -2.133004 -0.9697076 0.84662116 0.5869138 -1.1073616 0.040653095 -0.344077 -1.5711588 -0.22183989 0.16455485 -0.11142345 -0.23082967 -0.025838193 0.6154418 -0.035334554 0.2526932 0.08119175 -0.121136986 0.47109225 -0.6821548 0.6046682 -1.1117492 0.8461624 -0.84387213 0.054559965 0.16001128 0.012028882 0.7930297 -0.8730975 -0.5788357 -0.9213326 -0.72797865 -0.13382417
1665534 1.2766044 0.13156857 0.122707464 -0.28782237 -1.5429401 -0.08593187 -0.2673338 0.43943036 -0.14183082 -0.8871303 0.103337064 1.7569805 1.4564245 0.2612815 -0.3450602 -0.15010838 0.020198977 -1.3321986 -0.87444955 0.1393973 0.98941445 -0.58292747 -0.29849428 0.32510528 0.7858511 0.07669805 -0.5930452 0.13385959 -0.025121417 0.4174242 -0.4222415 -2.104007 -0.9711054 0.87342966 0.6084158 -1.0959569 0.05708 -0.3504353 -1.5466778 -0.22872615 0.22194079 -0.091155306 -0.22962847 -0.04657943 0.5983394 -0.06448405 0.2704739 0.05513027 -0.10898405 0.44914237 -0.6744988 0.61001986 -1.0970037 0.8286237 -0.8498397 0.034724757 0.14272788 0.07238623 0.8126701 -0.8982896 -0.59021246 -0.89362514 -0.7580939 -0.16216953
1500641 0.50109535 -0.042220525 -0.7128833 0.26924628 -1.1744299 -0.57066804 -0.26156333 0.03492817 -1.0824654 0.11678882 -0.759475 1.2619444 1.1970205 1.2196755 0.0041783857 0.060049392 0.11717343 -0.32045373 0.05660003 0.60342103 0.9524795 -1.6467752 -0.119681776 0.21108451 1.1705133 0.15057448 -0.5102678 -0.3211963 0.08956902 -0.43032268 -0.7161972 -0.6913078 -0.5354734 0.31041673 -0.15054417 -0.7804101 0.44181857 0.23146522 -0.36611062 0.7862193 0.90805507 -0.2348267 -0.28145623 0.5923668 0.78276277 -0.6477124 -0.23556478 0.39358088 1.1160591 1.1498867 -0.56328946 -0.028160496 -1.5630988 0.8174005 -0.31912068 -0.6844581 -0.4437658 -0.016207062 0.89137185 -0.9184293 0.08835218 -1.0682726 -0.91667706 0.09622695
1539557 0.5368874 -0.035862565 -0.7325299 0.27357277 -1.1968099 -0.57118857 -0.2897565 0.051051356 -1.1123953 0.07962036 -0.7165488 1.275916 1.0885452 1.2644421 0.030132152 0.120094605 0.24908292 -0.31463444 -0.020347247 0.54898685 0.98462063 -1.5657907 -0.13132939 0.22991028 1.1153643 0.20272104 -0.44026944 -0.24248354 0.013946575 -0.46167216 -0.64657146 -0.7839813 -0.5291015 0.3703337 -0.1774717 -0.75290895 0.40534598 0.24766612 -0.4389188 0.8241556 0.8990867 -0.21217191 -0.37857372 0.5845395 0.70817673 -0.67600095 -0.2832324 0.42225677 1.1746861 1.0616626 -0.62091196 0.013186958 -1.5910938 0.7484384 -0.26322258 -0.6649581 -0.39584005 -0.036120795 0.8962156 -0.8868834 0.11260423 -1.0472769 -0.9736159 0.07397457
1331571 -0.9592864 0.48575786 0.57179344 -0.053070668 -0.38120145 0.23376271 -0.52670485 0.5381619 -1.2214973 -0.006952461 0.058632832 1.4632765 0.7970375 0.12506057 -0.30884218 0.48934972 0.06459336 -0.32945013 -0.4281321 0.5317099 0.21426553 -1.264199 0.39353144 0.51122797 0.38937485 0.08550484 0.3144987 -1.2560588 -0.03872649 -0.18365829 -0.43577996 -0.8603759 -0.18572417 -0.32282206 -0.55114913 0.0153415 0.5886276 0.112718426 0.3231558 0.38912952 -1.1982236 -1.3575003 0.120191306 0.2477291 -0.020994836 -0.5785451 0.4069591 1.5741446 -0.4321627 0.96828306 -0.6021599 -0.046783287 -0.08065338 1.676283 0.65483904 0.70540637 -0.39319265 0.42113006 1.7021642 -0.7664433 0.97264475 0.52574265 -0.57156485 -0.34899798
1013436 -1.0020697 0.44047225 0.6299686 -0.012703377 -0.30575016 0.26020673 -0.53374946 0.60382694 -1.2621975 -0.021848299 0.028277548 1.4645877 0.8099471 0.18560767 -0.27192405 0.4217089 0.111095436 -0.3172597 -0.4332872 0.5556245 0.10817365 -1.2757428 0.39455593 0.45858508 0.47493368 0.023538286 0.3033123 -1.2969986 0.0050024665 -0.098291405 -0.54158515 -0.7425636 -0.20018682 -0.36142778 -0.52495784 0.0038899332 0.6710168 0.09369278 0.48613495 0.44744137 -1.0653771 -1.3568057 0.14664946 0.23807561 -0.009556717 -0.52527493 0.4608112 1.6092752 -0.43004054 1.0299596 -0.5964342 -0.089990996 -0.018247904 1.6428992 0.672911 0.6855111 -0.45103884 0.42384183 1.7032887 -0.6830686 0.9682155 0.52221733 -0.621963 -0.33844623
1647240 0.13070774 0.6844317 0.6847916 -0.0023486326 -1.2457864 0.24809226 -0.1044956 0.8469451 -0.6109994 -0.26101863 0.083530314 1.5355546 0.5002931 0.09184919 -0.049941573 0.83372617 1.2571466 -1.0916318 -0.31999418 0.1854771 0.4379001 -0.60098106 0.4780697 0.6102248 1.0997641 0.32843196 -0.069920026 -0.060832642 -0.5575645 0.76462764 -1.0019765 -2.045183 -0.4611328 0.42590633 0.49564737 -0.15763223 0.09117059 -0.40985197 -0.22322148 0.5703026 -0.0879058 -0.86530197 0.21268126 -0.5699248 0.19677171 -0.8010089 1.0611304 1.0485573 0.89842427 0.6319925 -1.1736323 0.2504183 -0.22039787 0.74736136 0.14700049 0.43640408 -0.41971156 0.850868 1.0908526 -0.14226796 -0.011195289 -0.11719371 -1.5897421 -0.40076694
888618 0.102555916 0.7001768 0.6886153 0.021839306 -1.2011783 0.25475052 -0.16242139 0.90150994 -0.7074683 -0.24016683 0.076464005 1.5142635 0.43769547 0.036287393 -0.017701307 0.795011 1.1741731 -1.0571022 -0.33242634 0.15728876 0.40463743 -0.6251957 0.50531274 0.6668877 1.0934842 0.27072352 -0.10765014 -0.08322095 -0.56839275 0.75637054 -0.94980454 -2.0217364 -0.36532557 0.4583586 0.51068497 -0.14489199 0.08979976 -0.36017072 -0.1672991 0.57345295 -0.1855862 -0.88420886 0.2496835 -0.57026726 0.20902096 -0.80518544 1.064242 1.0506576 0.8262288 0.611308 -1.1238984 0.28804073 -0.24911655 0.7744973 0.1421989 0.5102866 -0.45292887 0.8765708 1.1108661 -0.12725057 -0.0046164915 -0.046774227 -1.5978616 -0.41746464
1313740 -0.89533156 0.27217102 0.05676765 0.27462888 -0.9522931 0.004154972 0.36118704 0.6655871 -0.044558298 -0.41692454 0.12626356 1.256745 1.1363354 1.7307556 -0.1433737 0.19935848 0.7392621 -0.49287105 0.4717363 0.5195062 0.49043897 -1.2742414 1.0827016 0.079994425 0.91024673 1.033977 0.015601333 -0.38265643 -0.18377653 0.21068981 -1.0493319 -1.1386697 -1.0534546 -0.5663818 -0.12475205 -0.13182472 0.07495921 -0.46933922 0.6307084 0.2417946 1.094653 -0.2085061 0.0572518 -0.103968665 0.4731125 -0.6400675 0.7406262 0.41218928 1.2877963 0.8145631 -0.8134581 -0.63789517 -0.15424772 0.52175075 1.0207518 -0.64774585 -0.16527213 0.1628465 0.8993114 -0.76570606 0.33140615 -0.099756174 -0.49509996 0.360836
1560584 -0.86941874 0.30439353 0.08684188 0.22420757 -0.9496381 0.01803452 0.38442463 0.6558683 0.0009633899 -0.48916104 0.21857633 1.3085378 1.0914513 1.7791096 -0.19336422 0.23065417 0.831685 -0.55259657 0.44722444 0.44977984 0.58933836 -1.2070702 1.0772904 0.087231465 0.7722717 1.0364448 0.04988395 -0.35308173 -0.2681681 0.1527878 -0.9732318 -1.2784126 -1.0849746 -0.55564255 -0.12111072 -0.15062438 0.0014449734 -0.49253017 0.56116295 0.20762074 1.0302335 -0.1974484 -0.012938089 -0.14854485 0.42391476 -0.68733823 0.68363816 0.43349093 1.2903054 0.7307064 -0.9160157 -0.6068814 -0.15347195 0.4728973 1.0347468 -0.6937312 -0.11800933 0.16624382 0.83500695 -0.78389305 0.32130423 -0.06609351 -0.4422147 0.39145157
435845 0.97162944 0.26871467 0.24550942 -0.46978542 -1.7133371 0.28668997 0.25976053 0.48771855 0.5610437 -0.09668387 0.8445414 0.6564481 1.1487514 0.51200783 -1.4453361 0.36795744 0.42149577 -0.3397698 -0.6836664 0.14716597 0.11639515 -0.34616286 -0.49712455 -0.032170244 0.34723735 0.043275144 -1.502532 -0.09411245 0.67376286 0.78996766 -1.1450135 -1.8525667 -1.0075899 0.04813794 0.18044594 -0.87298626 0.09088076 -0.80805624 -0.76056063 0.015341424 0.73216176 0.79135495 0.06287023 -0.76618654 0.083958924 -0.55247235 0.82619345 0.6092462 0.8785905 -0.24844258 -0.25794464 1.1386045 -0.062112153 -0.08904027 -1.566975 0.017467288 0.17127891 0.37665927 0.0177546 -0.7933854 -0.7900282 -0.8876228 0.07834755 -0.7465012
873551 0.9609803 0.26615566 0.2581549 -0.4776221 -1.7126617 0.30005428 0.28219563 0.48617205 0.5783622 -0.10706674 0.8305158 0.6375721 1.1298519 0.5302306 -1.431758 0.40086603 0.45877087 -0.33141994 -0.64712715 0.15668988 0.14098111 -0.32046992 -0.50361806 -0.00993328 0.37985846 0.028443152 -1.4954802 -0.09618833 0.6835097 0.79277176 -1.15962 -1.8516779 -1.000592 0.03368583 0.17001706 -0.87860835 0.086987294 -0.8226408 -0.74300694 0.026371226 0.730239 0.78987503 0.055343617 -0.761656 0.075587235 -0.59304386 0.8119217 0.64105916 0.9041172 -0.23188856 -0.2665671 1.114141 -0.06243563 -0.09768989 -1.5451571 0.009930748 0.19169451 0.34502795 0.017202752 -0.78150505 -0.78365177 -0.9073127 0.04500092 -0.74970144
1610492 0.37779084 0.115579836 0.3300958 -0.20444967 -0.5823148 0.3397411 -0.90845746 0.7111684 0.11570968 -0.6321565 -0.77092165 0.9776525 0.84887844 0.89676213 -1.3959665 -1.1011593 -0.48541623 0.16061167 -1.5009211 0.5665808 0.24756566 -1.15981 0.4972947 -0.75711787 0.29194438 -0.27421457 -0.8391895 0.1089639 0.4984795 0.812518 -1.9680307 -1.1741188 -1.0616542 -0.31189787 -0.27218622 -0.025785267 0.21858963 0.82238084 -1.16184 0.07673865 -0.100528285 -1.5953356 0.19087712 -0.4610875 0.009971532 -0.12565382 0.28190845 0.015126055 -0.107935995 -0.13361816 -0.061878864 0.571128 0.7525241 0.24973622 -0.32075703 0.71549696 0.42419818 -0.50726724 0.84746796 -0.13984685 -0.3177931 0.15539673 -0.6961393 -0.6377082
636287 0.32705685 0.11382777 0.31095466 -0.20665076 -0.5514036 0.3241876 -0.8642869 0.70444375 0.09691421 -0.66609806 -0.8321296 1.0117217 0.8704721 0.98725384 -1.3278577 -1.200678 -0.46431673 0.15766874 -1.459483 0.6166203 0.19619693 -1.1354117 0.5167489 -0.7463872 0.3070829 -0.23616937 -0.8285125 0.10685598 0.49495012 0.8487142 -1.9624057 -1.0909923 -1.0732931 -0.3503326 -0.26368815 -0.049770184 0.24247411 0.8158034 -1.1380091 0.026926294 0.03542095 -1.5626863 0.21054596 -0.440612 -0.00670626 -0.058892243 0.30525434 -0.13187997 -0.08375051 -0.1157331 -0.08865222 0.47400373 0.74175245 0.25555792 -0.1918955 0.68499863 0.44289395 -0.578094 0.80665606 -0.0851991 -0.36296347 0.14958262 -0.74855727 -0.5998732
864338 1.0689392 0.35090667 0.9982434 -0.19926183 -1.0609556 0.5148772 -0.1521956 0.54383224 -0.49943033 -0.717868 1.373002 -0.11594964 0.43417034 0.9331467 -0.24233887 1.5877869 1.2840971 0.034837145 -0.6194851 -0.7313088 0.010997575 -0.40407988 0.17371854 0.18518907 0.76454 -0.469093 -0.27046663 0.114371285 0.79144543 0.86466676 -0.7286489 -1.6875349 -0.5297175 0.6537527 0.455815 -0.7132498 -0.64158183 -0.30808702 0.45861754 0.042707287 -0.08941016 -0.7063487 -0.24606948 -0.21364675 0.05745411 -0.58852065 0.52411354 1.0462118 1.5963581 -0.04101266 -0.2989574 0.91330916 -0.15825069 -0.20359793 -0.71190614 0.11563881 0.1351869 0.59651995 -0.20930365 -0.92538196 -0.23813076 -0.38142157 0.11077306 -0.59823364
1254706 0.81020814 0.1822089 1.0095116 -0.21511088 -1.114619 0.6275463 -0.044851642 0.45645496 -0.6085688 -0.7815931 1.4176997 -0.17016597 0.30971563 0.8046663 -0.02245824 1.5967203 1.4535034 0.023262192 -0.5787053 -0.6707596 -0.06328566 -0.39561987 0.21753517 0.19426535 0.8486385 -0.42285612 -0.03968144 -0.0106875375 0.7123976 0.8916023 -0.96455497 -1.6508939 -0.6588926 0.7545096 0.48669735 -0.7739837 -0.63133234 -0.31818566 0.57047904 0.32924086 0.12820846 -0.57813996 -0.31979144 -0.18478061 0.069477424 -0.5515719 0.4334603 1.0783855 1.6744256 -0.03771097 -0.26928487 0.9361593 -0.040193025 -0.19309637 -0.6294057 0.049682684 0.018349154 0.49046078 -0.20826319 -0.7961191 -0.17949414 -0.5368792 0.12845643 -0.41095677
957957 -1.916026 -0.5194908 0.59538245 0.09911052 -0.07304349 0.5607538 -0.4706888 1.0061587 -1.0037819 -0.00097468466 0.25680563 -0.15251349 0.8880437 0.62796336 -0.72430056 -0.724033 -0.7810636 0.1994024 -0.57560235 0.39732048 -1.1879649 -1.7988588 1.122067 0.007849922 -0.23847237 -0.314997 -0.28545424 -1.4654472 0.724438 -0.2400935 -0.664339 -0.10765691 -0.4239992 -0.67788905 -0.8689311 -0.26070693 0.22416149 0.38157788 1.2334374 0.14770524 -0.81852233 -0.098385446 0.6564726 0.44027087 0.1852324 0.1945021 0.1283416 0.3037924 -0.6168781 0.46714926 0.24454802 0.2937055 0.055621188 0.8117493 0.25118157 0.8801432 -0.34355986 0.11819385 1.6082361 -0.6069407 0.7614702 0.9566218 0.40795347 -0.1762645
1608160 -1.8057723 -0.6903185 0.31673855 0.1149675 -0.1713928 0.5740664 -0.6738176 0.88682103 -1.1525631 0.020879898 0.45573828 -0.106454134 0.91637015 0.50939155 -0.5146087 -0.8945181 -1.0539798 0.1015653 -0.36517715 0.26874048 -1.2488669 -2.0152287 0.9797471 0.14818831 -0.2141334 -0.3106929 -0.06849263 -1.4402572 0.76511824 -0.16587234 -0.61833113 0.037406042 -0.29514486 -0.6673769 -1.0384979 -0.28363317 0.118531235 0.47434747 1.1504301 0.18829702 -1.1872128 0.031391256 0.6421242 0.5296423 0.17440224 0.16136219 0.13557209 0.44533023 -0.7345427 0.46640286 0.3640083 0.21019778 0.06621699 0.9349802 0.22755016 0.80042225 -0.4169179 0.34170347 1.6445962 -0.6412653 0.86664295 0.9254676 0.39444077 -0.031462397
829453 -0.565715 -0.21114233 1.2971978 0.14610107 0.13567123 0.32108966 -1.0870937 1.0514057 -1.126253 -0.6317812 -0.018947508 0.8180199 0.79634017 0.6520116 -0.7970347 0.4090931 -0.22720326 0.3652215 -0.65060985 1.2046916 -0.09555533 -0.6439437 1.3928798 0.31191784 -0.06902013 -0.5897484 -0.84360754 -1.2575028 1.4674267 0.79508436 -0.7048016 -0.32249027 0.4708695 0.3886323 -0.34026024 -0.44999152 0.283697 0.020003082 0.16270593 -0.35507432 -0.7680057 -0.94338727 0.72930264 0.54434216 -0.60753286 -0.64992064 -0.31453705 0.84525317 0.022698184 0.25577694 -0.5807706 0.78002894 0.034267873 0.86065155 0.18607186 0.49446929 0.24016395 -0.6568438 1.3204516 -0.82613206 0.514617 0.26736084 -0.3973532 -0.16899326
206385 -0.5386899 -0.12707241 1.2664015 0.08807254 0.09001079 0.30346283 -1.0381514 1.0617133 -1.0437584 -0.62038696 0.00627088 0.78319615 0.83672637 0.5854745 -0.850814 0.497137 -0.2504127 0.3482381 -0.6917646 1.1729256 -0.075946406 -0.6082205 1.4123509 0.3310455 -0.053657226 -0.5398291 -0.868772 -1.2653863 1.4943393 0.80995387 -0.6289385 -0.4511996 0.42979634 0.39510536 -0.34805295 -0.4743649 0.23485248 -0.023791261 0.06706874 -0.43027675 -0.80508643 -0.9550175 0.7312925 0.54395634 -0.6050011 -0.6964235 -0.27575573 0.81014055 0.03532383 0.265541 -0.60814303 0.8208749 0.0976707 0.8811913 0.18111247 0.5097836 0.27017295 -0.6172513 1.3314302 -0.8710256 0.50401753 0.3000852 -0.4154277 -0.14879644
1276917 0.89502555 -0.7370395 1.4449643 0.1887047 -0.4943124 0.01316912 -1.3001168 1.5270561 -1.0922477 -1.3211712 0.35264122 1.4007943 0.03115667 0.77992094 -0.029020224 -0.092604324 0.448269 -0.49692732 -1.1513687 0.4494146 0.3820027 -0.42553377 0.94372785 0.62271523 -0.13758701 -0.37546846 -0.71522325 -0.101596884 -0.014222896 0.7167142 -0.018476795 -1.395338 0.361258 0.40717876 -0.026305221 0.01687831 -0.12677445 -0.02307984 0.27517024 -0.74108803 -0.6414494 -0.3087535 0.28429917 -0.19829437 -1.10003 -1.1262091 -0.023769336 0.9646016 0.6468158 -0.86961555 -0.2957609 0.6306373 0.16017093 0.16621643 0.08136335 0.55147153 0.4499218 0.18316235 1.2147855 -0.71148425 -0.023195894 -0.09892679 -0.5891555 -1.2387638
1253590 0.8968883 -0.71429324 1.4725668 0.18919957 -0.5240385 0.037278865 -1.247821 1.5077165 -1.0273132 -1.3141025 0.37514493 1.379878 0.02479983 0.7654914 -0.023646582 -0.049593177 0.46393487 -0.4782183 -1.0959584 0.43963265 0.3949325 -0.38272446 0.9525517 0.62489223 -0.12505323 -0.3970641 -0.6380473 -0.09012367 0.026134517 0.68883353 -0.052584562 -1.4632841 0.31242827 0.38366345 -0.03280634 0.019760933 -0.14018883 -0.040353205 0.23135112 -0.72071743 -0.6445395 -0.3590605 0.28380874 -0.1941583 -1.0816094 -1.1398486 -0.044948876 1.0393723 0.67427087 -0.8650195 -0.30449718 0.5914479 0.12171456 0.16064514 0.077173665 0.5400071 0.42044303 0.15040104 1.2010435 -0.6925689 -0.038075406 -0.15432478 -0.6098272 -1.190207
495400 0.11345444 0.20511977 -0.7528021 0.40020347 -0.85480744 1.1178381 -0.5821932 0.007559626 -0.22573283 -0.37209088 -0.70491827 1.0494728 1.0717471 0.45342717 -0.5026681 0.3998351 -0.46407574 -0.5019755 -0.12507257 0.76833785 -0.051337525 -1.0219165 0.5802718 -0.3591723 0.90629923 0.3986424 -0.13044985 0.11166278 1.3080274 -0.7109896 0.3072059 -1.3415345 -0.1911636 0.5497132 0.05980398 -0.062236186 0.3171517 0.097374335 -0.2503152 -0.94790304 0.09984444 -0.045897435 0.7025581 1.1936151 -0.088621736 -0.003173808 0.028848873 0.56514543 0.9553904 0.7484581 -0.087873735 0.61484915 -0.9804484 1.19992 0.65496606 -0.5469291 0.29064763 -0.48261133 2.1450148 -1.2108326 0.25052044 -0.66197246 -0.66745484 -0.30313298
794935 0.103637956 0.1744003 -0.7339835 0.36696222 -0.845956 1.1783519 -0.5671233 -0.0074014054 -0.1767209 -0.36558363 -0.7661461 0.9948174 1.1317464 0.45541978 -0.49772897 0.3280459 -0.57538384 -0.4608927 -0.061154086 0.7629498 -0.14307044 -1.001264 0.5936841 -0.37094146 0.9398083 0.36880013 -0.16896747 0.07363582 1.4051353 -0.7018143 0.19247052 -1.2364616 -0.2040225 0.51259726 0.117649734 -0.10268886 0.35227528 0.097795695 -0.26076904 -0.93848187 0.09658189 0.0036225705 0.73813987 1.1753314 -0.03033793 0.089927815 -0.027106345 0.59459364 0.89049286 0.79324436 -0.022700837 0.5527196 -0.9824915 1.2147703 0.6246431 -0.581041 0.2971648 -0.53262556 2.0876992 -1.1383575 0.20686156 -0.73380303 -0.57539743 -0.23866604
112720 -0.26746613 0.13729131 -0.29608613 0.052834716 -0.69543344 0.009078182 -0.28947553 0.26637417 0.48004314 -0.58404136 -0.2782824 1.4116799 0.37303352 0.10043091 -0.6902929 -0.605158 0.48016605 -1.2975875 -0.32368886 0.5432941 0.46986064 -1.152219 0.47042936 -0.30618295 0.8422906 1.063094 0.10045062 0.31135294 0.20655996 -0.28534526 -0.508793 -1.162154 -1.2172654 -0.0056552137 -0.35749647 0.03466361 -0.060781643 0.43825105 -0.63912016 -0.17839938 -0.3576487 0.2674213 -0.25497663 0.46456945 0.21533278 -0.14595877 1.2233045 0.2180103 -0.3701885 0.6874229 -0.25321108 -0.42045835 0.23516174 0.45811358 1.3441739 0.7702517 0.15924357 0.4588769 1.8624349 -1.2436007 0.62959623 -0.041752912 -1.2764695 -0.4489757
633670 -0.29404193 0.16009474 -0.2722577 0.13671292 -0.68134403 -0.006917139 -0.3007542 0.3152357 0.50608665 -0.5258785 -0.32712108 1.3853953 0.37061676 0.15930575 -0.69773537 -0.70057553 0.36344647 -1.2621688 -0.26621175 0.5496096 0.43569654 -1.205341 0.50024784 -0.3130721 0.8703841 1.0621214 0.06920232 0.24301197 0.18077199 -0.24452458 -0.57060903 -1.0209961 -1.2137648 -0.10333392 -0.341558 0.055480417 -0.031792913 0.43572468 -0.5874759 -0.14752269 -0.27570543 0.2270884 -0.22059669 0.4543432 0.18728817 -0.15320235 1.1535286 0.1258357 -0.37450495 0.70968527 -0.17637962 -0.5056777 0.24870884 0.46618465 1.3228805 0.7315505 0.19397345 0.4313095 1.8395048 -1.1483119 0.59614354 -0.02379883 -1.2698753 -0.36779633
1289971 1.8066128 0.26798713 0.121141456 0.73958457 -1.0095049 0.2149244 -0.4461909 0.81994295 0.23159987 -0.7802438 -0.30267027 1.3033146 0.108710244 0.70593226 -0.7435509 0.011100394 0.8643176 -1.3823999 -0.8266501 -0.1845266 0.9194878 -0.9642323 0.120653674 -0.22465415 1.0482903 0.55262476 -0.2290728 0.681162 0.6605679 0.952012 -0.65269595 -1.8876729 -0.68945414 0.2547087 0.23012796 -0.3262187 0.0133988885 0.91728204 -1.2725867 -0.0894457 0.42998633 -0.23906414 -0.59903085 -0.061289128 -0.8269439 -0.6772924 0.542702 -0.10878412 0.9666087 -0.2024842 -0.25427675 0.29670283 0.21131265 -0.2251033 0.32745007 0.32624054 0.7922702 -0.01568703 1.0607522 -0.94267803 0.08892267 -0.61911803 -1.6246088 -0.7932175
425867 1.8494543 0.2897592 0.10499125 0.79674095 -0.9898121 0.17878902 -0.3998267 0.8344036 0.18182829 -0.76652807 -0.29836485 1.2942834 0.053092074 0.6975811 -0.6891908 0.042909347 0.90418965 -1.402944 -0.7684369 -0.26231587 0.9686958 -1.0039306 0.122183025 -0.17054044 1.0769265 0.5944259 -0.20124646 0.68934214 0.6375716 0.9534084 -0.6246734 -1.8371544 -0.61262655 0.22641581 0.24495205 -0.34923813 0.008109361 0.9527423 -1.261337 -0.06557984 0.40877825 -0.20635986 -0.6436144 -0.066051155 -0.85229474 -0.7101816 0.5672904 -0.13926381 0.9976242 -0.19633667 -0.24480191 0.24382095 0.20072562 -0.26700002 0.37669826 0.3394673 0.7868453 -0.009588401 1.0285891 -0.95941997 0.14544109 -0.6052167 -1.6375884 -0.78896314
769039 -0.94633937 -0.3143096 -0.41089502 0.47767588 -0.2941845 0.5040401 -0.5115186 0.33056942 0.05500665 -0.3898 -0.8935954 -0.08054683 0.65111256 0.99543196 -0.49322855 -0.8262847 -0.76134366 0.7078429 -0.41586274 0.8776552 0.19547288 -2.1268423 1.0764878 -0.7856124 0.60382473 0.023191452 0.37598714 -0.08961229 0.8868672 -0.25287816 -1.9078162 -0.15574834 -1.073606 -0.59208184 -0.8453616 0.567197 0.65956116 1.1265537 -0.42996645 1.0940878 -0.25562224 -0.70019823 -0.44065073 0.55303115 0.5131512 -0.13962197 -0.108140394 0.9230643 -0.0059718955 0.58884734 0.50864464 -0.17393462 -0.025564918 0.30417314 0.4038702 0.16432625 0.25181678 -0.82672244 1.1472179 -0.046462808 0.86251396 -0.27450892 0.06997056 0.54237676
1360123 -0.9053888 -0.29249302 -0.4174954 0.46307868 -0.3095834 0.5146363 -0.5060131 0.3228722 0.06316731 -0.41208342 -0.9112543 -0.09667074 0.64230925 0.9771071 -0.48845857 -0.80475533 -0.7961211 0.73662883 -0.41368398 0.8668608 0.17485109 -2.098491 1.0823424 -0.7814687 0.6125168 -0.06477858 0.39545017 -0.09361849 0.9274862 -0.2290632 -1.9325067 -0.1641293 -1.0409815 -0.5762193 -0.82749087 0.57534605 0.6819051 1.131265 -0.43726096 1.086194 -0.28118023 -0.7288894 -0.41422537 0.5590466 0.52101237 -0.11608008 -0.15534964 0.9224004 -0.005954601 0.573252 0.49500254 -0.15800358 -0.02978302 0.30102825 0.3394306 0.09688699 0.21191172 -0.84079534 1.0900611 -0.0071809776 0.8601648 -0.3105899 0.063258596 0.56917727
380644 -0.9249941 -0.30500805 -0.34552866 0.7925209 -1.1512058 0.4695844 -0.53591824 0.14729072 -0.93932664 0.29026943 0.4673239 -0.5475961 0.17925705 1.3490728 -0.59816295 0.3832447 -0.48810747 0.8898426 -0.16449626 0.121628225 -0.3006161 -2.3991296 0.785702 -0.12054018 0.28598166 0.17343187 0.06548168 -0.45573312 0.42339098 -1.2094975 -1.4974465 0.23117009 -0.510239 -0.91337615 -1.1778239 -0.08173687 -0.43452206 0.5338729 0.81411225 1.2200935 -0.23604774 0.3854438 -0.55660224 0.49737695 0.5033257 -0.665517 -0.76607037 0.48748633 0.8422947 0.037763078 0.6863012 0.3623219 -0.798781 -0.08625386 -0.12522969 -0.021183338 -0.17497061 0.033312257 0.45882642 -0.40172917 0.93130356 -0.33099538 0.86519575 -0.21643712
929521 -0.92060935 -0.2923725 -0.3797354 0.8051726 -1.1215194 0.5019678 -0.49056745 0.13393833 -0.8711252 0.27992982 0.47973353 -0.6093561 0.15590657 1.3229109 -0.54589367 0.43657672 -0.47093782 0.85829496 -0.11392343 0.11401628 -0.302873 -2.3285902 0.8350895 -0.17861494 0.31770247 0.17701241 0.11991531 -0.43538913 0.4980689 -1.1831075 -1.419608 0.21449201 -0.5204066 -0.8793133 -1.1686728 -0.06355694 -0.45104462 0.4695342 0.89236003 1.1639025 -0.1558234 0.39503112 -0.521043 0.531971 0.44052452 -0.6814662 -0.73913795 0.40883273 0.9305045 -0.004316771 0.6838348 0.37052807 -0.769648 -0.06131113 -0.08488988 -0.08374488 -0.14152108 0.044863284 0.4500363 -0.41393104 0.93382084 -0.32589066 0.82691884 -0.19912323
355408 -0.5062732 -0.3950004 -0.6670804 0.72260827 -0.35937235 0.08197211 -0.9104871 0.536732 -1.7903962 0.010533408 -0.5502862 1.0671799 0.48957318 0.33494803 0.039446436 -0.5404077 -0.7102214 0.2801884 0.46860915 0.4331039 0.114184886 -2.3679426 0.3337662 0.640496 0.3247179 -0.058511525 0.03534877 -0.615478 0.79389006 -0.5148023 -0.68868446 0.30794045 0.062294323 -0.09426089 -0.69039625 -0.4841836 0.20798424 1.0210478 0.15744433 1.0350547 -0.95034736 0.15334843 -0.30155063 0.5916933 0.8019084 -0.2804956 -0.49585035 0.8617002 -0.67017436 1.05833 0.10087354 -0.071744256 -0.8948249 0.9493784 0.12422317 0.082237154 -1.0503306 -0.4112287 1.2703329 -0.4750066 0.97056425 -0.25174978 -0.52627695 0.47004196
513648 -0.5337979 -0.39927956 -0.61979336 0.7187317 -0.39536065 0.066364415 -0.9101198 0.5498005 -1.8482302 0.0018662679 -0.52079237 1.0644865 0.5162751 0.37121233 0.042864215 -0.50674236 -0.70031875 0.32625297 0.47251588 0.42597637 0.11985326 -2.394598 0.3601809 0.680288 0.30596274 -0.08185264 0.03262479 -0.6730993 0.7650265 -0.49322546 -0.77782154 0.34548366 0.07107482 -0.087901965 -0.66281766 -0.5111627 0.22122511 1.0099905 0.14347942 1.11153 -1.0017402 0.13589975 -0.31119126 0.55564153 0.8318494 -0.29157788 -0.5070601 0.9363088 -0.69084513 1.0728257 0.07261274 -0.06430758 -0.9258691 0.941575 0.06424177 0.07300978 -1.0878766 -0.39363402 1.2287645 -0.4440623 0.9892138 -0.2566402 -0.4698036 0.50805986
852439 -0.16897483 -0.2650885 1.4491329 -0.39509296 -1.0108932 0.48478886 -0.17849463 0.9000982 -0.42043033 0.002677996 1.4439645 0.7041226 0.18147877 0.17451116 -0.8850083 1.337077 0.6406469 -0.2942173 -0.46779874 0.36617127 -0.14763893 -0.38314232 0.62292665 -0.00565169 -0.0352853 0.010238851 -0.39685792 -0.79479223 0.13047676 1.0001502 -1.0707296 -1.6491705 -0.12516952 -0.35221654 -0.31304854 -0.13153312 0.1259742 -0.7001722 0.96932805 -0.21457934 -0.5515252 -0.42530602 0.25428033 -0.14197372 -0.7862453 -1.2650385 0.13786493 1.0814104 0.86916274 -0.88075614 -0.51231354 0.76887375 0.7096603 0.8738825 -1.0015054 0.5762359 0.010430496 0.82999223 0.9140115 -0.5645564 0.5409088 -0.1570969 -0.070191905 -1.4057914
925311 -0.1993582 -0.26274613 1.4580221 -0.41155326 -0.9970047 0.4962439 -0.1620476 0.8528068 -0.4543399 0.0022735246 1.488599 0.68038875 0.12441671 0.123231746 -0.8300521 1.4001666 0.6751136 -0.33297044 -0.42682603 0.33652395 -0.16692655 -0.37874404 0.6392503 -0.027656587 -0.019427266 0.033121105 -0.3326429 -0.7842881 0.14220786 0.9981733 -1.0380497 -1.6465465 -0.109014936 -0.31483823 -0.31713468 -0.09808329 0.103129625 -0.6885751 1.0593343 -0.23590338 -0.56298935 -0.43248883 0.26072246 -0.112071626 -0.8075856 -1.2515726 0.18832973 1.0566489 0.89573425 -0.92473644 -0.51333916 0.7309519 0.75490034 0.93475294 -0.95313334 0.5965624 0.0075696823 0.912724 0.9289673 -0.6084682 0.58466744 -0.17958397 -0.06902854 -1.4163686
62685 -0.7536054 -0.07291633 0.1850262 0.1427789 -0.9471888 0.79901546 -0.9468735 1.1281308 -2.4391384 -0.071362555 0.72550374 0.58776116 0.25970468 0.23622786 0.18925408 0.3092179 -0.1891172 0.043373536 0.3780855 -0.21675241 -0.39989626 -1.4722593 0.5775892 0.9570694 0.48891458 -0.48511216 0.077337824 -0.44246823 -0.1863863 -0.6136568 -0.28344202 -0.9464561 0.5713083 -0.17654209 -0.4713611 -0.29920256 -0.3004056 -0.4123009 0.9693003 0.41878584 -1.5855572 0.21280628 0.055761885 0.55627435 0.59591585 -0.5470147 0.45408303 1.1557946 0.4900789 -0.31943598 -0.046544973 0.29064175 -0.63689566 0.77645254 -0.08185646 0.50574213 -1.1765403 0.96068597 0.7236375 -0.5770719 0.89583975 0.37759328 0.18301685 -0.048531752
20094 -0.66971433 -0.077680826 0.17005749 0.09392831 -0.9368573 0.76686305 -0.94774455 1.1497905 -2.389325 -0.09691733 0.74424237 0.6466963 0.23209561 0.18721305 0.21174996 0.34524626 -0.23556064 -0.020209806 0.34394503 -0.23470518 -0.32784206 -1.443983 0.56804883 0.951863 0.46390557 -0.45234835 0.09820016 -0.3960272 -0.19849156 -0.58021593 -0.20904809 -1.0298079 0.5930459 -0.12206714 -0.4664 -0.28765422 -0.2984222 -0.41708112 0.9137007 0.3564264 -1.5898343 0.20296122 0.07410902 0.519398 0.56999195 -0.6126069 0.46903017 1.144875 0.49803472 -0.39994183 -0.09164649 0.3310396 -0.5662945 0.8158349 -0.06590533 0.5099784 -1.1708541 0.9798341 0.7874617 -0.6356184 0.90725315 0.37142557 0.11217332 -0.0932255
418830 0.9789047 -0.061390214 -0.42604458 0.35682932 -1.921347 0.5217916 -0.7986746 0.052203376 -0.19290744 -0.91329503 0.27392122 1.1475855 0.31807107 0.8745592 0.11461035 0.56658053 0.35858935 -0.94566786 -0.40439078 0.20447382 0.49328375 -0.8036877 -0.093407035 0.3390964 0.44720346 0.6403882 -0.26738626 1.1085583 -0.28910732 -0.15434308 0.16401038 -1.7275928 -0.56716037 0.28344807 -0.046664894 0.32806593 -0.59024435 -0.086399056 -0.56787616 -0.33042434 0.27050304 0.9784538 -0.2098992 0.09182164 -0.39093214 -1.0114251 0.25869235 0.49046406 1.367715 -0.50133455 0.068721205 0.4132257 -0.07106134 0.1494344 0.62498623 -1.0031443 0.62289214 0.63640773 1.3257706 -1.6062729 0.042450882 -1.3251606 -0.46078673 -0.35682163
13695 0.96613383 -0.056313407 -0.39566857 0.34482166 -1.9479282 0.53721875 -0.7700485 0.0528624 -0.18907188 -0.9271386 0.27174157 1.1490011 0.3499896 0.9052956 0.12335842 0.6025634 0.37269345 -0.9187626 -0.36675268 0.23346774 0.50241697 -0.8063887 -0.055982348 0.370575 0.47325158 0.63263184 -0.24523433 1.0764952 -0.22819819 -0.12922424 0.08975641 -1.7558433 -0.5693146 0.29767594 -0.05357112 0.3337431 -0.5552535 -0.08960914 -0.56109107 -0.30332488 0.25964993 0.94558364 -0.16984415 0.096223064 -0.36923465 -1.0087535 0.2528267 0.5618496 1.4075214 -0.46063107 0.045751784 0.37548897 -0.052012946 0.19628155 0.6233397 -1.0056827 0.58574855 0.60694504 1.3395061 -1.6028854 0.072916836 -1.3532834 -0.47716656 -0.32954803
801809 -1.2949631 0.22433236 0.552894 0.04530769 -0.98342305 0.42609867 0.6799897 0.1790151 -0.37367138 0.27213767 0.9144813 0.53025997 0.7308057 -0.15669794 -0.09073852 0.42799073 0.20821726 -0.26733524 0.30435508 -0.011762439 0.2102141 -1.5799236 0.3802183 0.3887559 0.4370083 0.035010405 0.23505352 -0.8384286 0.19559889 -0.0034940105 -1.5265472 -1.2404972 -0.5591784 -0.80713767 -0.05909058 -0.5771755 -0.021979067 0.19594064 1.2184373 1.1004854 -0.90595686 -0.22427875 0.15787922 -0.55219734 0.55408823 -0.2291734 0.68570566 1.4563355 0.29080495 0.5372769 -0.64216334 -0.6292523 -0.52160347 1.08258 -0.84220976 0.39665052 -1.106597 0.8170151 0.4949755 -0.18008381 0.92285335 -0.31669402 0.024424138 -0.12640566
68987 -1.2899598 0.3168896 0.5989653 0.01798406 -1.0406127 0.44546705 0.6861003 0.18211694 -0.37660208 0.22754489 0.99707013 0.5592554 0.695561 -0.18510205 -0.1006586 0.51244307 0.2808614 -0.3340455 0.19326843 -0.0656879 0.24067453 -1.5583951 0.39276347 0.41238278 0.37486017 0.058587704 0.23957193 -0.81340706 0.12559466 -0.03977615 -1.50597 -1.3976321 -0.5739884 -0.7603299 -0.017372064 -0.59312695 -0.050180465 0.18817171 1.2079254 1.0939273 -0.97776514 -0.20669645 0.14778568 -0.6581867 0.4922967 -0.25307763 0.7421992 1.4852642 0.302585 0.50761473 -0.70174927 -0.56031775 -0.5317062 1.0721091 -0.8214184 0.4330294 -1.0667171 0.88682145 0.55519646 -0.24429263 0.90119535 -0.28818235 0.05404747 -0.16048774
658678 -0.5445479 -0.19069812 0.6794407 -0.30122375 -0.5046336 -0.470479 -0.5208803 1.0597552 -0.22749504 -0.32569516 0.26645443 1.4163146 1.6479613 0.28300825 -1.0970776 -1.0496749 -0.33540997 -0.7831033 -0.71492195 0.60632294 0.028547622 -1.0116303 0.24762331 -0.039640877 0.031230051 0.39351463 -1.3386819 -0.9666005 -0.11679285 0.9696716 -0.4983725 -1.0063984 -1.1452442 -0.30148023 -0.09604434 -0.7255403 0.28956643 -0.60958415 -0.09076063 -0.52223146 0.025711328 -0.15417583 0.1825208 0.109560035 0.5819841 -0.090426765 1.1031005 0.19153453 -1.0704435 0.7536678 -0.30728048 0.57345176 0.3599268 1.1634496 -0.16741882 1.0543994 -0.17650367 0.77956074 1.3792398 -1.0254213 -0.34204862 0.55507517 -0.07559355 -0.60737854
1613951 -0.52369136 -0.1877787 0.65023386 -0.358898 -0.5106498 -0.4995057 -0.54356813 1.0169832 -0.23780458 -0.3663812 0.35015476 1.4208568 1.6200484 0.17092247 -1.0856371 -0.9811376 -0.33084467 -0.8605167 -0.79572874 0.48713624 0.07568054 -0.96241134 0.19926463 -0.013223515 -0.028486528 0.42731628 -1.3430533 -0.9256739 -0.18333243 0.9157687 -0.41054612 -1.0918187 -1.167789 -0.28391358 -0.0715832 -0.7500407 0.18988807 -0.6045638 -0.13357428 -0.49217397 -0.104570635 -0.13080245 0.10996847 0.06780929 0.6106889 -0.1465144 1.0886558 0.26607734 -1.1424391 0.6975383 -0.32482976 0.6315539 0.37525246 1.1209812 -0.20937508 1.0652164 -0.16207887 0.86268884 1.3659949 -1.0639122 -0.3209284 0.55939466 -0.002281061 -0.6496043
1686247 -0.84621567 -0.6073069 0.130319 -0.22051041 -0.03711313 -0.0724626 -1.0742968 0.78679115 -0.48282662 -0.6264896 -0.36244562 1.2345375 0.76492476 0.19756606 -0.738526 -1.2599223 -0.8800854 0.32999772 -0.7525657 0.63194823 -0.026607813 -2.3360424 0.1470562 -0.18402533 -0.14548561 0.19879204 -0.8092714 -0.34659147 0.40354174 0.5464544 -1.3690296 0.29384378 -0.6893912 -0.77842855 -0.7607962 -0.22861297 0.70776206 0.5002178 -0.1216062 0.6409799 -1.2005043 -0.6657145 -0.20870517 0.5136094 0.47826418 0.085855134 0.07802677 0.7635614 -1.8686305 0.53029364 0.2834513 0.21496342 0.6173761 0.62727016 0.27078348 1.5400517 -0.02145756 0.029107803 1.2115539 -0.29803222 0.6418038 0.19301209 -0.08883984 -0.8179853
1455862 -0.83440906 -0.63171226 0.16551954 -0.22178037 -0.037161436 -0.025801044 -1.0596856 0.8100112 -0.48567662 -0.6301727 -0.3587514 1.211018 0.76061434 0.19451632 -0.7295818 -1.268239 -0.8841084 0.31904474 -0.77272123 0.6079851 -0.07589166 -2.321964 0.16984342 -0.19173604 -0.14656594 0.14434922 -0.7989004 -0.37429237 0.4580572 0.58671075 -1.39342 0.24585907 -0.67112195 -0.7793745 -0.7534563 -0.23490499 0.7094103 0.5187974 -0.070395574 0.62461734 -1.2064358 -0.6907654 -0.17612766 0.5091525 0.43805382 0.10170535 0.0711758 0.7532789 -1.8356456 0.5074368 0.27139497 0.21218875 0.64113444 0.6366218 0.22270793 1.540549 -0.048514232 0.016244367 1.2212381 -0.30444813 0.62920123 0.20226726 -0.113929585 -0.82268554
630738 -0.23191874 -0.10359042 -1.0227607 1.0798714 -0.9677749 0.5506846 -0.52787614 0.435287 -0.7431752 -0.7889833 -0.83466303 0.7792351 0.7645843 1.7418044 -0.046824645 -0.74927515 -0.64972484 -0.083529145 0.05466792 1.0561203 -0.05164372 -1.7409813 0.86235315 0.12427303 0.7290361 0.42558247 0.26017758 -0.15001203 1.2845765 -0.4221889 -0.8406915 -0.14444593 -0.36290726 0.1018059 -0.586505 -0.39511025 -0.0033913946 0.7399728 -0.7103151 0.5361405 0.7040284 0.40193546 0.10107545 1.0434048 0.0018486255 -0.11722038 -0.9697 -0.5524857 0.8131505 0.6153997 0.03420779 -0.11306041 -1.1744874 0.4210227 1.0159808 -0.5589429 0.29530162 -1.1747831 1.5402224 -0.5068268 0.4396291 -0.42849913 -1.1694698 0.7594509
367047 -0.2439134 0.03690994 -1.0995238 1.1585597 -1.0013827 0.58096886 -0.3717385 0.5247998 -0.8413351 -0.5982401 -0.78616714 0.76509565 0.7972359 1.8466885 0.04949111 -0.66436934 -0.62177056 0.02554785 0.1679419 0.9135278 -0.16244972 -1.8423303 0.7954328 0.20750806 0.8511034 0.29028928 0.24258104 -0.42939296 1.4401318 -0.22652656 -0.78233373 -0.026127974 -0.2871236 -0.028994974 -0.51520616 -0.4175701 -0.010696137 0.6343221 -0.45970443 0.615613 0.87024784 0.40975234 -0.011955111 0.91750413 0.054221302 -0.3376416 -0.68052036 -0.5115638 0.9314286 0.51624584 -0.07051635 -0.1038784 -1.1209157 0.38470164 0.91983455 -0.59019494 0.21777031 -1.1028001 1.3092898 -0.31042188 0.64892024 -0.31368175 -1.2399668 0.868911
826927 -0.61800784 -0.0062111225 0.41882172 0.11157995 -0.8145335 0.09726738 -1.0663624 0.83264965 -0.8848382 0.10334976 1.0574174 -0.06348502 0.36335254 0.085669175 -1.178112 -0.2894453 -0.09533624 -0.059396386 -0.62053627 -0.15405107 -0.26911572 -1.9328061 0.28453335 -0.5569318 0.1618584 0.56928533 -0.7064239 0.27243602 -1.0687994 -0.50946695 -0.6964916 -0.6944232 -0.8216185 -1.121533 -0.42675868 0.4441492 -0.47176862 -0.06945423 1.253748 0.3942261 -1.0181413 0.37827036 -0.6773334 0.26244342 0.29549864 -0.9948621 0.88985914 1.3080662 -0.21528132 -0.027230944 0.7014471 0.51883477 0.3239522 0.19974175 -0.24712518 0.8076152 0.105796345 0.964149 0.5851778 -0.9492092 0.32348484 -0.12732825 0.8134793 -1.3705735
1165579 -0.5500412 0.001092955 0.42204556 0.10598234 -0.8898318 0.05936884 -1.0792626 0.79764336 -0.80945104 0.095065795 1.096648 -0.06357973 0.3257836 0.096153215 -1.2138382 -0.15957613 -0.019155297 -0.11826926 -0.6987385 -0.23422532 -0.17534916 -1.8614123 0.2760185 -0.5485584 0.13957325 0.56864154 -0.68776095 0.27999553 -1.0915245 -0.51000327 -0.65808994 -0.7839462 -0.8527022 -1.0816247 -0.44101045 0.40606937 -0.5443558 -0.07147911 1.1422776 0.40272874 -1.0528541 0.37177145 -0.71975213 0.20118618 0.25760964 -1.0430849 0.84285367 1.2620983 -0.22415702 -0.092786126 0.63735753 0.57820547 0.32201496 0.12380452 -0.25708443 0.8177196 0.1701475 1.0091186 0.59750634 -0.9853281 0.30782938 -0.10470402 0.80648226 -1.3940523
221117 0.8549266 -0.16964449 1.2810141 -0.40735176 -0.8535406 0.18469949 -0.44456074 1.4581108 -0.19784586 -0.7610135 0.51405627 1.2923609 0.4583628 0.45935047 -0.72759676 -0.26434508 1.3256161 -0.9437562 -1.2974473 -0.29348633 0.48257336 -0.5059672 -0.089082174 -0.16089949 -0.26823 -0.016684499 -1.173946 0.38085487 -0.7023418 1.3039818 -1.1921085 -1.7508333 -0.784195 0.35765982 0.3587477 -0.27709654 0.22553094 -0.15036482 -0.15160826 -0.20112222 -0.1426899 0.065340795 -0.3245784 -1.0296721 -0.37660125 -0.048419323 1.1231681 0.8800997 -0.31011802 -0.2945056 -0.89449584 0.6248635 0.5637282 -0.015725926 -0.50455314 0.97670126 0.14585835 0.84038335 0.3459791 -0.7581941 -0.7442816 -0.18356638 -0.42731556 -1.1537046
522329 0.7736179 -0.12097551 1.233138 -0.4239338 -0.87000036 0.21464221 -0.4443197 1.4342772 -0.20836692 -0.72548693 0.5126678 1.2613884 0.4256746 0.47394332 -0.7851804 -0.22748591 1.3495688 -0.8933544 -1.318217 -0.31348333 0.5049352 -0.5627153 -0.06856937 -0.20111838 -0.30467415 -0.007288163 -1.1273696 0.3853927 -0.7810215 1.2619268 -1.2585086 -1.7290424 -0.78050405 0.3017922 0.3233341 -0.20283003 0.20994513 -0.1265812 -0.13925341 -0.17113422 -0.17313713 0.023159465 -0.31868052 -1.0651313 -0.37291843 -0.0643372 1.1307735 0.849147 -0.2724124 -0.3079574 -0.91755885 0.62639827 0.5641055 -0.041716512 -0.48220402 0.9680565 0.15543146 0.85204774 0.32250136 -0.7427036 -0.7056637 -0.13359994 -0.41576856 -1.1377101
423651 -0.32389456 -0.054744743 1.088117 -0.66844094 -0.64004195 0.6806779 0.05759735 0.9215116 -0.26167536 -0.28831127 0.6943265 -0.06142884 0.7526921 1.1579053 -0.8586444 0.43877614 0.11882402 1.1218117 -0.62861603 0.5348274 -0.28304747 -0.54203933 0.6294944 0.074085064 0.105742596 -1.0355706 -0.716854 -0.9293491 1.3598832 0.9174933 -2.3108761 -1.1636899 -0.4389164 -0.111459464 -0.39415443 -0.7286775 0.7371379 0.13671535 -0.019939033 0.8042537 -0.33171323 -0.8194941 0.25842127 -0.55346066 0.12736666 -0.23678593 -0.025678 1.3443236 0.6051491 -0.04373204 -0.050542638 0.916529 -0.0030650096 0.22705257 -1.5248497 0.44556415 -0.20125043 -0.9569073 -0.23828329 0.20783208 0.058219656 -0.34012464 0.42852503 -0.21282478
1415006 -0.378723 -0.084888496 1.0757867 -0.63083917 -0.5939989 0.6984981 0.07217767 0.885413 -0.22826877 -0.28988764 0.6541931 -0.08576689 0.7625192 1.1939623 -0.8447722 0.37875044 0.05871483 1.1641002 -0.5861824 0.58522743 -0.3387611 -0.6004276 0.66505814 0.0501994 0.1301731 -1.0386673 -0.7170273 -0.93631864 1.3975492 0.9141721 -2.3305907 -1.0784827 -0.4543151 -0.17027372 -0.42339385 -0.7087461 0.7389906 0.17215928 0.051889744 0.8154075 -0.2831961 -0.83488345 0.2851859 -0.46479532 0.13997771 -0.20317079 -0.050394453 1.3223312 0.60413826 0.01119453 0.015396107 0.8599024 0.0066304975 0.24636549 -1.4650241 0.4333603 -0.19758058 -0.9945154 -0.2032083 0.2309103 0.09281672 -0.3406858 0.4307981 -0.2028367
1009021 0.9015958 0.17708744 -0.06407701 -0.18637817 -1.844111 0.419671 0.034923334 0.30525175 -1.3071185 -0.204586 0.89439523 0.8464904 0.62881994 -0.18074363 0.10491254 0.92956966 0.46795994 -0.69999534 0.14969213 -0.69715035 0.4822728 -1.224717 -0.36668128 0.87070656 0.76995623 -0.278379 -0.22455154 0.33591366 0.21988226 -0.53780127 -0.56639236 -2.0528128 -0.028405072 0.32756725 0.32371062 -0.8478835 -0.49650583 0.0040528784 -0.36787444 0.75180113 -0.9875896 0.55197257 -0.340562 -0.44031376 0.5972268 -0.5660935 0.15031278 1.5659428 0.58087313 0.1555241 -0.40571705 0.44867894 -0.98561585 0.28025112 -1.2092654 -0.39755225 -0.9062944 0.59582365 -0.16051604 -0.8933697 0.27808636 -1.2162142 -0.10902529 -0.046219926
312016 0.8635353 0.21020983 -0.014795592 -0.21351902 -1.8094819 0.38953796 0.025323512 0.33503196 -1.3573478 -0.18498243 0.88194853 0.8932733 0.6228039 -0.19517481 0.09630904 0.9140315 0.52974916 -0.71966565 0.15383668 -0.713961 0.50334316 -1.209563 -0.35908288 0.8989447 0.77956176 -0.2873079 -0.23768778 0.33270314 0.12338922 -0.5365758 -0.5911446 -2.0858626 -0.049466066 0.31166077 0.31871152 -0.83749366 -0.47677332 0.006811154 -0.37595475 0.83337545 -0.9909283 0.46018437 -0.3751643 -0.48226947 0.6281465 -0.5659283 0.17721435 1.6244164 0.5224567 0.22053482 -0.45047906 0.42768192 -0.95854956 0.27400124 -1.1813424 -0.35778406 -0.9260851 0.5985269 -0.19855016 -0.8523786 0.27369496 -1.199782 -0.15437421 -0.04281024
1114230 -0.23990707 -0.9492329 0.89973253 -0.020939345 -0.49020237 0.72878355 -1.3375726 0.44570535 -0.48394096 -0.7718365 0.6838945 -0.19083698 -0.08467706 1.225813 -0.7789008 0.124272294 0.31163052 0.5805591 -1.1379175 0.20842774 0.083696 -0.67035884 -0.1688129 0.23325674 -0.4545469 -0.43437955 0.16684708 0.074418075 0.74983865 0.45958066 -0.93994945 -0.68114793 -0.45058703 -0.82803124 -1.2873145 -0.24841933 -0.20015757 1.5320561 -0.0150767155 0.99491984 -1.2718705 -0.33443397 -0.3582426 0.25611034 -0.33773214 -0.6908355 -0.49424374 1.033771 -0.27806476 -0.43640357 -0.13171451 0.9256234 0.09243443 -0.29732543 0.14926042 1.1258888 0.5470766 -0.3163164 0.8602888 0.10685454 1.0222145 0.38383198 0.4875062 -1.2626824
994729 -0.1625268 -0.9339414 0.8298418 -0.037032615 -0.5110294 0.6506265 -1.3724983 0.45414206 -0.41294423 -0.76243407 0.60988027 -0.16686828 -0.06882829 1.1499645 -0.7256899 0.071931675 0.270261 0.55733347 -1.1395822 0.18255772 0.13568807 -0.6714595 -0.24565533 0.216803 -0.3764956 -0.5869289 0.16160637 0.08355089 0.73274034 0.5643099 -1.0099249 -0.6995834 -0.47445416 -0.8501171 -1.2150843 -0.20966035 -0.12186043 1.5547209 -0.048324905 1.0525137 -1.2898571 -0.4519731 -0.32627422 0.23444259 -0.2598052 -0.69702464 -0.5806721 1.0556675 -0.36901087 -0.41039383 -0.17689697 0.8733916 0.10580886 -0.29158887 -0.023357032 1.0598547 0.48847538 -0.29242435 0.8676348 0.19315654 1.020727 0.36371824 0.43511084 -1.1805975
1274443 0.3592603 -1.127296 0.530899 -0.10545106 -0.19650565 0.11583642 -0.42366475 -0.088693134 0.025941242 -0.6437749 -0.18423821 0.43271628 0.55980045 0.5777976 -0.49125355 -0.15333074 0.8438465 -0.18725957 -0.74939567 0.06912084 0.4539915 -0.9793916 0.05323324 -0.29215658 -0.19138978 0.48916832 -0.780543 0.46644285 0.1613707 0.3654136 -1.303811 -0.3721747 -1.1379317 -0.22350623 -0.58930326 -0.18001497 -0.2628259 0.7824366 -0.2933462 0.5677411 0.15059406 -0.058836784 -1.242027 0.045251492 0.47573993 -0.32487512 0.05455655 0.90722144 -0.42227516 0.44693902 0.17823938 -0.13737431 0.3906435 -0.3521345 0.6162363 0.6041092 0.72380805 0.0056433263 0.066865034 -0.23825228 -0.08616652 -0.63059705 0.15830277 -1.04743
210232 -0.31244156 -0.2574457 0.5578044 0.47947755 0.0034382918 1.2065772 -0.10362251 0.59489346 0.02554311 -0.24061263 0.6484423 -0.26887947 -0.2464199 -0.03536329 -0.1562739 0.051419314 -0.3210238 -0.09314365 -0.00012010976 0.105872914 -0.7533237 -0.78698826 0.10973654 -0.431342 0.28836685 -0.07400528 0.4413878 0.3825004 1.1408638 -0.025458748 -0.14885694 -0.33639264 -0.3009406 0.34872916 -0.114169925 -0.3233794 -0.05546892 0.4068569 0.06614684 0.29699975 -0.121899836 0.81208223 -0.18202026 -0.023509022 -0.7328023 0.37888175 0.14012405 0.55991524 0.07489677 -0.46413937 0.12372639 0.5490925 0.15069999 -0.09033397 -0.1282028 0.85390204 0.06637594 0.26088318 0.8420426 -0.24580318 0.42599404 -0.16321938 0.18558377 0.18137366
975717 -0.20849778 -0.4304898 0.5222542 0.6092954 0.036305144 1.1675531 -0.15872227 0.3395263 -0.072062336 -0.30510744 0.56991684 -0.1366907 -0.22474696 -0.014685935 -0.24784225 0.06994626 -0.19466533 0.10541131 -0.165544 0.18587123 -0.7851181 -0.8682199 -0.013647281 -0.3827305 0.07446744 -0.052953426 0.40249747 0.4670297 1.1278929 -0.18060577 -0.2771294 -0.45857495 -0.21031831 0.5262517 -0.24143381 -0.29680368 0.010805974 0.47954366 -0.18282276 0.3058571 -0.015348594 0.64734554 -0.3478992 -0.038138736 -0.84071714 0.34456697 0.1090978 0.38401508 0.22322118 -0.40675396 0.28383917 0.5960577 0.07484869 -0.20978153 -0.16498314 0.702768 -0.04272973 0.14887063 0.7074581 -0.23939854 0.19500834 -0.2646157 0.13608602 0.17357045
1629538 0.12043725 -0.24083716 0.49400088 0.4947149 -0.13415305 1.0340543 -0.18715784 0.24611367 -0.2977603 -0.25941226 0.15463924 0.23475286 -0.20796439 -0.23369776 -0.3400369 -0.45976806 0.18121243 -0.70227593 -0.404466 -0.034267507 -0.57495105 -0.73173034 -0.06474905 -0.26483423 -0.17692037 -0.23503505 0.48286813 0.21883853 0.6767581 0.11613584 -0.24071157 -0.5228831 -0.44448665 0.0895517 -0.025710886 0.09224087 -0.0032309238 0.6027627 -0.083276086 0.5434006 -0.4305858 0.26682058 -0.42926875 -0.07860344 -0.735403 0.37830153 0.20843859 0.31019762 0.003652395 -0.29441786 -0.12217849 0.044342972 0.15735252 -0.049668387 0.056244735 0.40336195 0.018443538 0.33949658 0.6957162 0.19004233 0.09502886 0.059727293 -0.4768036 0.004000241
1567735 -0.5566842 -0.80202377 -0.52697104 0.51095074 -0.49691427 1.4646277 -0.060653023 0.6965252 -0.9184217 -0.43094212 0.11462309 0.058568925 0.19899724 0.3860402 0.78458035 -0.03524585 -0.72976196 -0.38271105 0.48758572 0.055419214 -0.85719484 -1.5718722 0.4609 0.13686232 0.5903916 -0.87171185 0.56257856 -0.2012221 1.8357608 0.22658046 -0.7772447 0.07298288 0.13547955 0.30048686 -0.09960597 -0.59925866 0.57173187 0.3662069 1.386516 0.40141183 0.47331074 1.336381 0.523959 0.2445941 0.23511437 0.39678374 0.430417 0.0636081 0.84083605 -0.4021649 -0.17812508 0.07134945 -0.10544205 0.6957662 0.08948406 -0.90524274 -1.2081066 0.43794712 0.905386 -0.58713776 0.98705405 -0.1196748 -0.08577644 0.49048957
1202596 -0.56960297 -0.78667814 -0.5121548 0.4714445 -0.49311316 1.419517 -0.059834518 0.7508791 -0.9471376 -0.3959449 0.085663974 -0.0021085762 0.24021268 0.40694445 0.7506165 -0.050743833 -0.82128537 -0.38358322 0.39172402 0.0056594852 -0.89444554 -1.5415293 0.47573408 0.11615194 0.5709673 -1.0061731 0.4871343 -0.2736117 1.864452 0.2664801 -0.8794914 0.09588757 0.120260835 0.28759003 -0.099236056 -0.691141 0.5986093 0.3260114 1.4380122 0.41463825 0.45035976 1.2698652 0.5517033 0.22669554 0.25375214 0.36308458 0.28629375 0.03154964 0.7566612 -0.41769272 -0.22095223 0.08545795 -0.10451695 0.66631013 0.022813933 -0.951543 -1.1731485 0.4237429 0.90090746 -0.61968887 0.90804803 -0.08349326 -0.08258874 0.47801888
289351 -0.9341011 -1.8121367 -0.29704627 0.8884207 0.24453746 0.4755906 -0.5099869 -0.054110773 -0.56731015 -1.2468309 -0.44640929 0.701314 0.8895926 0.4884523 0.41000026 -0.8704308 0.21360321 -0.7201604 -0.5552311 -0.15780012 -0.4578032 -1.5084782 0.29968446 -0.46555516 -0.2890159 0.18393819 0.10571517 -0.14251779 -0.17702179 -0.15817662 -0.52875286 0.4018887 -1.3308289 -0.03622094 0.3700755 -0.36998406 0.4066739 1.1229728 -0.5017991 1.5272006 0.16704544 1.3785917 -0.468814 0.56539375 0.6853781 0.91075337 0.6425827 -0.30589512 -0.56833994 0.46481523 -0.39297205 -0.71736103 -0.42243367 -0.13579778 0.59749186 -0.33444133 -0.18217239 0.13120086 0.93485343 -0.11810407 0.4241587 -0.6249618 -0.18528824 0.63629186
1187762 -0.5995948 -0.68051314 0.030482838 0.18345177 -0.86704487 0.693952 -0.7294315 0.5572477 -0.34540215 -0.24349363 -0.4632278 0.116682194 0.25529557 1.4353982 -0.939467 -1.3961188 0.5433628 -0.4777278 -1.397898 0.19160876 -0.76635283 -0.7536253 -0.34099028 -0.3561993 -0.36865386 -0.29677284 -0.5777889 -0.028372934 -0.082462505 0.111582294 -1.5823176 0.2634993 -1.5100806 -0.24450965 -0.0015129965 -0.464979 0.008153468 0.93646365 -0.19929664 0.9801794 -0.32631242 0.9734075 -0.6495704 -0.15836932 0.20858133 1.2290434 -0.41273457 0.25245965 -1.0952075 1.0362446 -0.3981243 0.11281392 -0.8711296 -0.86473805 0.4212801 0.64404136 0.88406014 -0.4444156 0.2305372 0.09866375 -0.52516097 0.18596353 0.08215002 0.51842815
848589 -1.4994307 -0.27062654 -0.20413491 -0.30096996 0.01724697 0.59661 0.19929922 0.2192557 -1.3427848 -1.2180665 0.35208 0.039959095 0.51135856 0.86619425 0.35138375 -0.8721565 -0.18586977 -0.32921806 0.021807352 0.34058982 -0.5878767 -2.1449137 0.2729451 -0.38887727 0.44649428 0.14502406 0.03999602 -0.029962623 0.5422709 -1.2661151 -0.9225434 0.119938135 -0.52715576 0.5951986 -0.3351659 -0.97734594 0.65772456 -0.3390418 0.6140668 1.0873313 0.34569606 0.86584103 -1.3093307 0.23828529 0.71097267 0.8036138 0.26382634 0.436284 -1.1286718 0.73800826 -0.38418648 -0.30257678 -0.48489827 -0.3816799 0.88972646 0.4532534 -0.4635467 0.437672 0.37954414 -0.63395476 0.31384197 0.42523527 1.046254 0.41781887
729263 -1.2015355 -0.43194368 0.0047369758 -0.3333344 -0.9050213 0.08832914 -0.27444 0.4616206 -1.3821753 -0.6101762 -0.10274337 0.6287335 1.3074077 1.4115528 0.020135572 -0.3219177 1.1510972 -0.3014137 -0.301449 0.16332106 -0.16206685 -1.1154443 0.13285358 0.6558256 -0.07913668 0.57576936 -0.765493 -0.47564343 -0.7360625 -0.37548468 -1.6317638 0.5877606 -0.9983228 0.08306511 0.28575072 -0.9468432 0.13059156 -0.049630616 0.30350536 0.61518294 0.030612037 1.3154037 -0.54713804 -0.19304448 1.0716953 0.80943274 0.23193327 0.59742326 -0.5688645 1.510608 -0.55616814 -0.22951452 -1.0646145 -0.076963596 0.42791808 0.10276519 -0.063340634 -0.016587982 0.17119932 -0.5945221 -0.39448768 -0.27372742 0.6565248 0.8235812
217328 -0.68403333 -1.4866139 0.1883085 0.52875644 0.6267088 0.68342173 -0.265494 0.5239704 0.47714725 -1.095014 0.11884486 -0.32784456 0.5157538 0.5652938 -0.2720416 -0.71009684 -0.30771476 -0.23438166 -1.0979682 -0.5036523 -0.3267616 -1.6613362 -0.15417044 -1.6912323 -0.41560924 -0.23256764 -0.5019322 0.24654503 0.61411446 -0.38346413 -1.5245858 0.24357225 -1.5934234 0.44752324 -0.6634281 -0.87550205 0.19988915 0.03820175 0.30075312 0.7915505 0.87856877 1.2000543 -1.089242 0.3976275 0.8821607 0.5350847 0.51777047 0.32490814 -1.0984586 0.23553362 0.19447765 0.45003656 0.34837684 -0.17656648 -0.3766292 0.5874084 -0.1391061 0.48535046 0.11982299 -0.08800389 -0.022744277 -0.032218356 0.9287999 -0.2699212
726014 -0.32931244 -0.8723777 -0.97195673 0.24914683 -0.8016194 0.6736347 -0.040328793 0.39438084 0.03234883 -0.33250505 -0.49440897 -0.43671125 0.3383816 0.66355133 -0.1229075 -1.3625329 -0.14234222 -0.5033454 -0.43040138 -0.39360765 -1.0728507 -1.1473794 -0.39119834 -0.43992934 -0.0021882434 -0.29483825 -0.37057167 -0.33484817 1.3257363 0.6623979 -0.8645744 0.237509 -1.1284019 -0.40991813 0.0017440906 -0.5754486 0.41125813 0.3284559 0.8376543 0.8147169 0.22206978 1.630719 0.24033256 0.40628213 1.0587752 1.1213473 1.2011902 -0.18962859 0.15151091 0.04237435 -0.16423906 0.4649478 -0.6187639 -0.26072216 -0.31780067 -0.33139816 -0.29845995 -0.15666272 -0.23532648 -0.1830017 0.36523634 -0.15703002 0.26112223 0.10521629
1573489 -0.6612266 -1.4564934 0.18188985 0.54933065 0.6053608 0.6702337 -0.2641016 0.53726786 0.536821 -1.0675383 0.086766094 -0.33551463 0.5169976 0.56354666 -0.29442504 -0.6832218 -0.3288013 -0.22626647 -1.1097525 -0.5274739 -0.30945474 -1.6120096 -0.16843908 -1.7012806 -0.41986844 -0.23038828 -0.50146425 0.26041824 0.6192754 -0.3772911 -1.5265282 0.22834681 -1.6110207 0.43927863 -0.6605733 -0.8589112 0.18345225 0.038047105 0.26043192 0.75684744 0.8707734 1.2075953 -1.0635798 0.37652424 0.8649738 0.52661455 0.5158651 0.30877697 -1.046593 0.23991336 0.17863072 0.4769036 0.34933656 -0.16580217 -0.38899988 0.59621227 -0.13248281 0.46422094 0.11965342 -0.090488486 -0.016658194 -0.0325196 0.91322327 -0.2607146
119087 -0.30757964 -1.6286972 0.18372065 -0.4372447 -0.0052464586 0.48760012 -0.2629679 0.32449874 -1.1598222 -1.0314883 0.8239797 0.4130639 0.5477732 0.5853525 0.6953452 -0.99904823 0.64532214 -0.015271144 0.026518486 0.20745225 -0.6623996 -1.5222368 -0.09939337 0.43064404 0.26531163 -0.20851824 -0.61682945 0.25537097 0.58429885 0.80952364 -0.85758334 0.49840388 -0.3094093 0.21731189 -0.271112 -0.84697425 0.30580476 0.26726836 1.5206193 0.16702199 1.0048125 1.270538 -0.93499756 0.1785447 0.4329937 0.42504022 0.5505287 0.39853072 -0.74251527 -0.33421186 0.56124383 -0.0392421 0.4459644 -0.16981338 -0.094553515 -0.06686077 -0.47230273 0.37271053 0.101402506 -0.50604266 -0.20611198 -0.77592134 0.2011816 -0.28537443
515647 -1.186319 -0.43853194 -0.043395415 -0.34049818 -0.9385589 0.024833836 -0.26518112 0.4755524 -1.3446077 -0.6102485 -0.123643376 0.63755953 1.3293902 1.4283918 0.02863682 -0.3358339 1.1008852 -0.28833976 -0.31620377 0.15238848 -0.13624404 -1.123388 0.12228426 0.6562925 -0.067629725 0.5813196 -0.78120863 -0.49739403 -0.7357261 -0.35948026 -1.614097 0.55274755 -1.0183163 0.048276834 0.2698896 -0.9542199 0.14590538 -0.046742637 0.29210642 0.6319067 0.033016067 1.3156434 -0.5202758 -0.18006915 1.1326152 0.79665154 0.26380712 0.59074575 -0.5218356 1.5120984 -0.5522498 -0.21401046 -1.0754964 -0.055222586 0.40435636 0.08854661 -0.08830259 -0.023638045 0.16038552 -0.61103284 -0.3530725 -0.2781188 0.6470404 0.81303024
1572560 -1.4627316 -0.22335956 -0.23098527 -0.32515877 -0.015541066 0.58019 0.18266642 0.23704736 -1.2897645 -1.1560968 0.30292004 0.0064831222 0.4567943 0.8758287 0.2996134 -0.89729077 -0.24787925 -0.3014601 0.00079613377 0.3398109 -0.57446206 -2.1083379 0.22836901 -0.39157408 0.45143682 0.13220933 0.024571713 -0.02093232 0.5797298 -1.2402718 -0.9310078 0.13285226 -0.5320306 0.5492694 -0.37408373 -0.9605036 0.6381904 -0.30642274 0.60389346 1.0665253 0.28972283 0.83467764 -1.2781843 0.21333872 0.7088103 0.8039713 0.21779828 0.44961777 -1.1467324 0.7552367 -0.36538324 -0.27874357 -0.5033216 -0.40143326 0.89915955 0.49738455 -0.42891148 0.39977843 0.34181842 -0.6127499 0.32076773 0.46571594 1.0351257 0.40483353
1272677 -0.6084335 -0.6975595 0.027204588 0.20601206 -0.82791984 0.7065867 -0.7280453 0.5595163 -0.3291244 -0.2508362 -0.45823768 0.10853537 0.24127498 1.4257466 -0.93922 -1.4113513 0.49934462 -0.46818888 -1.4136014 0.2013524 -0.7647914 -0.78956497 -0.33058184 -0.389951 -0.37928542 -0.30378553 -0.57713675 -0.037203 -0.048728675 0.086747006 -1.557791 0.24747308 -1.5031093 -0.25158933 -0.04257972 -0.47854865 0.012173615 0.9442734 -0.2062992 0.98284084 -0.31457973 0.96687573 -0.6444616 -0.1383784 0.21105194 1.2011409 -0.4105565 0.24224462 -1.0985351 1.0200063 -0.391308 0.12347968 -0.8626098 -0.8538627 0.41986495 0.6594421 0.87740374 -0.43516293 0.22943792 0.09833519 -0.49434388 0.19161852 0.08226503 0.4840422
749203 -0.9317795 -1.7701961 -0.27753866 0.88718593 0.23159307 0.48332533 -0.51261234 -0.022254357 -0.5036706 -1.1800305 -0.4520303 0.64666516 0.86794776 0.49278197 0.366942 -0.81763107 0.18306851 -0.7028352 -0.586042 -0.18072551 -0.44802558 -1.4391981 0.28709742 -0.46866477 -0.3308852 0.14172462 0.10252256 -0.16518652 -0.17997782 -0.14703797 -0.562104 0.39558494 -1.3403068 -0.064071886 0.36920387 -0.3681997 0.37513322 1.102106 -0.5011646 1.4849738 0.13186441 1.3750136 -0.3923163 0.5203324 0.66587317 0.90119094 0.6147061 -0.28826845 -0.52917045 0.4650227 -0.40081462 -0.6758167 -0.4421828 -0.13171805 0.53853804 -0.33620355 -0.17149189 0.12898885 0.9026322 -0.10095786 0.4219428 -0.59356385 -0.14814208 0.6354857
656503 0.278785 -0.5158426 0.5896209 0.6886824 -0.55257475 0.7883427 -0.2611364 0.176931 -0.68629706 -0.500765 0.24132094 0.32514742 -0.21815312 0.4920735 -0.56833434 -0.512461 0.9975005 -0.13106832 -0.19290048 0.5529269 -0.8968908 -0.61862403 -0.11202708 0.24301885 0.29018006 -0.15001775 0.5880482 0.11573798 0.9514133 0.15577699 -0.054959435 -0.64789593 0.0057185735 0.3245481 -0.45363584 0.03502399 0.32437256 0.6406075 -0.3061305 0.66965914 0.036807485 0.11257882 -0.82056975 0.52524316 -1.0263417 0.4143239 0.29009444 0.107894115 0.42503533 0.07279382 0.5749645 0.11514948 -0.35159218 -0.38872185 -0.08031681 0.2770621 0.045668427 -0.32103124 0.19569807 0.23494947 -0.26040584 -0.8334455 -0.82618713 0.050563745
520558 -0.27266616 -1.615781 0.11584307 -0.51771337 -0.10368794 0.5106088 -0.3074414 0.35294902 -1.0678022 -0.98814934 0.77646387 0.2780335 0.51080364 0.6745047 0.56923705 -1.0688875 0.5475847 0.12633549 -0.011985505 0.22021033 -0.7098562 -1.5490003 -0.12980679 0.40798905 0.2758558 -0.29697105 -0.6387459 0.21494287 0.763263 0.92855215 -0.97112584 0.5065803 -0.30047962 0.10998698 -0.41519588 -0.8381742 0.3354348 0.28525186 1.5878217 0.13506469 0.9433579 1.1852018 -0.9040339 0.25873333 0.5535636 0.39887685 0.54831976 0.4042522 -0.6983272 -0.39893126 0.6703733 0.075839885 0.50162715 -0.13316348 -0.124133535 -0.052061267 -0.44328895 0.2939493 0.004176561 -0.5168618 -0.1400438 -0.7230325 0.29396588 -0.48360184
503015 0.39198714 -0.7337202 -0.07795494 -0.01499051 -0.79827696 0.74004084 0.2407474 0.5411797 -0.6726419 -1.0564023 0.02420894 0.5848203 0.6216101 0.5070185 0.6242141 -0.1769328 0.8173513 -1.4632692 -0.21818049 -0.22924313 -0.39461246 -0.44615775 -0.17196001 0.12590994 0.18778294 -0.28777677 -0.32236865 0.13268906 0.5023717 0.7698977 -0.61213773 -0.6482314 -0.46704167 0.6649786 0.39542755 -0.8229971 0.3869615 -0.12715712 0.86018264 0.25497904 0.8489257 1.6293228 0.024103774 -0.23653159 0.22384623 0.6043759 0.8279358 -0.23660177 0.7766567 0.20103484 -0.7793744 -0.12950405 -0.3842652 -0.14708434 0.05416175 -1.0236237 -0.63474274 0.6356748 0.13111147 -0.7170037 -0.4640706 -0.42911345 -0.6462712 0.3578064
1242688 0.71039605 -0.8751355 -0.13608082 0.041123647 -0.728706 0.5727666 0.08351593 0.52651626 -0.51893294 -1.0626721 0.0983628 0.6853567 0.48465127 0.44940257 0.6286511 -0.05632438 0.8246535 -1.3517537 -0.26609737 -0.36576018 -0.19686064 -0.3651299 -0.24986751 0.16593817 0.48787045 -0.27740356 -0.34541202 0.26044354 0.650276 0.7658662 -0.47881967 -0.7578462 -0.40771583 0.81608444 0.4633058 -0.83287656 0.36264652 -0.13916065 0.56636345 0.089357406 1.0339209 1.5197225 -0.14394613 -0.17031117 0.1818454 0.3967389 0.7911402 -0.10116708 0.703738 -0.14478165 -0.64240307 0.041447807 -0.2349089 -0.19360197 -0.100498736 -0.9178715 -0.5333224 0.56049436 0.14083739 -0.7024689 -0.36283055 -0.7913932 -0.6957551 0.22971551
