2042 64
18615 -0.48506412 0.5697089 -0.06297139 1.3382757 0.73545593 -0.043234594 0.45256576 1.2714922 1.1617377 -0.28166553 0.39118773 0.26252237 0.43515134 -0.18911004 -0.029718138 -0.54247826 -0.2527299 -0.9149812 0.4237583 -0.3770662 -0.14241448 1.1123543 -0.36477554 1.1657989 -0.5731557 -0.14428139 -0.44782537 -2.1568468 0.5307409 -0.29382414 -0.47861212 0.6274044 -0.32304436 0.07949598 0.9670666 -0.6119932 0.14460069 -0.64721555 0.08398832 -0.012766313 -0.35385266 0.36300042 -0.25325814 -0.51106703 0.13679597 -1.4102455 -0.07837041 0.6097815 0.09635479 -0.26351234 0.41216484 0.048312873 0.30507335 -0.3671942 0.094354376 -0.230819 -0.048192214 0.44342735 -0.79362464 0.12618926 0.8410493 -0.74182063 -0.2384278 0.5122571
38696 -0.27526847 0.05178717 -0.25736126 0.27320597 -0.45581782 -0.10350727 1.013406 0.25815386 1.2412627 -0.17933603 0.517759 -0.041985862 0.07595134 0.32237005 1.0354038 -0.9757227 0.62731194 -0.4474226 0.45405063 0.4038872 0.28538296 0.5146627 0.16615799 0.3285595 -0.14465697 0.063047834 -0.62491596 -0.056248378 -0.22485179 -0.1942054 -0.6060834 0.10444889 -0.26463008 0.7326951 0.041325815 0.9379992 0.6738619 -0.3591037 -0.40462217 -0.33934328 0.040082783 0.7190289 -0.15047756 -0.5311279 1.0662261 -0.5198457 0.39839315 -0.038876463 -0.56467247 1.0265809 0.17073654 0.87527657 -0.8060499 -0.17766821 -0.06171748 0.013229484 -0.9861672 0.103432015 -1.2382605 0.33952075 0.0144021055 0.17988202 0.19940194 0.41238347
3420 -0.0738454 -0.31960997 0.26693532 1.0409942 0.31807333 -0.44204363 0.6170679 0.6556094 1.7438527 -1.0474977 1.5379851 0.32000992 1.1239481 -0.25456977 0.34281003 -0.23627776 -1.1040283 -0.12628609 -0.6333405 0.5108739 -0.7832528 -0.7353415 0.14950849 0.5042851 -0.83780605 0.36806527 -0.100208305 -0.46426013 0.4704433 -0.21272624 -0.11260083 -0.068922274 -0.34331548 -0.26843837 0.15038739 0.28507918 0.53768414 -0.9537147 -0.3684336 0.043230597 -0.7159113 0.040549606 -0.64820886 -0.3769497 0.23593234 -0.9486963 -0.19643895 -0.5905382 -0.403752 0.45349747 0.44469023 0.7271881 -0.6783983 -0.62624705 -0.7008919 -0.36410677 0.5798801 0.21461622 -0.48688322 1.3547313 -1.3424553 -0.43440634 -0.52689695 -0.31805554
24075 -0.1899904 -0.31589863 0.48914525 1.0028509 0.38381538 -0.3252701 0.5860664 0.9468803 1.7169404 -1.0113704 1.3325306 0.29748243 0.9842061 -0.04538982 0.21172419 -0.2129623 -0.8591903 -0.30650997 -0.5963505 0.4479353 -0.6694329 -0.6737188 0.09892396 0.5249769 -0.76171863 0.23087655 -0.049232025 -0.3918243 0.42578223 -0.12775813 -0.064970106 -0.17147146 -0.46178967 -0.27144352 0.16464889 0.15989856 0.6808179 -1.0416431 -0.44001022 -0.109585635 -0.6979811 0.06717013 -0.5548982 -0.36464128 0.15122743 -0.9994374 -0.17284101 -0.46161574 -0.39278308 0.3909439 0.3912245 0.726406 -0.67357635 -0.6029651 -0.6078355 -0.39514062 0.532833 0.13668795 -0.4811027 1.192809 -1.3189132 -0.6114105 -0.5098961 -0.29666418
6067 0.22805518 -0.9572932 -0.05165455 0.34713602 -0.114645936 0.2671925 -1.1117225 0.3734324 2.0141864 0.2480384 0.559561 -0.12352155 1.1116433 0.4723001 -0.748933 -0.31263366 -1.0282242 0.7291148 0.091709755 -0.8232769 -0.11713196 0.22007045 -1.1094621 0.28938505 -0.6870404 0.23462294 -0.33931527 -0.26420057 1.2023146 -0.4028881 0.54921806 -0.05310844 -0.26864487 0.19925648 -0.7256183 0.9230707 0.43355298 -0.14127682 -0.54986966 -0.09045576 -0.7979197 -0.5606842 0.64130175 -0.6371858 0.22317222 0.16983524 -1.0847766 -0.42771974 -0.59744304 0.26800174 0.892604 -0.55830556 0.61191064 -0.14761159 0.035574764 -0.091703855 -0.80351776 0.8238175 -0.015564723 0.5331687 -0.913837 0.8281904 -0.030876724 -0.33991185
12175 0.09902991 -0.89260125 -0.08300373 0.26912564 -0.057926927 0.35700357 -0.995388 0.3187244 1.9886554 0.2629778 0.45626882 -0.21261154 1.1827756 0.15626363 -0.7216599 -0.27929795 -1.0202818 0.34275597 0.072003886 -1.0536175 0.17146228 0.1788003 -0.7991078 0.26537588 -0.3741098 0.25145468 -0.4740411 -0.41433063 1.1485306 -0.15934125 0.47835362 -0.052303735 -0.2728286 0.08447086 -0.7310369 0.9363717 0.43030375 -0.2340718 -0.7331988 -0.09718219 -0.9858047 -0.41841885 0.8712506 -0.4471988 0.3228849 0.17170736 -1.0014222 -0.47035056 -0.4217922 0.021956565 0.88303137 -0.7236378 0.6341703 -0.30146578 -0.07257726 -0.38749358 -0.7928876 0.65346515 0.13998921 0.49209502 -0.9590453 0.89594513 0.011085501 -0.5440827
19646 -0.29482675 -0.5206047 0.75347155 0.63057905 -0.57002443 -0.4472534 0.29786253 0.21445434 0.92088455 -0.24798883 0.8630241 -1.5054302 -0.32201385 0.35405856 1.5861894 1.3498513 -0.7835561 -1.4933254 -0.20376052 -0.38318285 -1.1039075 -1.5495876 -1.1521125 -0.050201286 -0.06880112 -0.3536227 -0.2997917 -0.5269064 -0.16492172 -0.9063614 0.898784 0.10504997 -0.14649828 0.16033767 0.5030795 -0.032567367 -0.045200244 0.5072219 0.6668881 -1.1794621 0.19251244 0.50570554 -0.6934632 0.185601 -0.7888159 -1.2660451 -0.4616046 -0.12556338 0.6597167 -0.33431748 -0.055000924 -0.17573397 0.93543524 1.6892774 -0.6766117 -0.6858198 -1.0324314 0.44517615 -0.048746396 1.0399144 0.8826312 0.47243878 -0.832294 0.6404806
27238 0.029226739 -0.6552078 0.6019378 0.61109525 -0.27626362 -0.49513152 0.059922405 0.4822871 0.90741724 -0.844925 0.48205447 -1.4907472 -0.44972244 0.14094035 1.8456295 1.0607097 -0.54156727 -1.6512396 -0.46741194 -0.45444152 -1.0684597 -1.5388014 -0.93517524 0.26944333 -0.17136216 -0.31379312 -0.35904557 -0.7235676 -0.0962568 -0.44624972 0.4440475 -0.12824936 -0.047696732 0.16795357 0.08551232 0.003610176 -0.19150892 0.40619192 0.8113476 -1.303974 0.04749964 0.17731784 -0.41367787 0.38861302 -0.74119717 -1.0279273 -0.21330124 -0.049453594 0.46743974 -0.3074055 0.16168515 -0.11493639 0.6217662 1.1819062 -0.5608886 -0.78750175 -1.3577037 0.13441525 0.3747552 1.205414 0.74426687 0.41132215 -0.92174006 0.6842759
32893 -0.89046985 -0.5289542 -0.27745777 0.20698878 -0.1266706 -0.6110859 0.3361827 0.1327585 0.25648564 -0.34507555 0.33597857 -0.6830683 0.32635128 0.16227138 0.45694968 -0.26673636 -0.51040494 -1.0703433 -0.6481094 0.9305452 -0.19840534 0.5220175 0.035692148 0.8272862 -0.5310664 -0.9869513 -0.42716515 -0.8755258 -0.48720324 -0.38560274 -0.29564977 0.2767888 0.051745407 0.94470054 0.34388965 0.4571343 -0.7351405 0.39836574 -0.5912235 0.17336822 -0.343881 0.45399475 0.015452465 -0.32837743 1.1390791 -0.38473868 -0.08395818 -0.5064596 -0.88328624 -0.12618117 0.28268462 -0.2642756 -0.32164043 1.2295215 0.47942233 -0.2382441 -1.1005808 0.38999423 -0.5109495 0.70460236 0.5485709 -1.0448883 0.28102106 0.3788165
27043 0.16310923 0.44739017 -0.6344271 0.77808744 -0.25821 -0.32679304 1.0618706 0.2152251 1.5345328 0.09861494 0.6449524 -0.077164546 -0.49987072 0.18562838 1.089579 -1.0990728 0.75971395 -0.63423747 0.67610997 0.26195654 0.09086263 0.45565766 -0.12601882 0.18420942 -0.17555958 -0.10590918 -0.8154082 -0.057668336 -0.105131686 -0.10831566 -0.69259506 0.3957995 -0.21014579 0.73230565 -0.26823476 0.56183916 1.0032494 -1.0234154 0.19340257 -0.46807453 0.22817242 0.96700853 0.28192052 -0.36061066 1.3941566 -0.68231446 0.3422162 -0.21974748 -0.84886223 0.4621476 0.2831904 0.88676095 -1.0541725 -0.6563428 -0.025694134 0.23990633 -0.8510841 -0.07744112 -1.4322143 0.51592857 0.08946363 0.40774366 -0.008106655 0.35910285
32889 -0.4566443 -0.66970176 -0.32220104 0.46566692 0.31714493 -0.19975051 1.060231 0.40995657 0.9015789 -0.2487048 0.26964724 -0.06121934 0.66523707 0.27500466 0.5564922 -0.4000981 -0.38993016 -0.9488709 -0.3462342 0.6108222 0.63994956 0.7778739 -0.2688163 1.2004322 -0.597343 -0.0021440662 -0.4694577 -0.41429755 -0.34483153 0.032491952 -0.16370352 0.51516724 -0.4288174 0.7201115 0.57757103 1.2586116 -0.4787089 0.9249968 -0.076326676 0.3195675 -0.25124487 0.6400255 -0.2591334 -0.79721767 0.6709518 -0.476687 0.5106669 -0.5687492 -0.97546184 -0.16137801 0.29544345 -0.3057657 -0.6461133 0.44066057 -0.02203593 -0.39463207 -0.8003891 0.14984693 -0.51949215 0.7960121 0.26947197 -0.8660844 0.5886223 0.22308508
20452 0.7879636 0.15839708 0.64179397 -0.24136281 -0.7417005 -0.31997824 -0.42718506 1.0106472 0.8839183 -0.044258848 1.2493861 -1.1236036 0.8015608 -0.28335637 0.019367015 -0.30352432 0.14774969 -0.19939122 0.669911 -0.104825884 -0.7477871 1.4211642 -1.6785357 -0.19344738 -1.1390797 -0.5277757 -0.49457732 -1.332016 -0.40429315 -0.07818327 0.059507888 -0.87436193 -0.56193084 0.55359346 -0.13931996 -0.02182078 0.07040357 1.0912526 -0.27564105 -0.65080804 0.6264711 0.19225717 0.023387525 -0.07019483 0.11416535 -0.46209553 -1.1603813 -0.15580657 -0.4491897 -0.5712873 0.48560053 0.6277616 0.14590627 2.0756407 -0.5255629 0.12112828 0.41116875 0.92290413 0.43885744 0.69476295 -0.7215694 0.4473095 -0.96138895 -0.27821228
20460 0.7628091 0.27104795 0.050812196 0.48077905 -0.9142111 0.641028 -0.252944 0.2683374 0.72384465 -0.38573188 0.7563791 -0.9791972 1.3161258 -0.7579131 -0.41841525 -0.37183616 0.21608841 -0.09865323 0.07247165 -0.4781448 -0.54389524 1.2690667 -1.8797773 -0.008599418 -0.95121115 -0.8221355 -0.64884716 -0.5408521 -0.87132263 -0.57665426 -0.27135733 -0.43328586 -0.58974135 0.41388428 -0.5050726 0.49332 0.16511258 0.7546222 0.21672378 -0.45086485 0.40663442 0.08292706 0.82079685 -0.09413624 0.08689571 0.11549548 -0.6507383 -0.05030728 -1.192049 -1.0203134 0.551161 0.8630095 -0.11555337 1.6799568 0.30312133 0.5271705 0.9113289 0.31517404 0.001820407 1.394598 -0.46680066 -0.039423738 -0.9646513 -0.6957213
46029 -0.88550794 -0.29390237 -0.03365492 0.14609616 -0.13169274 -0.88098824 -0.6434792 -0.16874167 1.2522336 -0.31790724 0.88518 -0.0237291 -0.09748889 0.90633345 0.732485 0.23590273 0.74587727 -1.1014609 -0.40936294 0.40620312 0.8081997 0.047298636 -0.74522185 0.52538645 -0.5708477 0.8041364 0.6947191 -0.21686178 0.67714643 -1.5595717 0.56627727 -0.33182704 0.5275511 -0.36056942 -0.19248031 0.2817329 0.508375 -1.2600578 -0.4056477 -0.47228017 0.43505675 0.37465283 -0.10920308 -0.65564597 1.0384587 -0.22113886 -1.2159146 -0.72601724 0.20338489 -1.6781409 0.74951047 0.52084535 -0.77454215 -1.1085794 1.645826 0.30481622 -0.7257623 1.0502917 -0.7585857 -0.1589628 0.70636255 0.24840732 0.5039606 0.8712678
8961 0.016416097 -0.5653015 0.176718 -0.034850523 0.47326496 -0.44286442 0.18727155 -0.69789124 0.9527194 -0.9253386 0.44156912 -0.8090981 0.0098985 0.41811746 1.1831226 -0.4105696 1.052539 -0.9567617 -0.5073629 0.05529536 -0.82090586 0.2059152 -0.9129152 0.10057086 0.55329543 0.11779774 0.56103283 -0.007570172 0.3601185 0.07982743 -0.9421083 0.19033305 0.04385919 0.45371392 0.18690296 0.1615021 0.15239298 -0.5214781 0.11443221 0.21573193 -1.3846644 0.71181583 1.7888893 -0.802194 0.7200949 -1.017068 -0.28707725 0.04418318 -0.67482156 0.27919635 0.6175105 -0.015787452 -0.1585342 0.25016108 0.36458597 -0.9594326 -1.1976461 -0.83479345 0.3651451 0.5465894 -0.03299408 0.001497333 -0.29783985 1.6139938
27215 -0.9131045 0.5316444 0.02676762 0.56838524 0.9154471 -0.10219049 0.7234452 -0.048828986 0.15545473 -0.74455047 1.022828 -0.8996589 2.0155284 0.58207095 -0.36738136 -0.29284137 -0.276558 -0.16445842 0.08771785 0.07338014 -0.922956 -1.3700494 -0.8311164 0.15526214 -0.43809175 -0.29257926 -0.8893802 -1.3859434 0.8780829 -0.53085834 -1.0272701 0.7843189 0.30148003 0.25243652 -0.00858312 0.3129302 0.41330907 -0.29523897 -0.6292994 -0.6061172 -0.21728684 -0.07105835 0.70065653 -0.6381293 0.113882475 -1.1795161 -0.11121852 0.009103123 0.6851913 -0.660266 -0.33590186 -0.024337644 0.74624354 0.64357215 0.5830424 1.015077 -1.3069266 -0.5644841 -0.6253121 1.1957395 1.3492572 0.1751624 0.85216236 -0.112454735
22950 -0.10085016 0.094596155 -0.23944578 -0.04221422 0.39559957 1.3847474 0.09705083 0.19221802 1.7359948 0.61781675 -0.5666733 -1.0698278 -0.12952112 0.04757309 0.0011577598 -0.019614153 -0.7961264 -0.5131133 1.0193819 -0.3288535 -0.033208407 0.94212216 0.33009037 -0.19073464 0.2791439 1.1142657 -0.1501877 0.11808332 0.37928358 -0.15824752 -1.0600822 1.2579057 -0.10852035 0.05899655 0.53840643 0.28497908 0.5281935 1.1046107 0.08791124 -0.043271985 -1.1483352 0.38547507 0.53248626 -1.3022641 1.5825162 -1.5217589 -0.56173915 0.55058604 -0.98557395 -0.88823587 -0.51661855 0.2981648 -0.46253294 0.36049286 0.32673895 1.767959 -0.2454147 0.62580806 0.8580637 0.92788225 -0.10833832 -0.053894978 0.0788041 0.8791821
32916 -0.46843246 0.33643496 -0.23425466 1.0868635 0.5527967 -0.31342006 0.2599881 1.221715 1.7107191 0.42392814 0.66501164 0.14841673 -0.003618328 -0.23346286 -0.8075737 -1.1358786 -0.6141767 -1.1431335 1.0767492 -0.2519275 -0.19098237 0.79948044 0.0653397 1.1357074 -0.25152 0.32549533 -0.6261274 -1.5364531 0.4360593 0.19222835 -0.37076202 0.93323 0.052076455 0.567982 1.0977681 -0.720128 0.79636586 -0.15804483 0.10630938 0.2243521 -0.3518572 -0.12616268 -0.1453282 -0.100502774 0.27736434 -1.7008263 -0.16168658 0.5015261 -0.09248796 0.15205152 0.55158865 0.8607294 0.14817916 0.2410758 0.9800023 -0.23539409 -0.3564317 0.31900793 -1.323291 0.32168776 1.0491538 -0.05568528 0.1367078 0.17458418
18566 -0.08360607 -0.03071434 -0.47515962 0.7677128 0.14258675 1.6127515 -0.027670886 0.71238494 1.3998501 0.41173837 -0.15838918 -1.2728432 -0.19270535 0.27417544 -0.1564476 0.6922552 -0.6257232 -0.3847919 0.635909 -0.62221366 0.2949407 0.4554468 0.9961558 0.4931017 -0.07224874 1.0412248 -0.2887133 -0.33305568 0.722673 -0.17761226 -0.8231237 1.0884045 0.34486982 -0.6495045 0.36718217 0.93732536 0.75043076 0.97426814 -0.4628982 -0.19615409 -0.65277606 0.015274217 0.25566778 -0.6847487 1.4548345 -1.5364197 -0.55091256 0.6139952 -1.091096 -0.7538224 -0.54098463 0.53370166 0.10380355 0.88766325 0.44373646 1.2545575 -0.32568368 0.3548648 1.1282439 0.749377 0.053603217 0.5978183 0.47083417 -0.35425088
43028 -0.10114334 0.34398305 0.019948125 1.353581 0.31090355 -0.66144305 0.5913447 1.0367343 1.3577601 -0.6380341 0.79045224 0.2932136 0.20827834 0.21652484 0.31223974 -0.7046259 0.2022135 -0.034075957 0.4526618 -0.3855561 -0.15556473 1.2326002 -0.43518385 0.8255488 -0.7927296 -0.53563374 -0.24478592 -1.6303895 0.68316877 -0.17032039 -0.6010502 0.54795444 -0.509555 -0.044000596 0.574613 -1.419871 0.33426395 -0.4573713 -0.18651554 -0.05624513 -0.13499053 0.40215445 -0.37939227 -0.5521954 -0.014029989 -1.1278892 -0.39140862 -0.0095029995 0.6615933 -0.37175068 0.84465414 0.1517624 -0.05435225 -0.78565544 -0.12381059 -0.264225 0.08413369 0.2168106 -0.7762064 0.4227337 0.39038235 -0.16627593 -0.031413775 0.5904934
46028 -0.85921645 -0.539992 0.056359164 0.20743075 -0.057246502 -0.7939487 -0.48112214 -0.089233845 1.1911294 -0.22561637 0.8479245 -0.22289632 0.0041739387 0.7561812 0.7221461 0.3165804 0.87714416 -1.0502249 -0.3186507 0.19035752 0.9040825 -0.019717008 -0.5870269 0.67036587 -0.6917302 0.65317726 0.6841025 -0.2143368 0.52080536 -1.3615111 0.6776035 -0.33107865 0.6233158 -0.3561153 -0.29171178 0.38851234 0.3277467 -1.1611968 -0.26218835 -0.5642157 0.43105134 0.34935462 0.107988305 -0.67356324 1.2781134 0.044839423 -1.0988805 -0.5295845 0.31166056 -1.5747597 0.8026385 0.5539114 -0.67079246 -1.1285462 1.5443355 0.26231423 -0.59911764 0.62397206 -0.5342193 -0.15956949 0.75197357 0.26962823 0.32959843 0.99877954
8960 -0.031038458 -0.508048 0.25755242 0.4725029 1.3241633 -0.3412981 0.20634258 -0.62339675 0.9640845 -0.43740582 0.335697 -0.76874053 0.21841016 0.06447682 1.3396627 -0.24654666 1.5002134 -0.91415954 -0.687952 -0.20725892 -0.45634374 0.7346807 -1.3628446 -0.38901454 0.26381448 -0.32954803 0.69226086 -0.23396863 0.4876721 0.6096805 -0.8620235 0.2726513 0.21198277 -0.003475702 0.4331213 0.011149256 0.2847981 -0.093771994 0.021908194 0.14953247 -1.5562806 0.8514369 1.4287328 -0.8046163 1.0676318 -0.8876142 -0.43619367 0.16142751 -1.2560618 0.1109342 0.022453345 -0.27830952 -0.11802939 -0.078875676 0.22825454 -0.5306952 -1.1171274 -0.4386807 0.04602917 0.79900193 -0.5691571 0.21824083 0.31112343 1.126285
30013 -0.9465166 0.3975396 -0.3577916 0.2332884 0.7766068 -0.23839693 0.61768705 -0.29091716 0.55071723 -1.2555716 0.61306584 -0.7058524 2.0065982 0.6209851 -0.19871266 -0.4264475 -0.34336308 -0.49594513 0.011785381 0.12030301 -0.8899987 -1.6404876 -0.6212517 0.15074378 -0.91771096 -0.2509497 -0.8305823 -1.2999955 0.9389783 -0.4292554 -1.1137514 0.50935996 0.31547832 0.39310867 0.18170123 0.31382036 0.4737952 -0.40007687 -0.77645785 -0.7924541 -0.27084094 -0.16018695 0.48823014 -1.1761321 0.18764524 -1.2795882 -0.1866115 0.12240656 1.0076252 -1.0165126 -0.2526595 -0.10638305 0.69189155 1.2279444 0.54428285 1.014575 -0.8484475 -0.4783305 -0.5225184 1.2187064 1.5245763 0.4481718 0.5689842 -0.120262876
9917 -0.07076458 -0.68147385 0.39250654 -0.28405046 -0.5120357 -0.61597264 -0.7063221 0.39192477 0.9513073 -0.6562754 0.50604 0.22309925 1.3617707 1.2455808 0.40848312 -0.09653032 -0.7604614 -0.95349234 0.15301141 -0.07438008 0.41506824 -0.3640914 0.33536655 -0.2315351 1.0274993 -0.068048686 0.6470571 -0.5372466 0.25274968 0.312868 0.036270734 1.0784737 -1.4678185 1.1076761 0.89851266 0.44408697 -0.55507535 0.13890329 -0.65453094 0.07677435 0.37523335 -0.40619823 -0.26365906 -0.18798687 -0.10831271 -0.6987258 -0.7413838 0.116796926 -0.68337417 -2.0159268 1.0840968 0.946685 -0.25468838 -0.8808948 0.49528193 1.0768722 -1.2901796 -0.0869211 -0.6159391 -0.021546038 0.42609978 -0.6826952 0.03172965 0.49213427
31038 0.09175954 -1.5075173 0.11446014 0.17508757 0.5946346 -0.964747 0.31717092 1.3030995 0.67372096 -0.9592867 0.443239 -0.16289847 0.43511188 0.5233374 0.16107592 -0.3018943 0.42077324 -0.7716626 0.5927219 0.18381199 0.6662151 0.08678668 -0.2444206 -0.16965924 0.14120205 1.163373 0.13517298 -0.7323829 1.0505251 0.41651666 1.364191 0.2539403 -0.582989 0.21137787 -0.08575319 0.23401807 1.9479381 0.4123573 0.13595322 0.25680274 0.62183607 0.29335868 0.2540172 -0.18694833 -0.027058931 -1.6722585 -0.3278192 -0.5087275 -0.059292983 -0.8162077 1.5441602 -0.14788248 -0.3945296 0.6708561 0.6654342 1.0502205 -0.19768278 0.66632974 0.08099297 1.1973246 -0.21258178 0.42953137 0.2363731 0.59723264
11804 -0.3718817 0.39466447 -0.16506329 1.4140391 0.24826948 -0.6991653 0.32370254 1.1600466 1.5911068 -0.40946162 0.79898417 0.29716977 0.027929742 0.26720625 -0.008602161 -1.2142648 -0.076157264 -0.2972909 0.7914866 -0.2616597 -0.21486938 1.2260637 -0.43585986 0.83879465 -0.8243621 -0.2974436 -0.24022347 -1.7066325 1.1933595 -0.4332481 -0.6072945 0.5678228 -0.34546295 0.20262827 0.7314576 -1.1990978 0.4474566 -0.3470891 -0.095092714 0.17481862 -0.17062794 0.047334243 -0.03199973 -0.2371256 -0.3495126 -0.91517866 0.045624826 0.25861067 0.23802945 -0.49229297 0.714472 0.19771083 -0.33249557 -0.56248486 0.34873548 0.20663308 0.013760198 0.2967742 -0.7984825 0.3052628 0.8735496 -0.2447304 0.093607344 0.25428775
13019 -1.112232 0.243393 -0.48521087 1.3073599 0.80852735 -0.42597958 0.33821592 1.509773 0.60289735 -0.2083641 -0.02975872 -0.0591218 0.37343457 -0.05006592 -0.4615825 0.07396674 -0.49727523 -0.6874384 0.038158953 -0.2735336 -0.0022479866 1.2008322 -0.74190706 1.801522 -0.79420215 -0.2084271 -0.2902716 -1.6186525 0.4178493 -0.2284974 -0.5460412 0.84929556 0.064066 0.21164823 0.9226533 -0.22197418 -0.38696614 -0.25536045 0.119527176 -0.05232618 -0.5630589 0.23376003 -0.0033458578 -0.37358573 0.2461161 -0.6433242 0.11620344 0.44165868 0.3434295 -0.58193463 0.9165004 -0.073174216 0.23014309 -0.23458436 0.32774132 -0.46510157 0.06770117 0.44585478 -0.76718587 0.41028348 0.70832044 -0.45541522 -0.5046395 0.21250044
9908 -0.16594376 -0.33060473 0.10998382 -0.25672898 -0.3692297 -0.5209508 -0.48088056 0.47281253 0.7618638 -0.37924156 0.6096959 0.4408279 1.3422447 1.4489383 0.6278699 -0.11993435 -0.5625918 -0.9165972 0.31815058 0.07639291 0.117267355 -0.018642602 0.2558517 0.0364716 0.8925311 -0.22559756 0.6247865 -0.4833601 0.24240446 0.3321883 0.23315543 1.2105907 -1.3870566 0.9208768 0.8881338 0.36749905 -0.48970297 0.32864797 -0.7018765 0.06709243 0.27162486 -0.69054747 -0.34079248 0.06545633 -0.3479596 -0.81661636 -1.005416 -0.15817823 -0.7838749 -1.7193943 1.0674177 0.91083664 0.11818679 -0.8652141 0.39435852 1.0702181 -1.6650169 0.311602 -0.4507889 -0.02981392 0.43511072 -0.5250351 0.095306985 0.36700338
35782 -0.77286714 -0.9188436 -0.4295009 1.8571721 -0.85046387 -0.0874488 -0.7450117 -0.010873133 0.95149505 -0.049375433 1.5732582 0.25725254 1.5155472 0.76988345 0.38504034 0.6123597 -0.10963478 -0.8100193 0.41454837 -0.2995479 -0.5558574 0.3203237 -0.02152953 -0.080679014 -1.1463915 0.6562471 -0.0839076 0.7288018 -0.23737507 0.4875103 -0.17998849 -0.15423252 -0.4341259 -0.22344543 0.52096677 -0.19894844 -0.06777004 0.09798862 0.9539638 -0.088684164 0.34305674 -0.68869275 -0.27644098 -1.1635292 -0.6702942 0.5272679 0.56949025 0.5873363 -0.64183897 -0.72097033 1.5151602 1.1404822 0.4437663 0.65864474 -0.50593674 0.030816272 -1.5878725 0.28435668 -0.18544684 0.07270815 -0.6165936 0.6277648 -1.3516893 1.5334582
32115 0.7723754 -0.17745072 0.7694483 -0.15867631 0.67434335 -0.20103493 0.34674793 -0.037791494 1.0360717 -0.2537753 0.9321312 0.1953567 -0.1696222 0.31971452 1.4115541 1.1754051 -0.89586926 -2.3195586 -0.2078275 -0.5102606 -1.0488116 0.025720732 -0.32026896 -0.59488964 0.35137546 0.12216819 1.1226996 0.44136754 -0.6253213 0.4692577 0.9545684 0.08897446 -1.0454395 0.8179082 -0.5543847 0.74413294 0.9095243 -0.08692357 0.3390114 -0.49609017 -0.3952191 -0.5277646 -0.48324743 -0.41844547 0.71610934 -0.013799338 0.66907954 -0.31923106 -0.032294728 -1.3478571 -0.2803881 0.2173929 -0.05180718 -0.5151483 -0.2607217 -0.7933152 -0.22666815 0.10485254 -0.07553128 1.828815 -1.4166523 0.34444723 -0.009664344 -0.5534585
38228 0.75544834 -0.2659338 0.8515152 -0.15510008 0.7388247 -0.1132376 0.3650843 -0.13367386 1.0588728 -0.20729658 0.8562366 0.12722288 -0.118193805 0.34485057 1.2902251 1.2126677 -0.87593704 -2.354908 -0.30895925 -0.50515944 -0.9632948 0.12069142 -0.34936592 -0.59865505 0.37045017 0.1441934 1.0171964 0.44196004 -0.6354565 0.44979134 0.9187492 0.042011417 -1.0919135 0.9012863 -0.4964762 0.788633 1.0389999 -0.0005414055 0.3720455 -0.42199135 -0.26246905 -0.42220774 -0.5751196 -0.31046566 0.71837264 0.027389644 0.68743914 -0.3861557 -0.021003697 -1.4124414 -0.1669867 0.21584696 -0.09508027 -0.5546427 -0.3284467 -0.80526346 -0.23408478 0.08790454 -0.07665877 1.7797474 -1.3978118 0.39115724 0.0573104 -0.54838896
38691 -0.09778057 -0.14379364 -0.29909107 0.7846191 0.06042695 -0.15828432 1.1950167 0.47428572 1.039922 -0.09566286 0.52180034 -0.10548389 0.04079581 -0.042168997 0.29742727 -0.135574 0.01718554 -0.5455689 0.12005799 0.34082797 0.2562406 0.48660848 -0.37321433 1.1790696 0.19330023 -0.4466028 -0.30291933 -0.22079849 -0.28811562 0.26608583 -0.44603238 0.09954681 -0.024956347 0.8940843 -0.32255134 0.03300692 0.05068884 0.47859052 -0.35170573 -0.09088614 -0.05164031 0.3209689 -0.6229303 -0.54651314 -0.07670051 -0.24914002 0.51911604 -0.22317404 0.015847033 0.7563364 -0.0779998 0.04178066 -0.31907347 0.6899396 0.31568417 -0.05424008 -0.81432515 -0.3469318 -0.39804953 0.9913786 0.2623634 0.0699155 0.15488237 0.14107774
35783 -0.95928067 -0.59146 -0.4136832 1.781617 -1.0840688 0.1591418 -0.6113098 -0.15220974 0.95160484 0.10654578 1.2347136 -0.029640345 1.2067736 0.91198885 0.7434758 0.64195913 -0.15651655 -1.0901188 -0.01634849 -0.13672869 -0.003921018 0.34367123 -0.27198935 -0.2910477 -0.9023797 1.0742047 0.07422879 0.56473136 -0.5139059 0.42931414 -0.1224347 -0.048125587 -0.30223027 -0.2664467 0.16722639 0.12242429 0.33999383 -0.31487456 0.9415856 -0.25078171 0.3118919 -0.85171384 -0.28462246 -1.3491751 -0.5768983 0.3054182 0.77580285 0.3087034 -0.93831736 -0.45764598 1.0129993 0.987106 0.68384343 0.620329 -0.4702113 -0.081003934 -1.4652673 0.0789498 -0.7759123 0.07180709 -0.98555124 0.8628153 -1.0616571 1.5898507
12267 -0.9727368 -0.40953928 0.6279065 -0.178288 -0.123632856 0.25461042 1.2769438 -1.9938664 0.08621215 -0.22898719 1.0543814 0.6375584 -0.16248041 1.1060694 0.7258645 0.95484906 -0.00087535835 1.2112594 -1.0156134 -0.8777571 -0.68448097 -0.34736776 -0.25996694 0.86070704 0.26776963 0.4329496 0.08358339 -0.20672818 -0.07268926 -1.1193848 0.30662 -0.31347522 -0.5621214 0.90072364 -1.4589673 0.73662126 0.7922689 -0.4664865 0.7721501 0.07804285 -0.91199523 -0.40307173 -0.5969674 -1.0411918 0.048295658 -0.9961005 -1.376059 -0.32168287 -1.3904004 -1.520534 0.46729052 0.055582758 -1.3124115 0.44040313 -0.2429767 0.97474635 -1.3020641 -0.52150977 -1.374418 1.4457467 -0.13252227 -0.57057035 -0.42685276 -0.8924282
12166 -0.0965671 -0.24430704 -0.24573326 -0.3668853 0.2371809 0.012499335 0.08564508 0.12974896 2.0157664 0.7157563 1.1435196 -0.669969 0.6079297 0.65560746 -0.1819533 -0.34774444 0.45014268 -0.099267565 0.010091383 -0.40556914 -0.27293426 0.43893355 0.4027786 1.4479795 -1.1681607 1.1884485 -0.14694619 -0.65199584 0.7497318 -0.2007233 0.43959793 0.29315302 0.6946675 -0.23544772 -0.7600543 1.250401 0.41773066 -0.5001487 0.5816716 -0.699232 -0.6953587 -0.28464544 0.18415868 -0.14947732 -0.9760649 0.7860888 -1.6744407 -0.39848736 -2.1065156 0.642462 -0.1567979 -0.8662529 0.37808082 -0.5739698 0.71385705 0.23952019 -0.67445076 0.7043059 0.2472289 1.1628656 -0.85918015 1.0887448 0.31758025 -0.1179231
4849 -0.9145268 -0.2718331 0.14016794 -0.20414567 -0.18432082 -0.122571915 0.9887464 -1.6575836 -0.23493832 0.18008757 1.1760907 0.535305 -0.24054107 1.3510804 0.9393519 0.7857542 0.28238708 0.82423574 -1.0115285 -0.83397067 -0.9797288 -0.21640804 0.072322614 1.0340631 0.27407745 0.45360944 0.31146577 -0.6999707 0.12200048 -0.70775867 0.78854525 -0.5193659 -1.1059165 0.6160241 -2.0213916 0.8074826 0.22739778 -0.110770084 0.7336258 -0.08944328 -0.9698297 0.15858933 -0.1831131 -0.8027414 -0.121161215 -0.81492317 -1.2242129 -0.42163107 -2.0573165 -0.8624829 0.26965785 0.14876308 -1.2767375 0.20184824 -0.36369133 1.0457333 -0.80808324 -0.25710973 -0.66652185 1.4339118 -0.05904949 0.29432556 -0.5939878 -0.7743604
4683 -0.21981643 -0.47649983 0.32893357 0.5410981 0.52836746 -0.6164547 0.3932368 1.5584583 1.1708792 -0.29282916 1.0611442 0.07637134 0.33362588 0.2048241 -0.50028396 -0.15543681 0.13473125 -0.27887458 -0.0050322246 0.5954532 0.63587487 -0.02905344 0.6881751 -0.13712157 -1.1492248 0.12503 -0.023235086 -1.6747515 -0.9204645 0.56903285 0.21620905 0.7771115 -0.74310684 -0.021254815 1.0235155 0.280373 -0.42879507 0.5095838 1.0535935 -0.17391187 -0.07395983 0.539799 0.3182478 0.015914718 -0.6973521 0.35118443 -0.38103598 -0.22995862 -0.8671338 -1.0209799 -0.13622065 -0.16849892 -1.0587938 -0.7191792 0.5327971 -0.23085067 -0.47379562 0.40481007 -0.8683891 1.0719849 0.76573217 0.47414237 0.3426713 0.06555495
12167 -0.039248943 -0.5986636 0.064058356 0.13811648 0.45717895 0.4765508 0.5844791 0.3790196 1.6794156 0.29797968 1.5807855 -0.68294066 -0.0935638 0.5991537 -0.19000868 -0.24383122 0.79742163 0.104211465 0.11213148 -0.57098347 -0.061983265 0.3451407 0.1438117 1.7813187 -0.72717994 0.94633466 0.0010624554 -0.5513139 0.3055171 -1.0817224 0.013459035 0.24445714 0.8727631 -0.02280694 -0.5803453 1.2834905 0.8476584 -0.47791356 1.1942221 -0.9559969 -0.7303661 -0.0047311243 0.08227327 0.514818 -1.258784 0.6479604 -1.6454157 0.17732142 -1.5054268 0.096378125 0.25067753 -0.75874186 0.40988895 -0.36995846 0.5885235 -0.071376875 -0.4101915 0.9373802 0.07286301 1.2116017 -1.2508266 0.9779894 0.2894654 0.34549123
1017 0.56155753 -0.27802628 1.0873593 -0.49606338 -0.7821824 0.09626721 0.8667614 -0.09007664 0.17011176 0.124248736 0.6946039 -0.4506749 0.934943 1.6999489 0.5014448 1.1180379 0.23092459 -0.63421935 1.2209492 1.4928677 0.56869185 -0.04689362 0.12493771 0.7803981 -0.83940804 -0.69807374 0.6155735 -0.6131813 0.12685867 0.120337516 -0.22532862 1.1251887 -0.6131042 0.51909745 -0.28401038 0.27911684 -1.0502293 0.5321758 -0.056429435 -1.791204 -1.0735891 0.9524255 -0.7070208 0.54303193 0.7962806 -0.39886934 0.39007804 -0.6671724 -0.96348816 -1.0955222 0.47851646 0.64529496 -0.70117223 0.5508587 -0.41839096 0.6110344 -1.131645 -0.13498914 -0.7743134 1.6740148 -0.114592835 -0.21735083 -1.2790481 -1.0526519
3083 0.37547025 -0.4464388 0.23562555 -0.55697155 -0.8835107 -0.28993088 -0.1532207 0.56697977 0.9809097 0.29275483 0.89731556 -1.0549636 0.20090601 0.35430887 -0.024148706 -0.5265882 -0.22409251 -0.7858355 0.13719118 -0.002293686 -0.9549397 -0.25514826 -0.29138234 -0.13620448 -0.059372637 0.69094706 0.61318195 -0.40994778 -0.044991422 0.23880033 -0.31827527 0.29740518 -0.3955789 -0.031121872 0.018052233 0.20861612 -0.39642078 -0.33779156 0.2344275 -0.17440899 -0.31721267 0.4758007 0.18918023 0.13321468 0.36636838 0.2432914 -0.16423064 -0.099533305 0.35153934 -0.6765124 0.7171998 -0.17680235 0.679889 0.9618485 0.73960745 -0.100343265 0.098189846 0.31029946 -0.11303273 0.28043157 0.13535088 0.11568991 0.19486725 0.3774431
3200 -0.77761585 -0.58415025 0.73086715 -0.20491718 0.2555957 -0.4462675 0.080814414 1.7561007 1.2750121 -0.25708592 1.7141411 0.26665896 -0.100945756 -0.14939821 -0.1337036 -0.5452603 -0.5847929 -0.0847111 -0.21842867 0.460712 0.25387013 -0.42585188 0.7363875 0.37358943 -1.3917935 0.05023832 -0.20625532 -1.6897839 -0.42365888 0.320817 0.22938614 0.91508955 -0.6498414 0.25209013 1.0227286 -0.21672043 -0.2568267 0.374458 0.6751915 0.065786935 0.63199484 0.46356556 0.3186081 0.24392405 -0.76865745 0.16206451 -0.39143446 -0.29163226 -0.847168 -0.7301679 0.21578938 -0.026487976 -1.1832258 -0.2586779 0.6612663 0.24284133 -0.53582966 0.34703577 -0.8548729 1.1286016 -0.08265746 0.29604226 0.2548207 0.16129589
31037 0.27535293 -1.713429 0.18176056 0.3041046 0.4412198 -0.7172276 0.46764138 1.2156944 0.81602544 -1.0883671 0.43349123 -0.011433833 0.33073848 0.77316934 -0.14000481 -0.35480532 0.2356587 -0.72241867 0.3330663 -0.060797546 0.6649934 0.03068586 -0.2448684 -0.17439143 0.3960935 1.1813436 0.0076851887 -0.7699107 1.1382443 0.7222428 1.1139001 0.07631164 -0.62830323 -0.15591238 -0.03386383 0.19877043 2.2382765 0.4660377 0.14121862 0.19407356 0.4506524 -0.09838964 0.27690628 0.052167155 0.14144859 -1.3814764 -0.38901177 -0.41004428 -0.21754645 -0.67570305 1.3672147 0.0351631 -0.21773665 0.82987404 0.7543937 1.202877 -0.05510595 0.67575544 -0.11592821 1.1937929 -0.19003133 0.487599 0.16043773 0.2304632
1016 0.6645464 -0.31412402 1.029097 -0.40286788 -0.685134 0.23099914 0.8660408 -0.11978237 0.12126501 0.10212776 0.7392539 -0.45976827 0.88381636 1.7149369 0.6235744 1.1709094 0.19629191 -0.52400124 1.1099765 1.4945151 0.42150247 -0.23234004 0.18435007 0.8855748 -0.83844715 -0.7524104 0.55879647 -0.6262731 0.101353765 0.20050074 -0.39442322 1.3506839 -0.82198656 0.5124558 -0.29833734 0.39057928 -1.0896951 0.32616803 -0.000770503 -1.82037 -1.0726026 0.908968 -0.73184085 0.5198551 0.60257024 -0.4450907 0.43570703 -0.6492765 -0.8953719 -1.0547017 0.67289704 0.5937783 -0.70109046 0.51903677 -0.5038673 0.65370554 -1.1210105 -0.074104086 -0.79481024 1.6038696 -0.15877315 -0.17973481 -1.2923679 -0.99970484
22953 0.39003128 -0.505202 -0.0010041643 -0.23006545 -0.268986 0.48885393 0.2830723 0.55365825 0.7842942 0.17105341 0.566394 -2.0957081 -0.077926144 0.08648326 0.13953672 0.12043442 0.22143036 -0.5684732 0.6446646 -0.056651484 -0.30552348 0.6483332 0.34535193 -0.102884196 -0.9279642 0.019981276 -0.27636948 -0.30625337 0.07242565 0.18464743 -1.2125608 0.04205099 -0.23395194 0.08784197 0.26178375 -0.1546659 0.61633694 0.8501297 -0.58980745 0.34441337 -0.8287211 -0.16894355 1.4766077 -0.03566923 0.6042666 -0.5012926 -0.3306156 0.32865492 -0.3931009 -0.5937576 -0.280318 -0.097171314 -0.2272909 0.03098807 -0.2537614 0.26215425 -0.7518442 0.29784244 0.9614175 0.008171761 0.29348004 -0.5168546 -0.22083533 0.59331787
3553 -0.18267007 -0.543375 1.0943139 -0.21361168 -0.7652935 -0.61136824 -0.0071871895 -0.26365122 1.1649444 -0.34467292 0.33939257 -0.79367363 0.002801657 0.5001233 0.07529856 0.12872793 0.22360758 -0.26020458 -0.6538417 0.26461828 -1.1501393 0.12500128 -0.009226086 0.63525057 -0.101804525 -0.16928878 -0.14973055 -0.39976394 -0.13052468 0.17746444 -0.9253001 0.36514705 0.18376422 0.42537802 -0.30125898 0.33655122 -0.5997051 -0.12755373 0.31457007 -0.29313603 -0.15249063 1.0113512 0.16275635 0.11207033 0.09738148 -0.5127406 -0.69430715 0.5802797 -0.03641924 -0.4680469 0.39243737 -0.058401417 0.277756 0.19200177 0.5159862 -0.5920762 0.037983745 -0.16842481 0.18261334 0.7985368 1.0360633 0.057962455 -0.60729885 0.27577743
18612 -0.07428591 -0.3782854 0.40596402 -0.8718636 -0.697967 -0.33701935 0.056571074 0.40352523 0.65711987 -0.05267908 0.60231227 -0.9965201 0.03344855 0.66915417 -0.012666816 -0.680708 -0.14598441 -0.91353303 -0.045707237 -0.23999767 -1.1217369 -0.3501878 -0.21120606 -0.049689267 0.17571735 0.5949071 0.6151136 -0.40941435 -0.15268809 0.31466997 -0.2538362 0.047753137 -0.38494897 -0.13085641 0.0027597025 0.05858046 -0.37901667 -0.23892769 -0.04699565 -0.07655182 -0.36021677 0.43405408 0.18755685 0.045841534 0.19817178 0.24317461 -0.14858724 -0.17870077 0.46988484 -0.53696156 0.65770495 0.01282699 0.5542947 0.9263173 0.5994773 -0.18166609 -0.08132771 0.33072078 0.17793879 0.39143267 -0.043466114 0.3443987 -0.047434095 0.48086283
41665 0.039604418 -0.94876176 -0.6059114 0.25096068 -0.5390868 -0.2962687 -1.157693 0.3087112 1.4945326 1.1361775 0.8231347 -1.0259662 0.58154213 -0.20202143 -0.027968634 0.7476248 0.24340029 -0.3888194 0.5855845 -0.31168145 -0.43304247 0.81111777 0.29939145 0.43332985 -0.85145557 0.19907713 0.056083273 0.089052215 0.08659191 -0.82821393 -0.57653457 0.31342033 -1.0613598 -0.8783885 -0.48547527 0.6177737 0.31646943 1.128452 -1.3507632 -1.6242704 -0.39528528 -0.36678874 1.0718684 -0.20681594 0.12670389 -0.95902956 -0.3335773 0.8344565 -1.0378923 -1.0443566 0.66741353 -0.27625972 0.8865189 0.2918266 0.53836954 1.5265719 -1.054262 1.7158759 -0.035144288 0.7309002 0.16661087 -0.44421175 -0.63719267 0.45208597
2982 0.88506377 -0.6482356 -0.40433705 -1.20059 -0.4090241 -0.15230328 0.35933524 0.3167136 1.293219 0.2527918 -0.3968705 -1.0405427 1.4537662 1.2163936 0.47981557 0.84044194 -0.03582829 -1.3170904 1.1238792 0.06860957 -0.14690603 0.14376952 -0.75913703 0.22352217 -0.44557303 0.5985559 -0.20420149 -0.5833079 -0.532438 -0.33218038 0.33435455 -0.20533495 -0.06142863 -0.32795876 0.4849072 -0.0141876275 -0.52228034 0.40553623 -1.3116597 -0.64681107 -0.3405959 0.31635764 -1.132856 -0.16245212 1.2883241 0.072123535 -1.2688181 -1.079444 0.5805333 -1.0737616 -0.033777487 0.33010176 -1.2674387 -0.57600796 1.2451004 -0.13445146 -0.6947157 0.06011621 -0.42525175 0.61351156 -0.17416932 0.8659007 0.7361441 -0.3901261
2981 0.8985832 -0.60356736 -0.28906646 -1.146559 -0.4915453 -0.18857242 0.38774425 0.28445545 1.335295 0.31189984 -0.37278074 -0.92373323 1.5007713 1.1438954 0.4585283 0.84131 -0.0130489785 -1.2581813 1.1117302 0.075014144 -0.19968694 0.2524022 -0.73010004 0.19311453 -0.44848853 0.6687601 -0.27107656 -0.5739915 -0.6847431 -0.37289268 0.43344322 -0.20872474 -0.030574253 -0.3461006 0.4392537 -0.027648961 -0.57983387 0.39031458 -1.4031352 -0.63884085 -0.41285077 0.27415016 -1.0769367 -0.25517383 1.3339515 0.041652385 -1.2972351 -1.0661827 0.6119576 -0.97735584 -0.05700343 0.26197138 -1.2498499 -0.5822353 1.1748954 -0.13435687 -0.79985887 0.034209132 -0.34749797 0.6062774 -0.11238858 0.8875454 0.6256937 -0.45486555
36309 -0.95038545 -0.75847656 0.7056094 0.44987664 0.00801389 -0.3949375 -0.81904733 1.4552312 1.291528 0.614349 1.7148541 -0.6891545 0.97944725 0.3551584 0.58322227 1.8913933 -0.70989335 0.22643478 0.2520542 0.2241564 -0.046915676 0.26416492 -1.6741775 0.022247365 0.40056613 -0.36138597 -0.612449 0.01876473 -0.30660096 0.7774313 -0.9211817 0.3692652 -1.0399525 0.79364926 -0.08508616 -0.05812679 -0.020082107 0.4660745 -0.42781693 -1.8032845 -1.1062855 -0.60668826 0.95407027 -0.87424177 0.31613722 -1.3056873 0.6596167 0.43278587 -0.22873913 -0.60916066 -0.50350404 0.7341047 0.90330684 -0.7326083 -0.668533 0.5306114 -0.34017587 0.56662476 -0.3923235 -0.34669018 1.3536139 -0.1438084 -0.9587482 1.0686208
48285 -0.8591924 -0.5123119 0.7000027 0.49199635 0.22996739 -0.19751893 -0.457374 1.4497834 1.444132 0.3345802 1.8298275 -1.2223957 0.6384282 0.943522 -0.09593306 1.2543542 -0.6229463 0.23266996 0.07870675 -0.41224638 0.10965123 0.020104192 -0.79064196 -0.16465028 0.36748117 -0.26040897 -0.89742106 -0.08610737 -1.0063787 0.8730078 -0.5513453 0.614634 -1.0987272 0.27842844 -0.00013249283 -0.38223448 -0.13273585 0.5084354 -0.5538122 -1.1997324 -0.7135146 -0.59946287 0.41153744 -0.93801975 0.23380682 -1.3230819 0.14069252 -0.20248094 -0.35084897 -1.0216825 -0.3278626 1.0243864 0.20151153 -0.06704568 -0.28210017 0.23514326 -0.64765936 0.14254443 -0.82051796 -0.44875658 1.419991 -0.08543801 -0.5931188 1.385261
43210 -0.5819054 -0.33008754 -0.15360987 1.1347754 0.0995559 -0.25130802 1.8228277 0.8187323 0.38134962 -0.110023856 -0.15204515 -0.035943087 0.22036919 0.49132463 0.8887188 -0.06445891 -0.44395432 -1.4047921 -0.33352837 0.4293587 0.39462042 0.3359115 -0.35166034 0.9203386 -0.41322997 -0.90044194 -0.06332225 -0.4675851 -0.6308551 0.19344483 -0.18505467 0.5952226 0.17746419 0.17658457 0.2987141 0.47420633 -0.41512665 0.4002144 -0.122005336 0.42034146 -0.6617394 0.40962964 0.19426815 -0.78305817 1.0018536 -0.4503985 0.44827622 -0.18958506 -0.93036914 -0.5181504 -0.29050076 -0.2235303 0.2627131 0.52670527 -0.3832548 -0.15720949 -0.8710104 0.44632134 -0.35300213 0.28807092 0.17489548 -0.69701576 0.32095665 -0.19873367
48281 0.48368058 0.04979937 0.43725508 -0.37044582 0.17984362 0.07529966 0.39956284 -1.3522902 0.29946724 -0.74709076 0.6863012 -0.020346224 0.031345643 1.37407 1.0527667 1.1722273 0.36268646 -1.7034551 0.51409566 -0.36441997 -0.9564028 0.18732494 -2.0058374 -0.0952455 -1.1090219 -0.18093836 -0.15112184 -2.1374395 -0.39975068 -0.27901277 -0.4799428 -0.51366997 -0.5896272 1.1045094 1.3960625 0.033450615 -0.18819979 -1.2927014 0.90132827 0.46016622 -1.358494 -0.3721197 0.8932614 -0.18790638 0.39147928 0.00449154 -1.154731 0.9740469 0.22297382 0.8142583 0.31807512 1.1796659 0.17664465 0.01912727 -1.3993784 0.202375 -1.4630661 -0.7176714 -1.0777867 0.2360565 -0.6005141 0.3891744 0.9652092 -0.040118285
3765 -0.045093365 -0.50354993 0.34880137 -0.31743133 -0.93132746 -0.41451144 0.33339298 0.9108031 0.8544876 0.13383764 0.4296157 -0.9624916 0.09719802 0.52971745 0.29927352 -0.86372685 -0.079187036 -0.8609459 0.24709204 -0.58971274 -1.0372459 -0.07747222 -0.38370118 -0.12583725 -0.044623684 1.0667723 0.5853542 -0.5301535 0.056296907 0.44855517 -0.18746942 0.07329842 -0.27363464 -0.06654436 -0.3154104 -0.069049016 -0.29011968 -0.37152928 -0.08523221 0.012274093 -0.35915917 0.025857732 0.15894918 0.16781692 0.23813716 0.4145038 0.038624413 -0.16470498 0.35391688 -0.47119117 0.31641766 -0.025016837 0.38978744 0.7021397 0.32594815 -0.35024163 -0.10285013 0.050017267 0.31850114 -0.008318958 -0.2308209 0.3355999 -0.036687706 0.031333547
22955 0.036513638 -0.4971718 0.44275555 -0.4144528 -0.76438993 -0.30193347 0.07998468 0.75171226 0.96290076 -0.23511449 0.33331838 -1.1506772 0.036099307 0.6093259 0.06578504 -0.44235125 -0.13245554 -1.1052055 0.3148688 -0.43073267 -0.9397406 -0.280329 -0.62674 -0.09096103 0.141535 1.0419871 0.700209 -0.3844931 0.012610651 0.5942032 -0.44845864 -0.026346715 -0.030141585 -0.07493614 -0.2715081 0.108377084 -0.09359645 -0.26207078 -0.20798065 -0.010120895 -0.50552815 0.18073596 0.25636506 0.22106193 0.096233785 0.4058368 -0.10780795 -0.12148667 0.26837692 -0.47125223 0.43994716 0.0070772795 0.3228235 0.69597286 0.4759997 -0.3951921 -0.32841682 0.18594132 0.32569444 0.15495574 -0.09238537 0.12564796 -0.10616786 0.34667626
31040 -0.9165312 -1.0351362 0.32650805 -0.008831398 0.6503332 -0.6085935 0.14615336 1.289529 1.2768482 -0.29468355 0.59434605 -0.3632752 -0.26711115 -1.4001424 0.6163382 -0.19367062 -0.30503395 -0.8614573 0.42696646 -0.44916734 0.5273788 0.54568905 -0.16522388 -0.75674415 -0.2848111 1.1463728 1.0415605 -0.66506475 0.5564182 0.20243509 1.363527 0.8293059 0.048918553 0.5606529 -0.122957185 -0.13079138 1.435789 -0.23907477 -0.74080944 0.16381055 -0.11854206 -0.15104301 -0.48895484 -0.28026518 -0.18267629 -2.2113113 -0.38955855 -0.27576658 -0.2524506 -1.6602354 1.4292284 -0.4026534 -0.12719002 0.3947106 0.95932335 0.85485333 0.06981908 0.52286625 0.032099012 1.4258001 -0.80879796 0.38253248 -0.11819846 1.345329
30014 -0.8438684 0.07385964 -0.1550312 -0.053944096 0.29565185 -0.6316042 0.838333 -0.14401476 0.56613845 -1.2415696 0.28319985 -0.69733614 1.6203152 0.7124841 -0.34471878 0.07165749 -0.7332523 0.016092462 0.34627467 -0.24570037 -1.0705624 -1.4000343 -0.79444224 0.41232315 -1.1731334 -0.28993216 -0.72351676 -1.034025 0.73415834 -0.34439787 -1.4961793 0.26968646 0.72925943 0.48054385 0.37633625 0.44386563 0.57864434 -0.10427048 0.16147521 -0.86656255 -0.28226894 0.22692804 0.31903344 -1.3899751 0.5478335 -0.94838536 -0.32594356 0.13342498 0.8919873 -0.25870296 -0.29334143 -0.30125892 1.1989218 1.3357332 0.5607201 0.65879977 -0.4822104 -0.5968518 -0.08208284 1.0698448 0.6944077 0.49123073 0.0991579 -0.13798966
24515 -0.7453466 0.5492101 0.30105454 0.34530693 -0.20884587 0.42343378 0.73273915 0.1225019 0.10323654 0.94867265 0.49003503 -0.9232132 0.66429615 0.5853861 -0.33751577 0.13508375 0.45218647 -0.99777454 -0.50642926 -0.99749124 -0.68537027 1.0412403 -0.5622321 -0.20169953 -0.043874502 -0.60137016 0.640038 -0.30292553 -0.005557971 -1.0826577 0.6764975 1.2072388 0.04456853 -1.0371237 0.8015124 0.26136398 0.17563808 0.7156487 0.18952762 -0.23507747 -0.5598869 0.20052592 -0.023965446 -0.5807532 -0.14321654 -0.54716057 -0.32382134 -0.8689262 -1.2303795 0.47976914 0.45241374 0.35581484 -0.32308447 0.6453312 0.2318262 0.20328385 -0.36254415 -0.09922635 -0.029297184 0.24914832 0.011810584 0.15355541 -0.61833215 -0.13421126
7573 1.0047615 0.109333925 0.8349847 0.008286153 -0.9170194 -0.29512262 0.07684397 0.69351566 2.2998743 0.021647738 1.0452193 -0.35342923 0.06560656 0.29619136 -0.02732256 -0.41098663 0.6194162 -0.24221814 0.5770596 -1.4420946 0.2157155 -0.17138624 -0.5140684 -0.9584206 1.0755962 1.6048808 -0.55845803 -0.94240296 -0.8974945 -0.42334008 0.021036757 0.6861026 0.098168015 -0.6350347 0.07551906 0.068744816 0.6655955 -0.95828396 -0.13913952 -0.48436767 -2.3121858 -1.1511537 0.12855539 -1.0578572 0.43793374 -0.8730082 -1.6631936 1.0587413 0.71169835 -0.03356272 -0.6745163 0.3032199 -0.5725006 0.090782374 -0.34298298 0.29990253 0.73220396 -0.15580606 -0.42546412 0.73038113 0.16923706 0.7747556 -0.44670755 0.36201406
7572 0.926531 0.004615276 0.8424847 -0.13922857 -0.88079655 -0.5077406 0.26657233 0.54743946 2.0939744 0.2934078 1.0024137 -0.100680694 -0.08114613 0.52764827 0.01484723 -0.19266996 0.53668356 -0.1427696 0.3441809 -1.3108693 0.1168226 0.067156106 -0.47566587 -0.851534 0.91365254 1.3288985 -0.6691652 -1.1208282 -0.95118546 -0.4976767 0.09242082 0.40406272 0.17958114 -0.7355021 0.048948146 0.027372101 0.5422378 -1.1363635 -0.07965466 -0.5614336 -2.318903 -0.9685653 0.13249154 -1.1570657 0.5493264 -1.0088664 -1.4259236 0.7591529 0.6228877 -0.09101729 -0.68589854 0.42321223 -0.79985505 0.23338678 -0.25677595 0.1893146 0.64774287 -0.13755482 -0.61013347 0.523559 0.23815858 0.74379057 -0.3577091 0.40724143
3660 -0.69170064 -1.1834576 0.0003757571 -0.12189207 -0.09872543 -0.9686727 0.8359309 0.8944997 1.5011739 0.46520895 1.0739994 0.6663156 1.1058449 -0.21009281 0.061702896 -0.6694979 0.09171227 -1.2045839 0.39460874 -0.72979164 -0.42174616 -0.22544484 0.049142722 0.07351667 -0.47281742 0.03303214 0.5957335 0.2395663 0.7040143 -0.16396803 0.043602254 -0.030757334 -0.47370186 0.54783934 1.4967732 1.3294326 0.4102444 -0.56888187 0.17884323 -0.052551948 -1.7311722 0.13263209 -0.4994126 -1.5255812 -0.7146703 0.15408123 -0.44275054 0.36168972 -0.48751485 -0.57499444 0.78752553 -0.1879763 -1.17564 0.45872995 -0.657567 -0.14079216 0.6982671 0.7291674 0.8279375 0.46631667 -0.88610935 0.18025272 -1.6701022 -0.7541685
35698 0.60254204 -0.5867328 -0.28750986 0.13970603 -0.18874094 0.41526356 0.5533073 -0.026401578 1.4241997 -0.8528013 0.55662274 0.0709299 0.21768907 0.6345132 -0.551545 0.3165835 0.19532672 -0.14301841 0.062085122 -0.43704814 0.12916785 0.38176888 -1.1450244 -0.6997778 -0.46687633 -0.30130348 0.12465919 -0.35330766 1.2747374 -0.01892084 -1.0903841 -0.3150007 -0.99992275 1.1890014 1.0449988 0.42481393 0.5701472 -0.24505587 -0.49400124 -0.3084066 -2.2590716 -0.20519663 0.77514565 -0.1917248 -0.51478505 0.15800522 -0.43534473 -0.6601061 -0.01740269 -0.15326992 0.4580649 0.21623202 -0.75376606 0.27187768 -1.112907 0.5002449 -0.66664475 -0.48608682 1.4842111 0.7257749 0.21174918 0.0020684048 -0.21570848 -0.699345
31039 -0.68449545 -1.002411 0.06742643 0.029794384 0.6686883 -0.7273698 0.02447804 1.0791153 1.2826537 -0.76628953 0.72952616 -0.3895517 -0.43316942 -0.95860636 1.1056343 -0.27703992 -0.2918516 -0.7463236 0.52728647 -0.48926532 0.34101605 0.45828864 0.09456076 -0.51681256 -0.40646982 0.8784231 0.8632861 -0.94894457 0.90598226 0.03209404 1.3085462 0.7395329 -0.19211467 0.51286507 0.08864811 0.08481298 1.8182724 -0.047591552 -0.36258543 0.11205588 0.46296954 0.018523678 -0.28078339 -0.24386328 -0.03875833 -2.4262505 -0.25368467 -0.45370406 -0.25522608 -1.3506159 1.6612449 -0.32487437 -0.17323276 0.15359217 1.1674093 0.6746546 0.111643344 0.826966 -0.08353036 0.97140825 -0.60096073 0.26540393 0.13321275 1.2359277
46577 -0.8862087 -0.85230386 -1.4769665 -0.025768552 -0.4422443 0.57325786 0.94451463 0.03672003 0.2942093 -1.279288 0.8732852 -0.17566127 0.7932867 0.974712 -0.10410787 0.753062 0.30255857 -0.8088895 0.88052326 -0.28968427 0.2433358 0.8985704 -1.5758657 -0.2064915 -0.4531502 0.6375528 -0.9057478 0.09212696 1.1703286 -0.15003917 0.3222756 1.1505978 0.2506261 0.90208864 0.09072292 -0.47415498 1.0754614 -0.35513526 0.6487177 -1.5002929 -0.24396868 -0.7413234 0.16029535 -0.7352382 0.67288566 0.523924 -0.1743261 0.083008096 0.79929763 -1.2088578 0.46876332 -0.00026385387 -0.10430212 0.2618404 0.40234032 -0.034925908 -0.68755704 -0.3395748 -0.12069061 0.42007524 -0.37945762 -1.1932096 0.85412866 0.7826395
27057 -0.4542345 -0.870851 -0.028155629 -0.82530206 -0.6902693 0.07716754 1.8839387 0.42801636 1.4027271 -0.21883804 1.284391 -1.5557462 0.5118838 0.7328667 0.5912836 -0.3146832 -0.2000288 -0.36706877 1.336075 -0.9465815 -1.2242718 0.078342624 -0.26513562 0.43721128 -0.013589417 0.53281075 0.83630395 -0.45164073 0.5529972 -0.2561901 -0.8566855 0.57902545 -0.30176312 -0.09371752 -0.40183908 -0.47005078 0.38962683 0.14211246 0.4475781 0.5571805 -0.111887895 0.31842017 0.6734505 -0.5951162 0.058713768 0.89732504 -0.6114579 -0.4804381 0.20556861 -0.14578156 0.5804045 0.02924652 -0.055224705 0.16196239 1.3257225 -0.080803044 -0.025686562 0.9472507 0.57612264 -0.10499612 0.10086564 0.17932461 0.06882025 -0.44481117
13043 -0.115799256 -0.5155829 -0.22442837 0.80075777 -0.07707508 -0.3396785 1.0232928 0.53909725 0.4487697 0.058043297 -0.3136546 -0.4084671 0.26906988 -0.67755616 0.38238695 -0.46974763 -0.4664838 -0.96312845 -0.078559086 0.103035346 0.051658936 0.5341573 -0.5672004 0.7700594 -0.5919177 -0.018366178 0.16812263 -0.47570208 -0.4079011 -0.3075548 -0.96630543 0.7544767 0.057706412 0.60541725 0.5372077 0.52184576 -0.5778646 0.43983656 -0.02665212 0.2732182 -0.41415268 -0.116077155 0.2336617 0.016620947 0.5384026 -0.4541728 0.33819044 0.023435507 -0.7690949 -0.35900423 0.49643347 -0.28491163 -0.49781114 0.18010354 0.35682186 -0.13888732 -0.40909168 0.42234284 0.071549535 0.3051747 0.65395296 -0.5109191 0.15080519 -0.31532982
39634 0.047492657 -0.9787026 0.63673544 -0.7905985 -0.33913273 -0.25756928 0.31747767 -0.021847485 1.167218 -0.5203526 -0.6122083 0.17892869 -0.18872842 0.107371435 1.7366853 -0.225684 -1.0893679 -1.6358649 0.4260144 -0.5818698 -1.1292558 0.37953663 -0.9541018 -0.6204278 -0.39701256 1.1102009 -0.39751357 -0.7312209 0.9282201 -0.024045534 -1.2202736 0.29812342 -0.048486754 -0.3758653 -1.557772 -0.32319686 0.07441457 -0.6434763 -0.594382 -0.6693046 -0.1806285 -0.2347384 -1.0196519 -0.08426734 0.17215566 -0.6194131 0.48778543 0.8329417 -0.70507306 -0.7358117 0.32778 -0.92196345 0.44722226 -0.45276204 0.9002121 0.13251606 -0.9008475 -1.0837241 -0.83260876 0.31432837 -0.10124211 0.4186159 -0.8281183 0.10096843
3663 -0.7623839 -1.1629862 -0.23127912 -0.08224278 -0.04387835 -0.84911954 0.8796182 0.76710844 1.4985155 0.48114997 1.0198472 0.71560717 1.1159486 -0.17712216 0.26485062 -0.49644166 0.089925125 -1.3421162 0.340724 -0.8058988 -0.364798 -0.32839537 -0.030704571 0.0063812844 -0.48056027 -0.007968636 0.5671568 0.29664153 0.56766665 -0.35381138 0.02482634 -0.096259095 -0.49340478 0.5746937 1.4989133 1.417569 0.5051822 -0.47180364 0.15832451 -0.0076613175 -2.066841 0.30993038 -0.5983975 -1.7941351 -0.6658214 0.041722976 -0.55397725 0.36276564 -0.53148335 -0.40352777 0.67023283 -0.054165896 -1.0804874 0.47464415 -0.49842906 -0.09684225 0.4988807 0.7271311 0.9179829 0.41324407 -0.78048193 0.18172388 -1.6708974 -0.7741087
1382 -0.7584023 -0.61538213 0.34821823 -0.13828431 -0.735625 -0.30493715 0.8059775 0.20020431 0.97869605 -0.04520491 0.88966346 -1.0378035 0.37728205 0.10216792 0.896869 -0.72237545 0.23298687 -0.95960736 0.28463736 -0.055792347 -1.1371815 0.13675983 -0.32443237 -0.19825415 0.19364966 0.1626104 0.03303289 -0.5208119 -0.11085697 0.41287178 -0.20719385 0.1055716 0.04120957 0.11334186 -0.300321 0.021987783 -0.18959709 -0.22705862 -0.6406414 0.29081097 -0.12465609 0.10059792 -0.066724285 0.22563207 -0.3135527 -0.11349187 -0.17888638 0.07514474 0.15087026 0.11105768 0.21239752 -0.24726184 0.17724094 0.58805406 0.052575737 -0.46662524 -0.33977863 0.8544198 0.49141404 -0.104055345 0.048856623 0.26461095 -0.32872385 0.11430269
459 -0.6894075 -0.40945646 0.6320864 -0.33251336 -0.7529044 -0.22013183 0.48460713 0.21831393 1.7160699 -0.4182722 0.7686558 -1.2735288 0.6688756 0.063125946 1.2289722 -0.6098061 0.42525885 -1.1185077 0.096333936 0.024841597 -1.1433809 0.9221501 -0.22504325 -0.7196992 0.35717523 -0.017810965 0.30504537 -0.36799872 -0.09836253 0.63439655 -0.12836799 0.1609226 0.009487947 0.29431754 -0.26665485 0.31647262 0.07823288 -0.41381782 -0.477903 0.12775835 -0.033713747 0.14432901 -0.39744404 0.10974492 -0.10068226 -0.5554162 -0.26839483 0.5726945 0.3412363 0.18170686 0.18345189 -0.18805286 0.020867404 0.37944376 -0.095274486 0.048926152 -0.5443576 1.3457147 0.35910124 -0.020913873 0.2741942 0.17530459 -0.14741495 0.21959434
38687 -0.025202721 -0.16028322 0.4132931 1.2569375 -0.3425654 -0.67005265 1.1332685 0.46708205 0.5356142 -0.43262127 0.09119658 -0.6288023 -0.29058132 0.060157686 0.3371855 -1.2651529 -0.21288876 -0.56802076 0.05123105 0.35405108 0.08766772 0.3647155 -0.27479124 0.79312104 -0.09286032 -0.32029545 -1.0483844 -0.4475408 -0.36070764 -0.6137782 -0.86535275 0.1551078 0.030465096 0.33577335 0.35971814 1.2540436 -0.7655982 0.1304094 0.4314677 0.24038027 -0.31807473 0.061736662 0.14537919 -0.52767533 0.90907437 -0.64814055 -0.34805152 0.17659621 -0.588288 -0.62735873 0.047724403 0.028384954 0.060319234 -0.18316819 -0.3142797 -0.11216384 -0.69019735 -0.027224645 -0.023761759 0.37597036 0.66755223 -0.059819143 0.805809 -0.57740325
35766 -0.08551638 0.25723463 -0.3605905 -0.72143126 -0.9115661 -1.0028995 0.8847747 0.73730606 0.5239994 0.5513578 1.2277061 -0.93748975 1.3265175 0.40918198 0.20711483 -0.31905833 0.06662871 -1.2484549 0.06796261 -0.40021122 -0.7177916 0.11458471 -0.43406188 0.17435542 -0.41514125 0.9595554 0.48038486 -0.6448874 0.23785144 0.3249475 0.4607363 0.23749185 -0.9499038 -0.19925758 -0.260934 -0.17226984 0.5168776 0.2280698 0.38052908 0.08466715 0.033151627 0.11942753 -0.0046162764 0.18517533 -0.3762967 -0.023229972 -0.17546524 -0.5614766 0.3414913 -0.4864118 0.5730026 0.042859457 0.8643459 1.0255078 0.06643944 -0.46459928 -0.530466 0.81450766 0.96330893 -0.072612286 -0.5206678 0.16443792 -0.5556637 0.5867795
46031 -0.7049776 -0.2924146 0.14455618 -0.08008303 -0.7935264 -0.34522074 0.28173497 0.22669843 1.0213398 -0.7319825 1.1262711 0.25706783 -0.4228811 0.80871254 0.8713323 0.04628125 0.3089559 -0.8998722 -0.27318186 -0.12535663 0.9726786 -0.36781594 -0.91043156 0.22771674 -0.84024537 0.93468326 1.250313 -0.32872602 0.9986703 -1.6158156 0.6366976 0.19188301 0.085706465 -1.244016 0.09848053 0.10745562 0.6491959 -1.5598751 -0.23802184 0.34604517 -0.030905867 -0.40038058 -0.51120985 -0.70599496 0.8480852 -0.46003908 0.112438016 -0.6959257 0.82611626 -2.3401043 0.754517 0.5554275 -0.25909492 -0.7769404 1.7448105 0.016911382 -0.57576877 1.8753014 -0.81660825 -0.4564149 0.69174546 -0.12650241 0.20442696 -0.19920887
35705 0.53578407 -0.6327515 -0.38676897 0.4234991 -0.16347349 0.19335188 0.534439 -0.11034548 1.4387506 -0.89236665 0.71821654 0.23590931 0.20396489 0.5487727 -0.07512125 0.06125858 0.094196275 -0.31023976 0.28635627 -0.64534 0.010511235 0.25271916 -0.7924167 -0.7352025 -0.5671075 -0.50534755 0.05998405 -0.61987555 1.0839489 -0.05269709 -1.3287673 -0.39886796 -1.0009004 1.2454398 1.0644454 0.34441936 0.5187125 -0.38453808 -0.5520478 -0.4520671 -2.2771003 -0.13301055 0.5122405 -0.2769849 -0.36277902 -0.010282176 -0.32282293 -0.6477508 -0.22572179 -0.27588564 0.11354016 0.46048912 -0.9689402 0.10302526 -1.1975118 0.9433562 -0.7433312 -0.25317198 1.4879929 0.33481902 0.40596434 0.07990726 -0.4757889 -0.6531377
2659 -1.1620803 -0.43371508 0.8195552 -0.040204976 -0.4052027 -0.80934393 0.68189335 0.08429066 0.5449403 0.5366742 1.3382995 0.09026604 1.0055722 1.0228244 -0.52984035 0.13561536 -0.54585403 -1.4526132 0.7155314 0.07902673 -0.62721336 0.11324114 -1.3165989 1.2096003 0.5248897 0.26117298 -0.58768165 0.37728176 0.15150113 0.25180906 -0.3624626 0.9438725 0.5351458 0.67479986 -0.6426251 1.0777801 0.13306382 -0.90797806 -0.7938877 -1.0529407 -2.0602143 0.10510864 0.16381411 0.036575846 0.9090719 -1.3237467 -0.22640721 0.95029885 0.6273814 -1.2863595 -1.0417506 0.95781964 1.0079645 -1.3655609 -0.17478245 0.67269427 0.5051372 0.18199785 -0.45513102 -0.04392935 0.08598159 0.09827416 0.29129905 1.4395658
1834 0.34825584 -0.30657297 0.3484679 0.965365 0.06213277 -0.23634769 0.050089076 0.9795217 0.88695365 -0.45608577 0.15791737 -0.61275876 0.80620027 1.2558444 0.27712145 -0.038140737 -0.058753755 0.4379741 0.09477244 0.06382302 0.3514096 0.14233133 -0.04770814 0.7383911 -0.25660518 0.2333623 0.34740776 -0.36807284 -0.12980603 0.27703208 -0.094368294 0.41657472 0.099571526 0.07695583 -0.62085646 -0.08946419 -0.20802905 0.59069556 -0.33882833 -0.27697125 -0.8139622 0.06669568 -0.37080497 0.36451766 0.520457 -1.0845447 -0.03914741 -0.38867489 0.4632188 -0.33114478 0.8991781 0.16681582 -0.67265713 0.14809689 0.17854063 -0.7124531 -0.23430634 -0.29062915 -0.8468896 0.89203066 -0.72200364 -0.24873821 -0.20002887 -0.15660258
1921 0.15171799 -0.033441532 0.20690474 0.95862174 0.76386446 0.99813855 1.2716103 1.4773328 1.1429323 1.0551459 1.0461142 -0.77856266 0.26493946 0.5646989 0.49453795 0.46499118 0.51828104 -0.039511763 -0.39987966 -0.09556133 0.54841375 0.45662785 1.1892849 1.3027575 -0.44093618 -0.06978176 -0.71402127 -0.9381793 1.172632 0.3392217 -0.1506582 1.2142453 -0.3491161 -0.9174435 -0.5945723 1.2054467 -0.41262266 0.10916237 -0.092411086 0.51796573 1.045722 -0.4922061 0.897026 -0.078496374 0.5348028 -0.6264972 0.12293381 0.6830324 0.27903137 -0.708879 0.029575365 0.7484091 -1.1824747 -0.044874184 -0.10032027 0.18969357 -1.1525279 -0.35701853 0.43693218 0.7977643 -0.10553405 0.4277949 0.18780331 -0.6990957
19622 -1.0823518 -0.7372287 -0.4323335 -0.12609456 -0.828069 0.9066741 0.50560063 -0.43537754 0.24903089 -0.24929439 1.1305076 -0.30652767 0.6659599 -0.1469846 -0.31326258 0.4784584 0.10948748 -0.46614257 0.14566971 -0.17842168 0.4554171 0.8554285 -0.5446171 -0.2457236 0.9106755 0.46930107 -0.58567697 -0.41845626 0.824088 0.029133784 -0.0419828 0.3614854 0.4734573 0.4625754 -1.0890145 -0.50828516 0.22574516 0.31789735 0.6664503 -1.7085688 0.034888905 0.1633126 -0.47687602 -0.46402317 -0.3570676 0.24924426 -0.75679773 0.7774111 0.49576145 -1.6120836 0.6103531 0.47878245 0.39861932 0.024864702 0.25414565 0.66445756 -1.0352827 -0.012101547 -0.6851617 1.3155885 -0.30753604 -1.2442176 0.5288936 1.1336861
2544 -0.021530472 -0.50496393 0.1498044 -0.34390336 -0.3267388 -0.04071226 1.6984651 0.4780244 1.1749556 -0.2310482 0.35830042 -1.0754262 0.43808836 1.118171 0.47838366 0.46053874 -0.67895424 -0.21604963 0.8089939 -0.62041444 -0.69071984 0.3811764 -0.5718011 0.68322796 0.019274672 0.3501135 0.53301287 -0.7101595 0.33427224 0.08290282 -1.1771903 0.4617692 -0.21700539 0.020129433 -0.42578053 -0.57099617 0.25996026 -0.17358246 0.5675251 1.2206266 -0.11977496 -0.029308124 0.63222796 -0.7629699 -0.4180705 0.8657938 -1.0079516 -0.36722827 -0.13268387 -0.40106645 0.57439494 -0.08311671 0.05770011 -0.051371843 0.9750395 0.19051413 0.16537312 0.5771277 0.67296886 0.024048422 0.13919865 0.026884483 -0.42465606 0.37020174
1757 -0.11168906 -0.65707624 0.9226126 -0.5284009 -0.45229578 -0.34352803 0.324701 -0.40521583 1.5112801 -0.20606925 0.5037561 -0.9197773 -0.013842438 0.22407281 0.55080646 0.054710686 0.074248955 -0.6014992 -0.53854865 0.07953322 -1.5500323 0.21136135 -0.04552317 0.76010644 0.1477499 0.08786197 0.12080683 -0.5346837 0.13317545 0.31028077 -0.8000124 -0.038878445 -0.034864157 0.5254297 0.030890051 0.38833192 -0.67327714 0.38544318 0.5847755 0.1913227 -0.13263634 0.7536267 0.23922427 -0.26541367 0.057618514 -0.51500875 -1.1975415 0.40715086 0.61771643 -0.3703638 0.69377387 0.2579893 0.009821013 0.602853 0.59778327 -0.44839785 0.26922435 -0.044570174 0.18645634 0.8303696 1.0530361 -0.036601588 -0.4976651 0.84133744
7566 -0.057668567 -0.5578343 -0.41607937 -0.8971006 -0.8530049 0.10748498 0.4250405 0.7881514 1.2153665 0.024788605 0.384154 -1.0838526 1.2541009 -0.39512154 0.26530892 -0.57320136 0.17051372 -0.38004273 0.103566505 -0.5294052 -0.21556957 0.33567125 0.19098397 0.30244207 -0.24419135 1.0939125 -0.62252927 -1.1991053 0.33370456 0.65235734 0.09644661 0.33607757 0.35791108 -1.0482241 0.63547355 0.004920786 -0.061341014 -0.19944374 1.6387805 -0.0456999 0.6071607 -0.45763153 0.48020872 -1.4555886 0.944479 0.3256632 -0.10549746 0.17514922 -0.34138823 -0.46038797 1.4094404 -0.58740413 -1.5165886 1.2982187 -1.2441816 0.09823143 0.4726925 -0.33636954 -0.9217559 0.8123027 -0.6584436 1.6195108 -0.5770041 -0.2836814
23905 0.76922506 0.21875031 0.26018134 1.3270563 -0.48968434 -1.6969879 0.085043415 1.2784286 1.9560049 0.11000221 0.48642528 0.09784375 0.4465884 0.9294693 0.6370777 -0.56907374 0.00085773785 -0.026012216 -0.019051073 -0.30351508 0.55752915 0.53998464 -0.0015896171 0.9976132 -1.0936717 -0.15565476 -0.5541517 -0.21413572 -0.5277409 0.050014455 -0.51789516 0.37425902 -0.250441 0.09592495 -0.8689793 -0.18222257 0.014521073 0.08784612 0.96448725 0.41775158 0.09327275 -0.38430122 0.25611737 0.0771545 0.38383844 -0.27319366 0.22992738 -0.20857452 0.014331057 -0.90580237 0.34166512 1.2181933 -0.08739465 0.0813545 -0.35889944 0.32641986 -0.0620969 -0.3481201 -0.9860061 1.246242 -0.09765476 0.09517781 -0.21769919 0.22261599
1746 -0.06081981 -0.39574537 -0.8493652 1.1053338 0.66357934 0.16564266 0.9748267 0.35983205 0.8545773 0.17071603 0.44265768 0.12205983 0.7262324 -0.73218966 0.8465511 -0.9551807 0.36791214 -1.1888072 0.0028792615 -0.22967298 -0.41240323 0.4416174 -0.45562378 0.6778064 0.5885184 -0.7434664 -1.0098844 -0.50614315 -0.80188227 0.12274816 -0.024911331 -0.10143665 0.29395333 0.6963032 -0.2564057 0.50066483 0.071374446 -0.12670207 0.13889483 -0.0900422 0.00096343266 0.24015626 -0.13649859 -0.6345927 1.0406371 -0.4138224 0.18953796 0.09389078 0.069756605 0.60758567 -0.06638042 0.122862406 0.06522096 0.30909237 0.0628553 -0.24575871 -1.3011011 -0.4196673 -0.40935987 0.9928084 1.2060537 0.020201651 -0.34669322 0.6422769
13014 0.7908068 -0.8136789 0.57665706 0.7328906 -0.26915222 -0.015247039 0.3928416 0.87348783 0.6574436 -0.58479583 0.08867053 -0.523259 1.0191722 0.7659503 0.81652516 0.66741 -0.0035534373 0.28952453 0.02663927 0.12771855 0.58539027 0.07146447 -0.31832093 0.7659495 0.42161635 -0.09267896 -0.39963764 -0.596237 -0.5631261 0.031308074 0.1376162 0.52306163 0.0045794263 -0.014113595 -0.67428493 -0.30287376 -0.17090301 0.6079444 -0.2914858 0.4805833 -0.8113009 -0.32701913 -0.4485635 0.35061893 0.51418066 -1.0273281 -0.23965552 -0.22756639 0.12907363 -0.67549324 0.7837167 0.6182217 -0.3904104 0.38425764 -0.17959324 -0.9216029 -0.37533858 -0.4400543 -1.2837615 1.4002304 -0.956502 -0.11530177 0.0726173 0.625996
23909 0.6141807 0.27547863 0.016764553 0.7215709 0.024729805 -0.1270125 -0.44211045 0.47992226 1.4596727 -0.43437734 -0.0357316 -0.51028866 0.9991496 0.90085727 0.8712271 0.335137 -0.81786853 0.98376286 0.34312642 0.045402456 -0.787957 0.05845349 0.2111081 0.59073615 -0.78939676 0.3333932 0.47369248 -0.44899035 -0.2898717 0.00020854149 -0.014512404 -0.027244791 0.03189225 0.5389798 0.277726 0.44381967 0.6351026 0.5240846 -0.6513713 0.22769494 -0.85725933 0.6250232 -0.2745345 -0.035696663 0.27379167 -1.2135943 -0.002715908 -0.47098127 0.45461315 -0.6760374 0.8270644 0.07414756 -0.40122673 0.32214773 0.0126776565 -0.79880387 -0.115761735 -0.5439222 -1.4560659 0.76657426 -0.455949 -0.76492107 -0.1273337 -0.033686273
41664 0.039378103 -1.4418467 -0.05059404 0.64734715 -0.3917018 -0.09496817 -1.3961425 0.402806 1.3079376 1.2101859 1.4940125 -0.84817725 0.73997885 -0.10700737 -0.13558747 1.4581754 0.526986 0.08069511 0.19457404 -0.25999218 -0.29309648 0.70715123 -0.3287533 0.40694472 -0.5168738 0.049021985 0.32922375 -0.44517398 0.081454806 -0.7662636 -0.8110248 0.1205787 -0.9159806 -0.76053923 -0.12478841 0.40846598 0.19824712 1.0287704 -0.81332123 -1.4264475 -0.22486433 -0.5947832 1.2699413 -0.12165766 -0.19912763 -0.33961785 -0.24136683 0.9359196 -0.7826677 -1.1995978 1.1244678 -0.20609815 0.4114385 0.07408551 1.0099194 1.2576467 -1.164913 1.6315731 0.034604203 0.7799331 0.81002355 -0.09010605 -0.18795954 0.49341252
12187 -0.16459581 0.31750637 0.42094475 1.813919 -0.51302236 0.54197663 -0.2207041 -0.6517115 0.12546943 0.411381 0.84723246 -0.4370186 0.51175296 0.20910788 -0.38971007 0.10625662 0.6707119 -0.50804245 -0.27622348 -0.036343098 -1.1901553 0.76107395 -1.0532124 -0.17901677 0.039718 -0.7653083 -0.043291885 0.07808494 -0.24440831 -1.3582845 0.37940496 0.64997756 -0.37458408 -0.6628787 -0.24891752 0.76200503 -0.29440555 0.34355348 0.43950102 -0.5269919 -0.76965576 -0.27883866 0.38726258 -0.90925145 -0.0266552 0.757186 -0.29094917 -0.34887323 -1.0460037 -0.50222296 0.8758236 0.2159018 -0.45226845 0.905432 0.68603617 0.110793784 -0.050163962 -0.34193298 -0.22209835 0.9779803 -0.46609038 -0.040851988 -0.90984386 -0.14336361
12188 0.11405804 -0.1479941 0.12075899 1.1997714 -0.49610665 0.53360015 0.017705556 -0.4378223 0.58872384 -0.025304625 1.1284798 -0.37763885 0.54756796 -0.043289475 -0.3019881 -0.03478125 0.7905576 -0.47276714 -0.12260063 -0.10510573 -1.0014069 0.4225872 -1.1703252 -0.17495038 -0.3969376 -0.95288914 0.027333833 0.3251846 0.103493825 -0.4556761 -0.49364412 0.96487504 -0.23201983 -1.0717717 -0.5680178 0.7551852 -0.040299837 0.4419191 0.032494053 0.31910485 -0.5342897 -0.39763495 0.49394676 -1.3248671 -0.53178495 0.13997091 0.03917591 -0.04896619 -1.2302387 -0.8166673 0.80961907 0.64184237 -0.4003915 0.5016008 0.309424 0.07511078 -0.31255597 0.13951701 -0.41796026 0.55822027 -0.49718714 -0.06518446 -0.44456357 -0.41883737
11803 0.7001052 0.4109578 0.31585234 1.5055614 -0.2856638 -1.7572292 0.21441604 1.4362733 2.3081682 0.2858362 0.6039945 0.35148913 0.6680756 1.0133854 0.76682395 -1.1556085 -0.2881885 -0.23725694 0.08072797 -0.52562505 0.49249512 0.5823003 0.1462674 0.8807956 -1.4413625 -0.12230935 -0.6803643 -0.31310397 -0.43654925 0.11626756 -0.34618333 0.31463152 -0.39657703 0.08083651 -0.63993084 -0.13930507 0.18376158 0.006164505 1.1755012 0.6619196 0.16836335 -0.1709095 0.18824404 -0.07376271 0.47151235 -0.18450001 0.3444441 0.060172386 -0.13767898 -0.7775839 0.59075963 1.2165312 -0.21486342 -0.07037851 -0.4401025 0.66010654 -0.373172 -0.29226252 -0.88407046 1.1786284 -0.006927507 0.15942587 -0.112561904 0.38882574
20465 0.30261776 0.19507433 0.2692877 1.4112107 -0.2908491 0.7217899 -0.23667327 -0.37435457 0.7153982 0.15877193 1.1117475 -0.3034855 0.43443912 -0.18473011 -0.22457065 0.1752793 0.71791774 -0.3008747 -0.3916263 -0.6164945 -0.93034923 0.27458304 -1.209967 0.00018414765 -0.03162498 -0.8955903 0.23716058 0.05450291 -0.31664914 -0.46537888 -0.1288742 0.8883205 0.028998317 -0.97205216 -0.24106574 0.9970809 -0.06885561 0.68223363 0.15158108 0.06594587 -0.5618907 -0.1933779 0.42315322 -1.0245769 0.12371833 0.37853894 0.11847392 0.2874729 -1.3481934 -0.6895253 1.1203556 0.40061095 -0.0920791 0.8665956 0.5297542 0.100024536 -0.0049560545 -0.35085315 -0.22307667 0.69997835 -0.5905104 -0.29105595 -0.6237611 -0.37604165
23896 0.518058 0.011072409 0.49974787 1.2728707 -0.2313025 -0.2812627 0.32620642 0.5501672 1.2174085 -0.513522 0.5570263 -0.50811017 0.5389226 0.7542167 0.49340856 1.0278716 -0.49888417 0.5684506 0.2094787 -0.14116876 -0.126289 0.2057827 -0.24575774 0.65044004 -0.05162585 -0.12868723 0.08336002 -0.12103863 -0.50085145 -0.035790913 -0.1668672 -0.17891477 -0.6334291 0.2210806 -0.66695476 -0.4497028 0.17230956 0.17210315 -0.52100384 -0.30041015 -0.31327665 0.18542357 -0.5605278 0.2366797 0.20609021 -1.1685985 0.06663677 -0.70430374 0.15071197 -0.11008186 -0.036769416 0.29155427 -0.10953451 0.33521253 0.43655938 -0.07202478 0.23316948 0.19018337 -1.3657942 0.48874447 0.14388546 0.19299248 0.049572006 0.7817572
870 0.3310835 -0.39851868 0.18482353 -0.6078952 -0.9766118 -0.5063363 0.37575376 0.8459243 1.0629687 -0.007877023 0.7486146 -1.1011804 0.48873812 0.30542463 0.10655247 -0.49718204 -0.12032608 -0.93081045 0.2797734 -0.15110458 -1.0900964 -0.36466783 -0.5710674 -0.17082971 0.1294991 0.80501664 0.38673317 -0.5497063 0.065744825 0.35466364 0.050585844 0.52797 -0.34448698 -0.34344044 0.13377146 0.032658536 0.13491787 -0.21213336 0.3186377 0.058382675 -0.33942863 0.371711 0.32141727 0.27531466 0.06209917 0.58595806 0.05725794 -0.1718529 0.45820618 -0.5399828 0.5309067 -0.35434783 0.76664674 0.7344424 0.43768832 -0.28388542 -0.550551 0.84373206 0.227133 0.3226434 -0.20621881 0.2342945 -0.036324125 0.53176975
26730 -0.22283573 -0.72820157 0.3402174 -0.3379249 -0.77219397 -0.388619 -0.061734065 0.4758868 0.9877146 -0.22027792 0.7653064 -1.5589588 -0.36248884 0.18824458 0.19698392 -0.510935 0.06243617 -1.1840023 0.29284397 0.28070328 -1.1012267 -0.32637477 -0.9750504 -0.30836278 0.11474874 0.2938738 0.87366456 -0.4624628 -0.014384247 0.6534382 -0.09154449 -0.06307699 0.11618751 0.02558463 -0.29225117 0.36112246 -0.016630525 0.043937266 -0.2563231 0.13613248 -0.33269358 0.023008807 -0.4169102 0.10147445 0.18955892 -0.13773076 -0.13440612 0.16164763 0.120808735 -0.38087854 0.63038796 -0.18093891 0.25404984 0.70304316 -0.021817325 -0.62943715 -0.5341737 0.4594594 0.08302815 -0.005731304 0.061865613 -0.26309612 -0.26882297 0.4818546
1727 -0.86509943 0.09987216 -0.525558 0.89309037 0.630909 0.14288194 -0.6076056 -0.25830102 1.378577 0.19071145 0.5924616 0.6075193 -0.10480622 1.0447013 1.5603249 0.050270036 -0.31881604 -0.7325806 0.56471837 0.30349872 0.35950065 -0.20265508 0.15279911 -1.0286357 0.2781937 0.47022817 -0.25055692 0.42830148 0.17560764 -0.74371386 0.9473572 0.7928081 -1.3558279 0.17852221 -0.507416 0.005078894 0.76195866 -0.9943728 0.2109448 -0.405193 -0.6709653 -0.4388727 0.028035779 -0.10928848 -0.40343457 0.11315751 -0.77641344 -0.08370585 -0.009351093 -0.73674107 -0.036624815 -0.55046237 -1.4997405 -0.27326053 -0.04387344 -0.6096975 -0.3548427 0.2919762 0.055297077 1.3262299 -0.2922861 0.5568188 -0.1745438 -0.041457906
22948 0.4046618 0.05736224 -0.7302569 1.0331244 -0.4544488 0.15586753 0.31950855 0.68998176 0.82890993 0.12310341 0.19691773 0.16572013 -0.08841352 0.24254252 0.09304514 -0.30320415 0.29465917 -1.291592 0.024517495 -0.020004125 -0.017794825 -0.45022386 -0.5645258 1.1226746 -0.74991393 0.3636132 -1.1062306 -0.51899326 0.069606654 0.95110774 0.15380867 -0.58316165 0.57128656 0.15552987 0.19260652 0.09676599 0.11240538 -0.40776336 0.3626936 -0.5698004 -0.76332563 0.87619346 -0.5023769 -0.21629417 0.40599126 -0.4484434 0.42062742 -0.3469211 -0.5229418 0.39102772 -0.35265562 0.09329037 -0.4258235 -0.71162057 0.5962032 0.3020859 -0.26739946 0.4430221 -0.9058142 1.2731897 -0.12392164 0.118862525 -0.15800281 0.29514104
13528 0.17767145 0.15895097 1.0981147 -0.2930647 -0.113071404 0.04309948 0.8288197 -0.2891792 -0.107994124 -0.22454815 0.996918 0.8319036 0.57030284 1.1901301 -0.0931387 0.1492768 -0.58718973 -0.2352611 0.1300663 -0.3622637 0.019723851 -0.5632983 -0.56232965 -0.21551044 -0.04272805 0.75826377 0.39175105 -0.5541931 0.10771718 -0.002169122 -0.81941783 -0.08927632 -0.84815043 0.32707286 0.5845119 0.8698061 -0.078460045 -0.05199812 0.24958187 -0.74364555 0.21628888 -0.6368245 0.4894328 -0.81929535 0.833055 -0.19785385 0.36856878 0.104918726 -0.03986187 -1.1816401 0.14324835 0.22935405 0.24669944 0.19159709 0.82914954 0.057272278 -0.4156227 0.8365299 0.18218222 1.0705254 0.2540137 0.18841062 -0.5838927 0.123059034
18661 0.031910494 0.25259513 -0.8078963 0.88427615 0.60563934 -0.154379 0.5133812 0.48934937 1.8758712 -0.28673133 0.6669847 -0.08309104 -0.13702323 0.5147939 0.6904453 0.092950344 0.045248486 -0.20370978 0.62885004 -0.14157222 -0.59576887 -0.6925156 -0.11309776 0.29751444 -0.7804902 0.17535448 0.30584192 -0.7582319 -0.3228898 -0.13534546 -0.77733153 -0.7420537 0.0012053536 -0.07833871 0.6862112 0.10137675 0.35535902 0.011709976 0.016880153 0.11548447 -0.5705343 1.0505933 -0.55744004 -0.24605143 -0.2802495 -0.5027513 0.035955813 -0.5325904 0.24348733 -0.3713822 0.03248204 0.06008799 -0.7148243 -0.4988068 0.10458651 -0.76247567 0.26065025 0.15554455 -0.49258724 0.720158 -0.28299308 0.11140453 -0.14791737 -0.8402419
2225 -0.7906937 -0.051258598 -0.10069256 -0.43935743 -0.32197693 0.022698438 0.13922408 0.9230525 0.79751915 -0.028443001 0.51068634 0.55751115 1.030741 -0.28063646 0.76563823 1.0527157 1.344504 -0.64588124 -0.08152617 -0.3519235 0.08330944 0.23177 0.18896118 -0.12487187 0.051355686 0.7032807 0.6449236 -0.1308576 -0.040778104 0.32920474 0.22868188 0.33113706 0.55498 0.20367278 0.15319954 0.60638785 -0.54280597 0.008506984 0.012666744 -0.23761773 -0.7100508 0.0873909 -0.85878754 -0.15909292 -0.34609008 -0.8625862 -0.55938447 0.117403395 -0.5864198 0.51219887 -0.73546207 -0.6356728 0.42898273 0.37811926 -0.61823213 0.6715812 -0.70647717 1.2363511 0.95282775 0.9539251 0.4075676 0.93646777 -0.49599758 -0.1855055
46607 -0.68093175 -0.47007918 0.3160208 -0.1487267 -0.7708119 -0.33917782 1.0547034 0.3136659 0.8175877 0.2445406 0.7854479 -0.960012 0.39824182 0.38792613 0.63343656 -0.7053518 -0.03235962 -1.2773373 0.32608464 -0.15781042 -0.99600685 0.10946493 -0.65110534 -0.29217565 -0.027039938 0.5388922 0.014619459 -0.37382096 0.082483456 0.28030172 -0.15940717 -0.055314302 -0.11191957 0.06298254 -0.3882287 -0.02113292 -0.12198452 -0.083599344 -0.34181783 0.5007685 -0.08094938 0.29114386 0.42000112 0.20852356 -0.42836648 -0.17966448 -0.14378007 -0.063544884 -0.050318047 -0.044966735 0.27997756 0.010173031 0.1556503 0.44687423 0.034641463 -0.70986694 -0.36623928 0.7473047 0.7030093 -0.14253171 -0.092505716 -0.0005119775 -0.15726241 0.02588335
1756 0.3415562 -0.2564282 0.47433975 1.1619872 -0.21347716 0.67032367 -0.6469633 -0.20424548 0.32741284 0.18484116 0.9407495 0.11641226 0.50830233 0.5294391 -0.5290771 0.0394057 0.93894035 -0.91365105 -0.6071139 -0.8820357 -1.0121077 0.4532444 -0.9448793 -0.13793322 -0.3154514 -0.8830251 0.52638036 -0.043139417 -0.13900192 -0.58305633 -0.77277374 0.9140554 0.6007243 -0.5032482 -0.47852698 1.0446069 0.45673886 0.43479416 -0.16130787 0.20726486 -0.9358495 -0.18349846 0.16438952 -0.63793975 -0.36822283 0.10646726 -0.3871407 -0.2862543 -1.0592227 -0.4282753 0.20558654 0.476518 -0.47850847 0.5332054 0.2707779 0.11453046 -0.6546268 -0.00018376175 -0.45699918 0.5593582 -0.5992976 -0.07336489 0.19557025 -0.16731258
24070 0.18612891 -0.13335925 0.5047007 1.1644539 -0.07039666 -0.5804222 1.0956032 1.261982 1.2514645 -0.031361986 0.16957152 -0.26725274 -0.2852459 0.78400433 0.32647794 -0.5089427 0.24143864 -0.69554263 0.08892506 -0.25293672 0.48043293 0.17824155 -0.09712975 0.8116773 -0.81818026 0.10233165 -0.26543608 -0.12918602 -0.5360035 0.022521757 -0.70922506 -0.012225531 0.045833718 -0.25407296 -0.14440249 0.52800155 -0.36986926 0.35205066 0.4674434 0.43272486 -0.0069890823 0.08159012 0.35200864 -0.47398612 0.3502063 -0.5564363 0.5464381 -0.051752172 -0.72694033 -0.71955866 0.09288447 0.28996956 -0.015211244 0.028145906 -0.41009042 0.11225928 -0.21446647 -0.12735406 -0.4667016 0.41165474 0.1511292 -0.16924158 0.14215812 -0.0046652867
36293 -0.18245764 -0.38448864 0.15392664 -0.5918922 -0.33372095 -0.7330065 -0.03978831 -0.6607821 1.2356788 -0.7828413 0.30102944 -0.3131745 -1.251048 0.2997974 0.4093292 0.38452497 1.388168 -0.36239558 -1.1479723 -0.09938111 -1.3438776 0.48270813 -1.2076182 0.87783515 -0.17311615 1.0519658 -0.017801192 -0.65174127 -0.5102988 -0.905146 -0.77980536 0.08610356 -0.29723483 0.67270654 0.25017846 0.54336727 0.1259321 0.85121566 0.0654589 0.4957748 0.007846549 0.14004567 -0.078574866 0.17468885 0.69355917 -0.6049194 -0.9535401 0.11145563 0.011448048 -0.79559475 0.11214285 0.7881633 -0.1689835 0.7061948 0.7837983 -0.18574677 0.48682 -0.24354236 -0.19359417 1.5052804 0.66471267 0.31431282 -0.36346927 1.1366245
47623 -0.11254692 0.049946126 0.4043367 1.0671911 0.54405624 -1.1725577 0.67963386 1.2907038 0.74619436 -0.34214818 0.69142205 -0.706706 -0.113991216 1.23488 0.6328376 -0.9720919 -0.29405883 -0.3272763 -0.54050714 -0.58961225 0.48607108 0.6462466 -0.15362287 0.8252211 -0.6917858 0.11656988 -0.29347846 -0.23388252 -0.17453246 0.4783682 -0.44231048 -0.009261535 0.23729609 -0.22935922 -0.05539071 1.1179278 -0.5846248 0.51433843 0.4985036 0.23504376 -0.041520122 0.20269069 0.6663847 -0.3619167 0.17512356 -0.054876782 0.31119743 -0.062143203 -0.63866 -0.1830742 0.12158949 -0.0074167894 -0.23460394 -0.17662711 -0.6021196 0.2850765 -0.4230437 0.16190249 0.057580363 0.8449033 0.16099884 0.1298533 0.46073765 0.08226795
38084 0.39291695 0.1143052 0.7380641 -0.25572208 0.20053098 -0.07363106 0.5012257 -1.5963258 -0.123525314 -0.38188463 1.4251742 -1.4827343 0.60935897 1.1762387 1.6097448 0.78571224 1.0327065 -0.9492131 0.2953556 -0.0025608703 -0.27956742 -0.09688674 -1.7962652 -0.1379969 -0.33923134 0.9512062 -0.227816 -1.4170262 -0.53103495 0.53203326 -0.6084118 -0.29139215 -0.7993973 0.82638973 0.5226224 0.30122885 -0.048315838 -1.7676362 0.42050228 -0.07620655 -1.2309828 -0.5377663 0.59765625 0.11678004 0.7899559 -0.95270383 -1.4602588 0.15487589 0.59681976 -0.050059732 -0.5448946 1.9082516 -0.59514076 0.36945856 -1.1253496 0.12622997 -1.7234124 -0.30457217 -1.2781444 0.4550556 -1.0816655 0.90537477 1.2205226 -0.25657868
3586 -0.08788988 -0.4359621 0.020495161 -0.6865795 -0.19085026 -0.2280393 0.2020421 0.007919061 1.1681582 -1.1407394 0.09245222 -0.9059641 -0.12594147 0.4594919 0.39490542 -0.46536115 0.06935699 -0.51124525 0.07365504 0.09689792 -0.92319506 -0.13287774 -0.7264753 0.3140772 0.031462688 0.24718635 0.104257025 -0.12999627 0.34987134 0.18370582 -0.5740954 0.09831072 -0.4975443 0.5816159 0.32737294 0.3013254 -0.28897297 -0.5014526 0.35251114 0.265492 -1.1878784 0.16325393 1.2220054 0.26675236 0.1899857 -0.22363396 -0.19997503 -0.27814478 -0.36227447 0.39680636 0.360832 0.45347032 0.10164038 0.34254313 -0.03170626 -0.34343478 -0.98674786 -0.6924772 0.8704226 0.08698776 0.29764384 -0.05681314 -0.6898623 0.79592776
583 0.47656354 0.47313634 0.0629057 0.67332655 -0.34892264 -0.44518596 0.5671444 0.2294672 1.5660737 0.12661326 1.1429181 0.15283974 0.84181803 0.36614951 1.090627 -0.022398869 0.16743329 0.5350787 0.39928296 -0.22447982 -1.5655859 -1.3920282 0.5562545 0.59584963 -1.4404371 0.06718757 -0.2449317 -0.36277187 0.90412253 -0.31254262 -0.0012563725 -0.07374548 0.4063573 -0.34558904 1.030283 0.49941927 1.2441559 -0.51499546 0.10671629 -0.30268133 -0.5791283 1.1239638 0.26444644 -0.4620519 0.048338506 -0.8976985 0.3112838 -0.7491284 -0.78099674 0.24071455 0.31410685 0.1544701 -0.90610975 -0.2398917 0.41288507 -0.23333894 0.186208 -0.45472348 -1.0082973 1.102204 -0.6799165 0.6125245 -0.102544144 -0.9843789
2463 0.5245571 0.62337905 -0.20419823 -0.09436754 -0.3304623 0.07018371 0.41032517 -0.28127939 2.4214427 0.027210314 0.7570166 -0.18272938 0.6023132 0.5662495 1.1705141 -0.16169989 -0.02725253 0.6010936 0.79848516 -0.40679023 -1.9943308 -1.491702 -0.30424988 0.17398186 -1.0466176 -0.11988406 0.040194176 -0.55113757 0.21666723 -0.86171174 -0.4506467 -0.22584738 0.010142315 -0.21740249 1.1850144 0.8692639 1.0137247 -0.82689536 -0.2749813 -0.32819968 -0.51498246 0.44607463 -0.2369086 -0.43968162 -0.15265837 -0.85757583 -0.34592435 -0.8032317 -0.17753033 0.12378816 0.47899094 -0.047893982 -1.1532772 -0.78062886 0.4359264 -0.65279806 0.45510334 0.030651826 -1.3175796 0.87453955 -0.40379766 0.36800143 0.01875731 -0.99092174
3951 0.011552301 -0.05729668 0.16288072 -0.51561064 -0.66563797 -0.5469726 1.9972744 0.6663955 1.0933906 -0.47776645 1.4743361 -1.8000302 0.3016986 1.4005929 0.28085858 -0.38948068 -0.46069673 -0.030427098 0.93350154 -0.7221312 -1.0926946 -0.39660245 -0.32279623 0.21982187 -0.1735858 0.93252456 0.3314423 -0.56400126 1.0338887 0.017921176 -0.4361468 0.6126892 -0.73916745 0.025050716 -0.27223566 -0.61636835 0.35555175 0.28232017 0.4184017 0.12234863 0.11222604 0.3857022 0.6183199 -0.7900361 0.21962109 0.78055316 -0.63139045 -0.4511599 0.56560826 0.21673985 0.54159766 0.44054246 -0.104902856 0.19540596 0.81779474 -0.23909754 -0.770532 0.3852622 0.4477337 -0.32022774 0.2616962 0.4342556 0.12997995 -0.2902809
11812 -0.1394444 -0.12492133 -0.14914745 1.1849755 0.167184 -0.9834278 -0.11736237 0.9800283 1.369595 -1.1607112 1.2326355 -0.14367712 0.4464365 1.4448152 1.0011526 -0.4777509 -0.41935077 -0.1484047 0.25478205 -0.6384662 0.26894844 -0.3419939 0.43362066 0.51891434 -0.54219055 0.2513266 -0.5615837 -0.5912785 -0.5371765 0.072578005 0.2961804 0.34589514 0.46633512 -0.38600037 -0.24299718 0.10585533 0.3035518 -0.4008909 0.71676064 -0.04750094 -0.90421116 0.7452405 0.0036561936 -0.68284786 -0.25077975 -0.55166525 0.4268854 -0.50177956 -0.4157536 -0.12681484 -0.7634299 0.9889 -0.12347349 -0.12273934 -0.2796174 -0.2582584 0.75372815 -0.10716233 -0.76760554 0.41022718 -0.6240578 0.5936848 0.042487662 -0.1731658
7567 0.15979448 -0.6836115 -0.46202025 -1.1843524 -0.85667986 0.52914685 0.4863771 0.86700964 1.5175718 0.002549827 0.45829687 -1.1645303 1.1066673 0.1466737 0.23728994 -0.44982782 0.06397632 -0.8583449 -0.041788798 -0.5642935 -0.1896614 0.2471702 0.089808516 0.56375015 -0.55456734 1.1766964 -0.5447885 -0.84990704 0.533097 0.58729875 -0.09104062 0.24013436 0.24857359 -0.7603936 0.16983648 0.4571072 0.013405832 -0.4080862 1.5353612 -0.37670055 0.6294762 -0.27711904 0.46367148 -1.790433 0.8601823 0.40349114 0.040548597 -0.142812 -0.6535284 -0.6015518 0.93135095 -0.2645057 -1.2779064 1.0494367 -1.1646297 0.3005181 0.42231452 -0.15469973 -1.0525799 0.4387236 -0.6138885 1.6066116 -0.37337506 -0.27309516
42524 -0.03645561 -1.6703047 0.27562034 -0.16496372 -0.58255184 -0.7454593 0.2902646 0.6235772 0.11902493 -0.09022857 1.1645948 -0.30452907 0.72436684 -1.1544021 0.30965182 0.24697845 -0.5768827 0.18792701 0.76279515 -1.1416796 -0.7043164 -0.20685719 -0.2797218 -0.8921603 1.712957 0.08483665 -0.5171741 -0.2244562 -0.31011015 -0.15174322 -0.20491263 -0.44887123 0.70761895 1.2252203 -0.02257724 0.44735005 0.8109802 -0.0050478284 0.90432835 -1.3675689 -1.4840045 0.7534178 -0.3945903 -0.20234743 0.31544122 -1.0361571 -0.072009124 0.19205111 -1.2780021 -0.79949784 0.34289172 0.10539178 -0.4702091 -0.61576146 -1.2068574 0.3000216 0.15721706 -0.97790873 0.33181277 1.7714866 -0.9825442 0.9468058 -0.6937347 0.22340176
35887 -0.54640466 -0.74948955 -0.58449346 0.15368965 -0.037474096 -0.05937178 0.45191357 -0.6921109 1.2881008 -1.2665042 1.5386001 0.28303304 0.14648446 0.14367989 0.14861372 0.45464802 1.2000651 -1.1553388 -0.17026143 0.35590872 0.41770038 0.07531264 -0.48836648 0.824006 -0.84808767 -0.39020374 -0.3234376 -0.6695314 0.651049 0.6590591 -0.67951214 -0.15686068 -0.9875504 0.544873 -0.89139277 -0.3566827 0.77766705 -1.5410795 1.2023084 -0.6339416 -0.018392505 -0.50552016 -0.8135872 -0.65643674 0.4350979 0.69757706 -0.09533292 -0.038028356 0.800864 -0.40162158 0.9863419 0.77943176 -1.1409415 1.2777048 -0.17224903 0.77389306 0.05049191 -0.5909606 -0.5284733 1.4612231 0.17969808 0.32741848 -0.050798424 0.06562587
35886 -0.57489085 -0.70296866 -0.56317097 0.17276639 -0.055375393 -0.043693487 0.4865815 -0.65897095 1.2046901 -1.2753823 1.5749688 0.3262344 0.22487861 0.19419801 0.12243412 0.51653063 1.2298595 -1.1675336 -0.12770128 0.4068237 0.30408144 0.06873423 -0.39703867 0.78973913 -0.85200334 -0.386513 -0.31926903 -0.6113196 0.6343402 0.6056626 -0.6179213 -0.093607225 -1.0174702 0.5360482 -0.8843225 -0.38514373 0.76121426 -1.5332003 1.136123 -0.6689678 -0.0077743977 -0.4510808 -0.81244016 -0.6042699 0.44055516 0.65621126 -0.1131658 -0.1037495 0.8946173 -0.42951116 0.9918745 0.7486199 -1.167291 1.18808 -0.16378224 0.7881183 -0.04595984 -0.5428648 -0.5706613 1.4417619 0.21630223 0.30983156 -0.12834828 0.01950981
11816 0.35926786 -0.24340591 0.2805771 -0.4278238 -1.1240702 -0.430622 0.16600205 0.7381026 1.1309961 -0.05899017 0.8531122 -1.1302106 0.6150001 0.16311605 0.06774628 -0.27547464 -0.02263496 -1.0964574 0.4386035 -0.18895936 -1.056676 0.09880535 -0.4242923 -0.23143251 0.081199266 0.9765594 0.33573985 -0.42541042 -3.2003181e-06 0.48225603 -0.15256403 0.057528522 -0.44920918 -0.15373981 0.00012535564 -0.032638635 0.32818836 -0.20932579 0.31265134 0.15936603 -0.2853882 0.4650317 0.1913157 0.074209705 -0.058288354 0.6788754 -0.22575961 -0.18417364 0.39186165 -0.8254429 0.17026298 -0.6767669 0.5440954 0.65079385 0.41506928 -0.23493528 -0.5482851 0.9231053 0.2427773 0.27545062 -0.07247018 0.08098314 0.11025161 0.53573537
663 0.058680512 0.025989667 0.21950474 0.44553083 -0.1760487 0.041770067 0.039970078 0.60751945 0.81059396 0.19774233 0.8771874 0.24326126 -0.21816072 0.7050134 0.15528464 -0.30408314 -0.7516251 -0.21302187 0.6799369 0.046811596 -0.062347487 0.041089065 0.16530345 0.2615162 -0.96223974 0.38788924 0.6038686 -0.1501728 -0.021688357 0.025353236 -0.3768515 -0.3736184 0.36645284 -0.3116707 -0.0034786155 -0.35795328 0.47798592 0.16770077 0.4345406 -0.49101517 -0.73719406 1.3273143 -0.46783474 0.40667796 -0.25233835 -1.2564714 0.5465642 -0.23774922 -0.8250292 -0.13627759 0.6046051 0.66882515 0.12487501 0.28003827 0.4935135 0.0024014038 -0.43764967 -0.27015343 -1.3205329 0.46868166 -0.16599184 -0.676616 -0.29806498 -0.2182451
9924 -0.60833865 -1.1388429 -0.87154645 -0.7061111 -0.46912298 0.6882291 0.7570913 0.22787285 0.35798544 -0.7615319 0.7395326 -0.1679681 1.3776836 0.31952307 -0.35652685 1.2455121 0.43037924 -0.28785273 0.61671007 -0.7300268 0.5184427 0.4003499 -0.7285769 0.19754007 0.7969425 0.31739786 -0.52628493 0.35710296 1.2719845 0.044979483 -0.056584932 0.64580786 0.33012447 0.8133659 -0.4838248 -0.57154477 0.90812874 0.15325013 0.5597745 -1.4440753 0.14050095 0.014374018 -0.2899834 -0.30476928 0.5488932 0.3301851 -0.44236898 0.35745323 -0.0064608515 -1.1941007 0.35091722 0.6776283 0.40136996 -0.029283457 0.093644395 0.41504142 -0.9800409 -0.6144865 -0.6860352 1.0557873 -0.8443826 -1.3561885 0.23633692 0.62590486
31705 -0.64367753 -0.41409492 -1.2646102 0.10540743 -0.25747445 -0.16664028 0.47684565 -0.39269555 0.32319015 -0.23816855 -0.8964838 -0.9248034 0.033370357 1.3649802 1.0318985 0.81442565 1.0536638 -0.39000693 0.93588495 0.10046505 -1.218131 -0.068455644 -1.012451 0.85556304 -0.15183212 0.6564534 0.050844125 -0.896713 0.94865054 0.33500406 -0.40009114 0.031908866 0.027229859 0.9892641 2.1004112 1.5693505 0.6689152 1.4273324 0.046820287 -0.057741754 -0.38061398 0.90134144 -0.10419023 -0.23129061 0.20764959 -0.9935496 -0.41432616 -0.6546689 -0.497888 -0.23151271 0.8052905 0.3773525 -1.4464579 0.8740809 1.1063247 0.032734204 -0.31038785 0.49043548 -0.45467064 1.2642238 -0.15456842 -0.93718976 0.15816161 -0.10739027
38967 0.4273626 -0.898697 -0.50256675 0.05834099 0.32132927 0.28298172 -0.10433004 0.23516198 1.5201088 0.44339827 -0.3560039 -0.52568555 0.47651583 -0.9710331 0.06449481 -0.9264338 -0.009277421 -0.51069635 0.8929745 0.16397871 -0.68040633 0.69301116 0.039419718 0.46601 -0.62406063 0.81535727 0.25664234 -0.44796425 -0.5029503 -0.39145303 -0.84536105 -0.014960643 -0.5564007 -0.15616669 0.41338724 0.355557 0.22232692 0.6934556 -0.7078273 -0.5767327 -0.83267593 -0.44699708 1.3994775 -0.87148017 0.78780115 -0.5615354 -0.19700725 1.5717164 -1.2083637 -1.2024188 0.85836756 -0.0045006247 -0.78170687 -1.0960716 0.8821025 1.135061 -0.4848184 1.0176567 0.34680447 -0.02791823 -0.3098398 -0.29055917 0.60937786 0.3030134
38964 0.6289939 -0.3452177 -0.52042764 0.72284234 -0.22955516 -0.70778346 -0.026595168 0.6047447 1.4037603 0.9037569 0.031961262 -1.629135 -0.14916176 0.004955217 -0.76343536 -0.12457187 -0.31984627 0.37481332 0.72348034 -0.5421053 -1.3240293 1.0988019 -0.037555546 1.2490445 -0.058275353 0.3531282 -1.5884708 -1.074162 -0.60025156 0.5021443 -0.40509033 0.8297184 -0.59046954 0.33981472 -0.26819542 -0.68336827 0.7791322 1.1767892 -0.6573374 -1.2810464 -0.40323365 0.72802144 0.5695602 -0.9825862 1.4555479 -1.3875592 -0.63622695 1.3433963 -1.5059724 -0.023781946 0.46219972 -0.20729478 0.990689 0.63986295 -0.77774155 1.8549448 -0.38762954 1.1860037 0.48802218 0.9108854 -0.04293057 0.45558578 -0.9956006 0.6318428
36297 0.25396642 0.56004477 1.3449103 0.09825474 -1.1433514 -1.0595028 0.020311404 -0.3956395 0.47516742 -0.4858867 0.27592286 -0.20185173 -0.21016778 0.6252861 -0.99398166 0.015777513 0.61761117 0.116988175 0.090136416 1.0527147 -1.2892923 -0.23193094 -0.2411696 0.7282139 -0.07293103 0.36508211 -0.21556862 -0.7155825 0.4655558 -0.5561367 -0.19381222 0.3002892 0.39396313 0.74354464 0.66269594 0.45900604 -0.4363972 0.05797788 0.072330765 -0.6759291 -0.501088 0.9760159 -0.3526621 -0.11475117 0.6378371 -0.50560457 -0.9146391 0.6728436 -0.60959446 -1.3828034 0.23384908 -0.2198944 0.24812388 0.52198654 0.6693038 -0.13691202 -0.500531 -0.16913767 0.13023269 1.3290069 1.0295937 -0.05951625 -0.72550005 0.638932
4800 0.5496206 -0.39011216 -0.2994678 -0.40269715 -0.84261173 -1.0656312 0.69304115 1.1991736 0.6929546 -0.7216429 0.6636769 -1.1781011 0.30881122 0.41560048 0.13988127 0.0121205775 -0.24052268 -1.017356 1.0353072 0.16443372 -1.317262 0.026076704 -0.3137671 -0.004250934 0.2548475 0.55353683 0.22386809 0.15147549 -0.20418185 -0.16591786 -0.44637665 0.026859581 -0.50123495 -0.16355783 0.091580346 -0.084836036 0.191912 -0.5189454 -0.2453454 -0.7307396 0.16926473 0.86331314 0.47244713 0.5810962 0.27322882 0.7071898 0.2366738 0.20017649 -0.23031293 -0.88218105 0.49766943 -1.0003475 0.37496373 0.13478684 0.3574575 -0.32259306 -0.8793939 0.35911685 0.32187697 0.11668041 -0.011670401 0.23523667 -0.3506369 0.7867343
555 0.037043937 -0.561293 0.5342532 -0.585299 -1.3435826 -0.2132133 0.010977743 0.4786129 1.4273783 0.21775126 0.62114555 -1.3659443 0.37667286 -0.042589087 0.05783622 -0.5266961 0.10690707 -0.97981596 0.38641003 0.28489223 -0.8911146 -0.34478915 -0.42637607 -0.37883872 -0.4564031 0.86255306 1.0808467 -0.08590385 0.39288515 0.2747888 -0.21468778 0.13495095 0.15194702 -0.32270318 0.12935336 0.27217898 -0.13479133 -0.35913968 0.70633763 -0.27545112 -0.80415535 0.4831271 0.30612585 0.2301185 0.36230382 0.051779643 -0.25166404 -0.15711808 0.24842864 -0.58517975 0.8309837 0.0034107238 0.70557 0.797904 0.5562538 -0.059231978 -0.17042091 1.0097973 -0.17411658 0.11223384 -0.12538964 -0.16537751 -0.13192715 0.35615066
43176 0.008711601 -0.09056411 0.4949799 1.054244 -0.58225363 0.9288908 0.0025339406 0.5772869 1.2748331 -0.019982558 0.36545357 0.57768416 0.43975902 0.501575 0.5215655 -0.38936338 -1.2624408 0.023258165 1.2610191 0.55833423 -0.22415276 0.16141541 0.40830547 0.23081562 -0.4234591 0.19254938 -0.23240857 0.6344399 -0.44845396 0.053316996 -0.16261038 0.18011656 0.6368561 -0.31668097 0.74260736 0.059115913 0.32894212 -1.1443372 0.4197527 -0.5382632 -0.46787876 0.99651146 -0.007389944 0.34340036 0.70436954 -0.2481284 -0.29822287 0.071768865 -0.85630745 0.15297328 0.49380305 0.92443985 0.29590178 0.4519189 0.36378765 -0.174292 0.2901812 -0.79220194 -1.0410508 0.50300497 0.24779592 0.117157474 -0.003525577 -0.071115665
32902 -0.0772842 -0.12265566 0.71113527 1.2307426 -0.024011226 -0.46430278 1.3206166 1.4557878 1.2358559 -0.19271424 -0.016634224 -0.2218362 -0.23115535 0.69721913 0.14425941 -0.64112973 0.16406542 -0.8403867 -0.08481339 -0.57130325 0.76672673 0.31522208 -0.19407895 1.1985558 -0.91950697 -0.21440719 -0.41439107 0.05181364 -0.64232296 -0.047179323 -0.2539194 0.20545162 0.060778145 -0.19193518 -0.11720168 0.7331514 -0.5099421 0.22448553 0.41086644 0.6994306 -0.25603592 0.30555016 0.123825416 -0.73936856 0.7100182 -0.43653032 0.5463961 0.09823106 -0.7957672 -0.7398538 -0.044919543 0.28932682 0.15850848 0.2285497 -0.6360918 0.57013524 -0.30550826 -0.008422732 -0.40628922 0.8162725 0.18542092 -0.36690113 0.06671644 0.14102392
46033 -1.438183 -0.82526493 -0.032776833 -0.67503494 -0.25233757 -0.41498986 -0.47391564 -0.30585337 1.422834 -0.28048173 0.77955997 0.22550043 0.2152935 1.015944 0.4881527 0.47890693 0.93299913 -1.7447864 -0.95481145 0.11470184 1.2880299 0.79678535 -0.5771849 0.54081523 -0.96344095 1.4456927 0.8707623 0.008533997 0.52165806 -1.5771363 0.9538911 -0.042362794 0.27504712 -0.18702683 -0.23794478 0.81993455 0.19080211 -1.2832738 -0.646303 -0.6246163 -0.3032986 -0.090854496 -0.07768208 -0.7297695 0.7726197 0.43332368 -1.536738 -0.88266486 0.002951804 -1.3729906 0.16968404 0.15728138 -0.97908205 -0.89481974 1.3522568 0.1574792 -0.38817412 0.54194176 0.003399856 -0.5971245 1.1074849 0.35213822 0.46834156 0.7470998
31697 -0.10276529 -0.24280953 -0.19130772 0.62863195 -0.13370413 -0.3286442 -0.52002305 0.08118338 1.071671 -0.061055858 -0.57614166 -1.1785889 1.8798623 0.150607 0.37694037 -0.3708867 0.5682731 0.17418505 1.1234785 -1.3434664 -0.38638437 0.47998714 -1.2761755 0.722121 -1.0127434 0.38739946 -0.86876845 -0.53020614 0.8871187 -0.97789496 -0.27673143 -0.31325912 -0.8382537 -0.41993013 -1.4995533 0.7262937 0.36099115 -0.05666105 -0.46780083 -0.7784524 -0.9563419 -0.9773795 0.52757335 -0.22727042 0.4401605 0.47164586 -1.7449262 -0.62768567 -0.4126981 0.48971826 0.45421633 -0.6415374 0.32579044 -0.650159 1.1475708 0.58270776 -0.5500596 0.8149099 0.9083364 0.43737644 -0.45872742 1.4218891 0.5011198 -0.16237156
9910 -1.0072802 -0.7147081 0.19797541 -0.33789453 0.3971372 -0.4389102 0.19286866 -0.44312385 0.1388582 -0.26440936 1.0234694 0.5054707 1.8086478 0.3509437 0.8223932 0.26170975 -0.03280543 -1.1455408 1.152807 -0.9644172 0.441725 -0.5625256 -0.9280505 -0.15383613 -0.21720475 1.0977942 -0.43734455 -1.0039892 1.399 0.9605275 -0.5170626 -0.4692603 -0.1067577 -0.5404104 -0.5887652 -0.096587256 0.9005607 -0.44164026 -0.3606806 -0.71849555 0.58771366 -1.0929158 -0.9193094 0.14674738 1.6960801 -0.45116207 0.14444183 -0.21224838 0.12703604 -0.1919277 0.15100105 0.55854505 -0.09078495 0.94100493 0.46064553 0.9787986 -0.7546726 1.1693075 -1.0374426 0.7396341 -1.4394503 1.5632924 0.17863557 -0.62730134
2618 -0.47831693 -0.7276178 0.060549952 -0.66001934 -0.3092057 0.5039143 1.1430203 0.60938054 1.2537767 -0.21743914 0.89585286 -1.3176146 0.46252388 0.7200584 0.67875415 -0.13141742 -0.53828293 -0.4057102 0.9200588 -0.7176199 -1.1721944 0.2236712 -0.50244987 0.3301094 0.010271073 0.5082798 0.76453453 -0.13377647 0.7452363 0.0010747227 -0.868786 0.28127855 -0.1935721 -0.19420096 -0.3490064 -0.3226941 0.3686134 -0.0315896 0.19595878 0.4225963 -0.038460437 0.3975549 0.73259085 -0.00954898 0.21085352 0.8143329 -0.5644801 -0.33080244 0.121019766 -0.058109146 0.5770172 -0.11066492 -0.5527747 0.096556924 1.0522028 0.106057175 0.03484362 0.6864553 0.6146269 -0.17962976 0.5002527 -0.011858878 -0.20856677 -0.26101446
3927 -0.522688 -1.0404855 -1.6466581 -0.4423972 -0.7318693 0.44241267 0.7204253 0.62134194 0.7673707 -0.9224959 0.72970545 -0.20164631 1.1040392 0.76813823 -0.4282796 1.0293758 0.124230556 -0.05412622 0.6199364 -0.3749147 0.2214194 0.56778276 -2.2239156 0.051456366 0.27666935 0.064902 -0.82949966 0.29655826 0.8318752 0.12825465 0.2911138 0.9089769 0.14490038 0.89852774 -0.4895084 -0.81250906 0.8937833 -0.6226437 0.45468467 -1.380739 -0.47129768 -0.8268075 -0.18078914 -0.67032266 0.5659288 0.33875847 -0.61250633 0.01522483 0.8923185 -1.0437999 0.8065156 -0.1591794 0.039550044 -0.24867322 0.9391701 -0.34654817 -0.7915574 -0.30730623 -0.1353941 0.96416986 -0.44104278 -0.68234205 0.7317801 0.5911034
20461 -0.15803157 0.2800996 0.5814738 1.8030103 -0.45652735 0.33888865 -0.027380524 -0.65877557 0.23926431 0.3857885 0.872429 -0.2741544 0.339263 0.13586704 -0.6387141 -0.011992826 0.38241887 -0.5755465 -0.3970554 -0.086782 -1.1759641 0.9572319 -0.9469573 -0.3114796 -0.13786532 -0.6892901 -0.06519828 0.24932782 -0.37139228 -1.1987327 0.48660654 0.60760814 -0.37806496 -0.69703895 0.06500779 0.7078509 -0.19106464 0.2997334 0.35887587 -0.40579003 -0.72070724 -0.2842172 0.57857066 -0.9803913 -0.0273131 0.8010445 -0.35706678 -0.24667972 -1.1169789 -0.6541457 0.74009377 -0.12410775 -0.3153314 0.85260373 0.5872843 0.2859684 0.068416096 -0.5269686 -0.2592117 0.92291963 -0.6125436 -0.08083108 -0.85048336 -0.08177142
3766 0.5449257 -0.62110955 -0.039046478 -0.2683642 -0.7631323 -1.0767744 0.56855226 0.60605294 0.6808882 -0.24616252 0.45720056 -1.0412765 0.28032136 0.40262026 0.13043323 -0.026309738 -0.23187608 -1.2410116 0.66023916 0.029666662 -1.1182868 -0.08028152 -0.45743114 0.01461375 0.4414972 0.7736082 0.35691905 -0.06824145 -0.051831555 -0.15789604 -0.839471 0.20680475 -0.5791981 0.020100454 -0.4854817 -0.26134104 0.117998384 -0.7982682 -0.25891244 -0.25902647 0.12865612 0.5004537 0.56887263 0.4302366 0.44518396 0.7562196 0.0672242 0.1985692 0.10348929 -1.019888 0.20006095 -0.70530397 0.3342537 0.39588508 0.33289704 -0.29252088 -0.54475677 0.120102346 0.43588006 -0.050238583 -0.15524992 0.34191784 -0.13979186 0.2670376
38694 -0.92031085 -2.1408696 0.09721761 0.5430461 -0.49083635 -1.2495537 -0.13215825 -0.27479535 -0.10358698 0.10257216 1.0434866 1.2703795 1.0194577 -0.18950357 0.31644556 0.5131943 -1.2007691 -0.94730675 0.46338952 -1.4978014 -1.1831979 -0.0012258984 0.17363405 -0.23943004 -0.7998401 -0.9910088 0.33795124 -0.49893865 0.55984294 -0.6188294 0.5822632 -0.47385755 -1.2822121 0.067743495 -1.0184921 -0.19037089 0.46238318 0.46351135 -0.71849465 -0.68692863 -0.4514089 1.1845883 1.148248 -1.0504773 0.003368298 -0.30228654 0.29411677 -0.71035427 -0.18625376 -0.25838763 1.5801219 0.56815517 -0.42192426 -0.16330777 0.4317285 1.6651053 -1.2970687 -0.29903007 -0.0008623422 1.147072 0.84115577 -0.34846705 -0.013369701 -0.39115795
470 -0.37972096 -0.29093882 -0.08358145 -0.058556076 0.34968364 0.39904118 0.76040703 1.0908941 0.34219196 -0.13299385 0.33165464 0.12205418 0.085349806 0.28664815 0.2861622 -0.42080277 0.26665798 -0.77435976 0.1181738 0.042850923 -0.27537796 0.24128899 -0.46066839 0.80927527 -0.7029832 -0.9176444 -0.4648381 -0.38592196 -0.22407503 0.03037113 -0.5756267 0.655197 0.24981612 -0.47763854 0.26722726 0.6136078 -0.81977534 0.20955625 -0.22255117 -0.2785307 -0.42688778 0.16835327 0.3189158 -0.3295829 0.6476691 -0.77447504 0.4190068 0.16184142 -0.59368265 0.1954426 0.23515745 0.40763476 -0.0038762803 0.020728178 -0.56580794 0.013579935 -0.91814536 0.6352434 0.033319596 0.6333259 -0.09564246 0.04547502 -0.06377363 -0.30141422
13521 -1.0300556 -0.59493935 0.08524634 -0.05947522 0.64553535 -0.59236014 0.46659282 -0.6584816 0.19757284 -0.5188461 0.9307771 0.46727812 1.8802706 0.35928512 0.8314246 0.3795418 0.11443053 -0.7409577 1.1160673 -0.8107362 0.299956 -0.44347316 -1.0928403 -0.10077476 -0.35778958 0.77669775 -0.726575 -1.069401 1.1883762 0.7125161 -0.32352784 -0.49627843 -0.19646056 0.030015795 -0.957711 -0.22861096 0.88602763 -0.35505253 -0.78566784 -0.87186736 0.6866739 -1.181992 -0.7555146 0.080686174 1.8560702 -0.49817446 0.28184897 -0.38363105 0.49433142 -0.29486245 0.6123482 0.56440276 -0.27827343 0.8410539 0.51654166 0.65195155 -0.7710591 1.330387 -0.79959565 0.5946145 -0.91461486 1.1613292 0.16535908 -0.50907415
12130 -0.1473391 -0.4470838 1.011891 -1.0076077 -0.51776326 0.22254892 1.1716123 -0.4315892 1.7796302 0.11881136 0.4627923 0.32299626 -0.5289994 0.5037685 1.8634856 -0.47863555 -1.0869534 -0.7000733 0.5821068 -0.56249547 -1.545807 -0.41179392 -0.48895186 -1.5379679 -0.1451486 1.4102792 0.53933096 -1.5250807 1.3497664 0.18348669 -1.0005181 -0.057088725 0.23084882 -0.6157513 -1.1089367 -0.12441862 -0.27108186 -0.00404741 -1.4905007 -0.3031661 -0.69855416 -0.41928843 -0.48630023 0.24128914 0.9381798 -0.8470933 0.6091563 0.32254174 -1.1452146 0.08275936 0.27580804 -0.72040653 0.112825364 0.79626197 0.87514555 0.092833675 -0.9625668 -0.26078346 -0.5914007 0.54454976 -0.6629811 0.5826976 -0.18815567 0.38203555
23959 -0.32521242 0.23203318 -0.17774494 0.60507035 0.14774391 0.017499508 0.91199297 0.81676567 0.5243979 -0.044608813 -0.061760496 0.5062785 0.19831741 -0.038482353 0.28630197 -0.60000384 0.15851781 -1.2078885 0.110766 -0.28949514 0.21426705 0.24258694 -0.5374697 0.8471564 -0.5039852 -0.6355278 -0.3370439 -0.44243002 -0.12576051 0.33808103 -0.7594028 0.17561935 0.307918 -0.1333621 0.32857028 0.57387125 -0.696385 0.3265541 -0.3506608 -0.0634799 -0.39324507 -0.032545783 0.2684598 -0.30556622 0.85798967 -0.43120527 0.27327707 -0.33044404 -0.5369506 0.52206093 0.4332983 0.26380673 -0.33538097 -0.12250814 -0.062409118 -0.08686167 -0.9433237 0.25301203 -0.32121363 0.72512966 -0.24435167 -0.064979814 0.08089621 0.27777216
3431 -1.1617033 -0.5368805 0.23915374 0.20963283 -0.8542687 0.027156793 0.60925615 -0.037811592 0.6148783 1.2601895 -0.09923709 0.7790585 0.80069494 -0.023661701 0.13718994 1.1704808 -0.20751083 -2.020329 0.3625845 -0.17053212 0.034560602 1.0763477 -0.07863488 -0.30890474 0.327866 1.1574523 -0.55986124 -0.61939645 -0.4935633 -0.2754966 0.35998744 0.07143288 1.4145266 -0.33467513 -0.5904705 0.29094446 -0.6298396 -0.31455633 0.14638934 -0.18756907 -0.59322447 -0.21495347 0.8802029 -0.8360018 1.0692854 -0.52088207 0.31770727 -0.17008592 0.58745354 -1.2616503 0.12087395 0.7324703 -0.80037683 0.11329192 0.52065283 0.25851792 -1.6160582 -0.5070422 -2.1383965 1.3452977 -0.01720562 0.19003311 -0.10625849 -0.83989555
7494 -1.7346922 -0.20731181 -0.16322337 0.43093058 -0.7155401 -0.99637073 0.96705246 0.12904017 -0.30302778 0.012792057 -0.46278945 0.6846612 0.541237 0.9741459 1.0307325 0.09155206 0.43606067 -0.49672797 1.4232767 -0.41742685 -0.32304248 0.76385164 -0.046967044 0.8495263 -0.15746851 1.3862872 -0.9620051 -0.22453903 1.3305019 -0.11502643 0.042029757 0.37886342 -0.6029419 0.35950473 1.5793375 0.75158775 -1.297049 -0.15796769 -0.2707587 0.03424126 -1.6174462 1.0521369 -0.68504745 -0.8171894 0.07689676 -0.69595104 -1.2472833 0.562789 0.78007305 -1.027519 1.1515552 1.7809684 -1.8839655 0.010839729 -0.11638072 -0.8089337 -0.84227115 -0.41662163 -0.90046287 0.13513729 -0.5737765 -0.15235521 -0.9089127 -0.8082309
19453 0.045245897 -1.0304923 -0.55136406 0.3809172 -0.41011202 -0.83363515 0.16207406 -0.95649654 0.3964734 -0.10339206 -0.27797928 0.0072921016 0.6334341 0.64229006 1.1139119 0.098273225 1.0066289 -0.80135673 0.90694124 -0.9530438 -0.28743488 0.023797961 -1.2461777 1.0933355 -0.4110575 -0.6947776 -0.27527478 -0.9534106 0.2847557 -0.3977408 -0.66711986 -0.6051908 -1.322949 0.7781053 0.28168234 0.9416428 0.028785514 -0.1921869 -0.32215637 -0.57606345 -1.7919753 0.31126902 -0.775319 -0.65560323 0.118374765 0.53707546 -1.6373186 0.2028174 -0.029028717 -0.7687511 0.288683 0.7522951 -0.60139066 -0.08915921 0.1712962 0.38751575 -0.61636174 0.18849058 -0.4464922 1.0763658 0.008566559 0.42790464 -0.26031613 -1.3669671
